%YAML:1.0
---
opencv_ml_ann_mlp:
   format: 3
   layer_sizes: [ 2, 2, 1 ]
   activation_function: SIGMOID_SYM
   f_param1: 2.
   f_param2: 1.
   min_val: -9.4999999999999996e-01
   max_val: 9.4999999999999996e-01
   min_val1: -9.7999999999999998e-01
   max_val1: 9.7999999999999998e-01
   training_params:
      train_method: BACKPROP
      dw_scale: 1.0000000000000001e-01
      moment_scale: 0.
      term_criteria:
         epsilon: 1.0000000000000001e-05
         iterations: 1000
   input_scale:
      - 2.
      - -1.
      - 2.
      - -1.
   output_scale:
      - 5.2631578947368418e-01
      - 4.9999999999999994e-01
   inv_output_scale:
      - 1.8999999999999999e+00
      - -9.4999999999999996e-01
   weights:
      -
         - -1.3745599610174712e+00
         - -1.3630383814086424e+00
         - -1.3696295661823663e+00
         - -1.3582098008312051e+00
         - 1.2138510286309290e+00
         - -1.1981249444958311e+00
      -
         - 1.9521097380000167e+00
         - -1.9530661421889730e+00
         - -1.6707380706510049e+00
