%YAML:1.0
---
opencv_ml_ann_mlp:
   format: 3
   layer_sizes: [ 2, 2, 1 ]
   activation_function: SIGMOID_SYM
   f_param1: 2.
   f_param2: 1.
   min_val: -9.4999999999999996e-01
   max_val: 9.4999999999999996e-01
   min_val1: -9.7999999999999998e-01
   max_val1: 9.7999999999999998e-01
   training_params:
      train_method: BACKPROP
      dw_scale: 1.0000000000000001e-01
      moment_scale: 0.
      term_criteria:
         epsilon: 1.0000000000000001e-05
         iterations: 1000
   input_scale:
      - 2.
      - -1.
      - 2.
      - -1.
   output_scale:
      - 5.2631578947368418e-01
      - 4.9999999999999994e-01
   inv_output_scale:
      - 1.8999999999999999e+00
      - -9.4999999999999996e-01
   weights:
      -
         - -1.5930094239339786e-02
         - -1.0910429544181335e+00
         - 2.9013262608038437e-01
         - -1.0101170014550866e+00
         - 7.8417500288081443e-01
         - -8.0211240283373164e-01
      -
         - 5.7901033809302438e-01
         - -1.9916842016294931e+00
         - -6.6883928567351439e-02
