%YAML:1.0
---
opencv_ml_ann_mlp:
   format: 3
   layer_sizes: [ 784, 20, 20, 10 ]
   activation_function: SIGMOID_SYM
   f_param1: 2.
   f_param2: 1.
   min_val: -9.4999999999999996e-01
   max_val: 9.4999999999999996e-01
   min_val1: -9.7999999999999998e-01
   max_val1: 9.7999999999999998e-01
   training_params:
      train_method: RPROP
      dw0: 1.0000000000000001e-01
      dw_plus: 1.2000000000000000e+00
      dw_minus: 5.0000000000000000e-01
      dw_min: 0.
      dw_max: 50.
      term_criteria:
         epsilon: 1.0000000000000001e-05
         iterations: 10
   input_scale:
      - 1.
      - 0.
      - 1.
      - 0.
      - 1.
      - 0.
      - 1.
      - 0.
      - 1.
      - 0.
      - 1.
      - 0.
      - 1.
      - 0.
      - 1.
      - 0.
      - 1.
      - 0.
      - 1.
      - 0.
      - 1.
      - 0.
      - 1.
      - 0.
      - 5.3648089601031472e+02
      - -4.4180780035878615e-03
      - 1.8733774383330552e+02
      - -5.7548196110001025e-03
      - 2.8917827912884053e+02
      - -4.0825169257547667e-03
      - 6.9402784549102953e+03
      - -4.0825169257547667e-03
      - 1.
      - 0.
      - 1.
      - 0.
      - 1.
      - 0.
      - 1.
      - 0.
      - 1.
      - 0.
      - 1.
      - 0.
      - 1.
      - 0.
      - 1.
      - 0.
      - 1.
      - 0.
      - 1.
      - 0.
      - 1.
      - 0.
      - 1.
      - 0.
      - 1.
      - 0.
      - 1.
      - 0.
      - 1.
      - 0.
      - 1.
      - 0.
      - 3.9039065793799291e+03
      - -4.0825169257547667e-03
      - 1.3101496181268840e+03
      - -4.7096882957418460e-03
      - 2.4170555661572348e+02
      - -8.7993464003812156e-03
      - 1.2171280219459351e+02
      - -1.1590559163787754e-02
      - 8.6089359193337074e+01
      - -1.4758979878597188e-02
      - 7.6718219273647634e+01
      - -1.9284854722948250e-02
      - 5.2369380879591176e+01
      - -2.4671797567120807e-02
      - 4.6120563044168556e+01
      - -2.9071027211066414e-02
      - 4.4786878460768051e+01
      - -3.0592658412926032e-02
      - 4.4787656333604353e+01
      - -3.1164012851993019e-02
      - 4.3052375530710435e+01
      - -3.1962872072097276e-02
      - 4.4224211811248360e+01
      - -3.0202535635168715e-02
      - 4.2710977315808599e+01
      - -3.1310217614785599e-02
      - 4.7105537951617727e+01
      - -2.8383396132158473e-02
      - 5.8885235955553128e+01
      - -2.3119190743491249e-02
      - 6.8612394577963698e+01
      - -1.9166626047137380e-02
      - 7.9472344018885167e+01
      - -1.6772300826249399e-02
      - 1.3123581002788268e+02
      - -1.0996360185098215e-02
      - 2.1052953089211195e+02
      - -8.3248607972167977e-03
      - 3.1615382190904126e+02
      - -4.3806935526371849e-03
      - 1.
      - 0.
      - 1.
      - 0.
      - 1.
      - 0.
      - 1.
      - 0.
      - 1.
      - 0.
      - 1.
      - 0.
      - 9.7597664484498227e+02
      - -4.0825169257547667e-03
      - 1.9654474500613208e+03
      - -5.3953459858502402e-03
      - 3.1269281164948018e+02
      - -8.5224122716123403e-03
      - 5.5735882228722335e+02
      - -1.1985036320239759e-02
      - 9.5576151789615537e+01
      - -1.7653477825358348e-02
      - 5.1056930164178773e+01
      - -2.7710899055215305e-02
      - 3.5733230559056175e+01
      - -3.7020094475901343e-02
      - 2.6249780508148806e+01
      - -5.2151280432312361e-02
      - 1.9721078691808820e+01
      - -6.7036200977379556e-02
      - 1.6409286549080885e+01
      - -8.3017048703456608e-02
      - 1.3549186342660247e+01
      - -9.9379298193932500e-02
      - 1.1609696744810909e+01
      - -1.1518412819176357e-01
      - 1.0285110111076740e+01
      - -1.2913325665555714e-01
      - 9.7338727394767943e+00
      - -1.3839467778572026e-01
      - 9.5151757314514303e+00
      - -1.3888363126273645e-01
      - 9.9099722698638910e+00
      - -1.3184343867851445e-01
      - 1.0956210590093917e+01
      - -1.2042952276999193e-01
      - 1.2709041411674468e+01
      - -1.0189079519288578e-01
      - 1.6674130696362294e+01
      - -7.8604904641684514e-02
      - 2.2944006927855842e+01
      - -5.6995613250721576e-02
      - 3.4145332390673552e+01
      - -3.9657684022977056e-02
      - 6.4380972289955125e+01
      - -2.3728386197652593e-02
      - 1.0201216064042070e+02
      - -1.4088346403922682e-02
      - 2.3129702595552419e+02
      - -7.8308406660807534e-03
      - 1.
      - 0.
      - 1.
      - 0.
      - 1.
      - 0.
      - 1.
      - 0.
      - 4.2338233222320622e+02
      - -5.3683775164463359e-03
      - 3.8666742348304632e+02
      - -8.8706059090845110e-03
      - 2.9859014774801244e+02
      - -1.4070817030805434e-02
      - 8.0947487658522121e+01
      - -2.2146809867850625e-02
      - 4.2299103006120951e+01
      - -3.5180136973244715e-02
      - 2.5693166624632646e+01
      - -5.5023680434794296e-02
      - 1.7471606281948510e+01
      - -7.9096132486633566e-02
      - 1.2387967826839686e+01
      - -1.0764901291939635e-01
      - 9.6104002962409627e+00
      - -1.3716993626751239e-01
      - 7.8359633636656172e+00
      - -1.6710576206380734e-01
      - 6.7479269336820620e+00
      - -1.9600875625047062e-01
      - 5.9035586020770170e+00
      - -2.2449111454187792e-01
      - 5.3359280153182747e+00
      - -2.4865599235127445e-01
      - 5.0493488363958932e+00
      - -2.6211797157803446e-01
      - 5.1020316277747826e+00
      - -2.6259690263220598e-01
      - 5.3500796218594200e+00
      - -2.4785590409543781e-01
      - 5.9302663542669949e+00
      - -2.2194700403229387e-01
      - 6.9559318179997014e+00
      - -1.8721140566259786e-01
      - 8.9774380797173094e+00
      - -1.4764013220829042e-01
      - 1.2125871950158762e+01
      - -1.0816436426260549e-01
      - 1.8460389166583141e+01
      - -7.6812111961473944e-02
      - 2.9061171573651848e+01
      - -4.7075299817748793e-02
      - 4.7515691261457995e+01
      - -3.0201967712070305e-02
      - 1.3997060017124366e+02
      - -1.5241243557476001e-02
      - 4.8119589386801294e+02
      - -5.2837196625275355e-03
      - 1.
      - 0.
      - 1.
      - 0.
      - 1.6437501695049459e+03
      - -4.0825169257547658e-03
      - 3.7948999124808012e+02
      - -7.7634229880172686e-03
      - 2.6465364956065173e+02
      - -1.4893254778498660e-02
      - 7.5547100132842345e+01
      - -2.3962750593807168e-02
      - 3.1293045517732885e+01
      - -5.0340898280189013e-02
      - 1.9253319487654689e+01
      - -7.8767470638240050e-02
      - 1.2245896133246163e+01
      - -1.1618154082631563e-01
      - 8.6097739388774102e+00
      - -1.6124756268211621e-01
      - 6.4388293629673141e+00
      - -2.1196163624500775e-01
      - 5.1132841711993935e+00
      - -2.6689873233519090e-01
      - 4.2638297890357677e+00
      - -3.2567801164512661e-01
      - 3.6806139544727343e+00
      - -3.9024154964529489e-01
      - 3.2738534965497990e+00
      - -4.5207637767453540e-01
      - 3.0435958433804271e+00
      - -4.9939798584797257e-01
      - 2.9495370808173877e+00
      - -5.2342832611087087e-01
      - 2.9769122738174585e+00
      - -5.1761889653133042e-01
      - 3.1329988028508930e+00
      - -4.8090242105578862e-01
      - 3.4437108985095328e+00
      - -4.2307969572253151e-01
      - 3.9682893262328145e+00
      - -3.5674039635689764e-01
      - 4.8775705226929116e+00
      - -2.8368364956985076e-01
      - 6.3838811405214022e+00
      - -2.1683666225361695e-01
      - 8.8883053626105912e+00
      - -1.5852438094871815e-01
      - 1.2980744765268748e+01
      - -1.0878458180989357e-01
      - 2.0958680168932609e+01
      - -7.0922531196939281e-02
      - 4.7812936951348171e+01
      - -3.8953481956109211e-02
      - 1.2257531590987458e+02
      - -1.4252385185312388e-02
      - 7.2367721439515208e+02
      - -5.7704980649312702e-03
      - 1.
      - 0.
      - 1.
      - 0.
      - 2.9417871540563647e+02
      - -1.1901740571867412e-02
      - 8.8757532139417663e+01
      - -2.2050156045995403e-02
      - 3.3425595655991053e+01
      - -5.1838075220759387e-02
      - 1.5797611144504913e+01
      - -9.0659703953055240e-02
      - 9.9267732325844857e+00
      - -1.3966710617956615e-01
      - 6.9531288054011107e+00
      - -1.9708212142090495e-01
      - 5.1791888093859644e+00
      - -2.6438472877765856e-01
      - 4.0949478367254004e+00
      - -3.4073044304775724e-01
      - 3.4204840343450540e+00
      - -4.2253575084186085e-01
      - 2.9730831654946930e+00
      - -5.1540865072114705e-01
      - 2.6668716473145091e+00
      - -6.1603532954457296e-01
      - 2.4737869050523331e+00
      - -7.1598329994436671e-01
      - 2.3794854760962667e+00
      - -7.9412046946133519e-01
      - 2.3503097988593207e+00
      - -8.3504925635580662e-01
      - 2.3634512455510617e+00
      - -8.2418581501601362e-01
      - 2.4260536770784915e+00
      - -7.6283928686585112e-01
      - 2.5775767509617884e+00
      - -6.6655950118818852e-01
      - 2.8486228331443502e+00
      - -5.5625040028500872e-01
      - 3.3231497757785200e+00
      - -4.4764565589238675e-01
      - 4.1210727967563585e+00
      - -3.4762461555368174e-01
      - 5.3682591316137893e+00
      - -2.6084090780568092e-01
      - 7.3094126115109832e+00
      - -1.9030605405482484e-01
      - 1.1168926550406491e+01
      - -1.3108013024346532e-01
      - 2.2622369636117178e+01
      - -7.4846037679501431e-02
      - 5.7487757691238450e+01
      - -3.1930129200937823e-02
      - 4.4537747239005859e+02
      - -8.2089183482417123e-03
      - 1.
      - 0.
      - 7.7475761849239916e+03
      - -5.5701529617163117e-03
      - 1.4522877585739832e+02
      - -1.5661927109954732e-02
      - 4.1878262883200854e+01
      - -3.6365660799255094e-02
      - 1.7999909142227235e+01
      - -7.9024308297724138e-02
      - 1.0331230932898812e+01
      - -1.3328908680027177e-01
      - 6.8290999672482995e+00
      - -1.9915441154090080e-01
      - 4.9272088983420650e+00
      - -2.7542969256552524e-01
      - 3.8384135058740849e+00
      - -3.6333594751041953e-01
      - 3.1668069885399324e+00
      - -4.6308053479389188e-01
      - 2.7597555957407991e+00
      - -5.7484519127083211e-01
      - 2.5128741893339548e+00
      - -6.9880387586332815e-01
      - 2.3671697816662784e+00
      - -8.2877368728986567e-01
      - 2.2969091330304900e+00
      - -9.5689205221335294e-01
      - 2.2733047872684260e+00
      - -1.0564726445619259e+00
      - 2.2700029602873086e+00
      - -1.1047183133689411e+00
      - 2.2700798035254794e+00
      - -1.0835076143940101e+00
      - 2.2737221268619314e+00
      - -9.9895165037964051e-01
      - 2.3209344948971462e+00
      - -8.7474762749777191e-01
      - 2.4580832860573358e+00
      - -7.2455973761129977e-01
      - 2.7398668240292201e+00
      - -5.8060590051791761e-01
      - 3.2651479905893215e+00
      - -4.5215876562125606e-01
      - 4.1219458100688380e+00
      - -3.3932343243838997e-01
      - 5.5475302010118375e+00
      - -2.4893037380193136e-01
      - 8.1851398042212065e+00
      - -1.7293970228860725e-01
      - 1.4306326443527240e+01
      - -1.0410424081705541e-01
      - 3.3058742626084744e+01
      - -4.8317622140315382e-02
      - 1.2378034910308999e+02
      - -1.4708018335971802e-02
      - 1.3289895241960487e+03
      - -4.0825169257547667e-03
      - 1.7097503105993474e+02
      - -1.3231009297387382e-02
      - 6.2156417289230625e+01
      - -2.6243821063207492e-02
      - 2.5326014435452908e+01
      - -5.9158591101620160e-02
      - 1.2461614420419414e+01
      - -1.1300485338296566e-01
      - 7.6748826564449653e+00
      - -1.7844152583258199e-01
      - 5.2903635826036215e+00
      - -2.5800481117426877e-01
      - 3.9855384106976888e+00
      - -3.5091181301576635e-01
      - 3.2255336891033113e+00
      - -4.5909822604992340e-01
      - 2.7636640436047499e+00
      - -5.8414555938894386e-01
      - 2.5061212210827257e+00
      - -7.2495421010686889e-01
      - 2.3728022936152451e+00
      - -8.7563927059873414e-01
      - 2.3191964338595943e+00
      - -1.0148029099084741e+00
      - 2.3096254095150335e+00
      - -1.1321685726224024e+00
      - 2.3091297569524634e+00
      - -1.2021883494219350e+00
      - 2.3156209254806486e+00
      - -1.2295375110901414e+00
      - 2.3134545967968343e+00
      - -1.2096977062098020e+00
      - 2.3040826394535481e+00
      - -1.1446098338285335e+00
      - 2.2977073667993531e+00
      - -1.0231255472837781e+00
      - 2.3473772945100539e+00
      - -8.6295358798529131e-01
      - 2.5233258071932654e+00
      - -6.9048024142832987e-01
      - 2.9015902103058213e+00
      - -5.3290132220149733e-01
      - 3.6020074141584897e+00
      - -3.9754744165744771e-01
      - 4.8258985705805326e+00
      - -2.8768128006504112e-01
      - 7.1423331935750323e+00
      - -1.9700702619488319e-01
      - 1.1967859180596893e+01
      - -1.2122894012373475e-01
      - 2.8232694452391648e+01
      - -5.6808611116772538e-02
      - 1.2309315998804624e+02
      - -1.5390667998292832e-02
      - 3.1512311940197498e+02
      - -5.0254929763461640e-03
      - 8.6915034227213312e+01
      - -1.7320519236473687e-02
      - 3.3353518918426836e+01
      - -4.3080539345626098e-02
      - 1.6501665069210755e+01
      - -8.5248897298831686e-02
      - 9.4878918596255062e+00
      - -1.3945836938888370e-01
      - 6.3388288157438160e+00
      - -2.1088330837912489e-01
      - 4.5489207782483518e+00
      - -3.0001797847660905e-01
      - 3.5089835075906186e+00
      - -4.0728152778461418e-01
      - 2.8955066536535083e+00
      - -5.3288848207907169e-01
      - 2.5483504278885358e+00
      - -6.8062942828912154e-01
      - 2.3779352949715311e+00
      - -8.4198850653767099e-01
      - 2.3094731416557623e+00
      - -9.8243825962476616e-01
      - 2.2950475427098693e+00
      - -1.0749410261392018e+00
      - 2.2897015071404887e+00
      - -1.1079807311493859e+00
      - 2.2934425646888057e+00
      - -1.1065909925445747e+00
      - 2.3014178424824854e+00
      - -1.1041449293100105e+00
      - 2.3021769544932984e+00
      - -1.1080246860400558e+00
      - 2.2968944306998953e+00
      - -1.1002043340650480e+00
      - 2.2893812422312445e+00
      - -1.0437866747052380e+00
      - 2.3139661012166353e+00
      - -9.1297850863583752e-01
      - 2.4379019491961684e+00
      - -7.3919131686119588e-01
      - 2.7526088689138888e+00
      - -5.7100550688195340e-01
      - 3.3962279264341801e+00
      - -4.2367100326525065e-01
      - 4.6485867214316325e+00
      - -2.9819620790274953e-01
      - 7.0153496296266971e+00
      - -1.9768613611613886e-01
      - 1.1806251728899330e+01
      - -1.2068381593648728e-01
      - 2.8559096790374753e+01
      - -5.3935628705774091e-02
      - 1.2669209539206287e+02
      - -1.3505543386742688e-02
      - 3.0944315317963407e+02
      - -5.9057126134358260e-03
      - 6.7738656622238466e+01
      - -2.1109667985968885e-02
      - 2.6390164853037579e+01
      - -5.2989037094956837e-02
      - 1.3804376771270224e+01
      - -9.3078492706036020e-02
      - 8.6264638559462412e+00
      - -1.5039873435817505e-01
      - 5.8816016172546597e+00
      - -2.2619102416253942e-01
      - 4.2265450319020417e+00
      - -3.2364534136116913e-01
      - 3.2674701841764309e+00
      - -4.4213121885917056e-01
      - 2.7235951492800199e+00
      - -5.8424747952851686e-01
      - 2.4429431754282676e+00
      - -7.4857559583901401e-01
      - 2.3184328847443116e+00
      - -9.0044933645904002e-01
      - 2.2880451790190088e+00
      - -9.9238771182055507e-01
      - 2.2903977291540158e+00
      - -9.9508845054647088e-01
      - 2.3159115826654175e+00
      - -9.4955660320436031e-01
      - 2.3400023309736979e+00
      - -9.0890463073946370e-01
      - 2.3448783848648453e+00
      - -9.1393597560628748e-01
      - 2.3324089905019623e+00
      - -9.5430484160568874e-01
      - 2.3068421463559310e+00
      - -1.0030879479951453e+00
      - 2.2944998827245033e+00
      - -9.9948655628514804e-01
      - 2.3186267704657251e+00
      - -9.0150861591533038e-01
      - 2.4383754485171605e+00
      - -7.3668151861396036e-01
      - 2.7460999213736166e+00
      - -5.6758942361502807e-01
      - 3.4069706817979601e+00
      - -4.2017190081767347e-01
      - 4.8071125317185377e+00
      - -2.9017459661998679e-01
      - 7.7632887031407938e+00
      - -1.8148235202313431e-01
      - 1.4099110746027900e+01
      - -1.0493977535211736e-01
      - 3.4218926242112786e+01
      - -4.7213173069471162e-02
      - 1.2770362755626950e+02
      - -1.4130865617149962e-02
      - 2.2080979481972778e+02
      - -5.7728051896635754e-03
      - 5.8551544860708745e+01
      - -2.2632277216942331e-02
      - 2.5743692712420348e+01
      - -5.2803174909811866e-02
      - 1.4040794545379780e+01
      - -9.2205807073873325e-02
      - 8.7664846399532319e+00
      - -1.4745170041602812e-01
      - 5.8682691958390016e+00
      - -2.2728458898662540e-01
      - 4.1271684665560304e+00
      - -3.3242831767066960e-01
      - 3.1726428200935208e+00
      - -4.6269615993779045e-01
      - 2.6434436699252171e+00
      - -6.1903352393203437e-01
      - 2.3980230386018517e+00
      - -7.8428268871882556e-01
      - 2.3107152781844200e+00
      - -9.0820988328758534e-01
      - 2.3020532537123550e+00
      - -9.3137298807958624e-01
      - 2.3616687536827730e+00
      - -8.6957693898804456e-01
      - 2.4501902006376532e+00
      - -7.9705953125158169e-01
      - 2.4767447444586304e+00
      - -7.7141210576080943e-01
      - 2.4242269432151642e+00
      - -8.0356009669907225e-01
      - 2.3741118908222560e+00
      - -8.7393930142504228e-01
      - 2.3236374730501517e+00
      - -9.5157541847179761e-01
      - 2.3084370459076480e+00
      - -9.6213107014847044e-01
      - 2.3368851413852503e+00
      - -8.6347326281157732e-01
      - 2.4890745322650929e+00
      - -7.0132424929878223e-01
      - 2.8361738959976552e+00
      - -5.3739656640440714e-01
      - 3.5527761731899536e+00
      - -3.9677102845564982e-01
      - 5.1237901210746575e+00
      - -2.7122264283119252e-01
      - 8.8311570423583614e+00
      - -1.5932446505431147e-01
      - 1.8016601970465089e+01
      - -8.1258409030663059e-02
      - 4.2475451263066198e+01
      - -3.6950867161005700e-02
      - 1.6162188860115646e+02
      - -1.1873399190853711e-02
      - 3.0321392328343035e+02
      - -7.0551739346642736e-03
      - 6.9327879968291768e+01
      - -2.0771176943315300e-02
      - 2.8599156427981907e+01
      - -4.7203562577549596e-02
      - 1.6332023143315467e+01
      - -8.2003836591592230e-02
      - 9.6134959453560249e+00
      - -1.3745728550563183e-01
      - 6.0102573986025112e+00
      - -2.2518195646666947e-01
      - 4.0843516560539026e+00
      - -3.3849238244600804e-01
      - 3.0899489891325302e+00
      - -4.8293499897158720e-01
      - 2.5794276110452685e+00
      - -6.4828822167773359e-01
      - 2.3678608283610170e+00
      - -8.0980531476936812e-01
      - 2.3141938318023891e+00
      - -8.9646046460446061e-01
      - 2.3433404321987799e+00
      - -8.7178559663557820e-01
      - 2.4505416852454323e+00
      - -7.8497609927864986e-01
      - 2.5469197646779538e+00
      - -7.3254174095443259e-01
      - 2.4813477754078130e+00
      - -7.4095056286507999e-01
      - 2.3946426915352417e+00
      - -8.0221047344472940e-01
      - 2.3621688028976315e+00
      - -9.0126281941490594e-01
      - 2.3196255433058850e+00
      - -9.7772293278124422e-01
      - 2.3094117449211740e+00
      - -9.5554794718715286e-01
      - 2.3627026813110632e+00
      - -8.2490290244962106e-01
      - 2.5756959169276556e+00
      - -6.5598783786068571e-01
      - 2.9964048381517889e+00
      - -4.9936418843997310e-01
      - 3.7189069616766792e+00
      - -3.6957331047588260e-01
      - 5.2390531077791911e+00
      - -2.5846440795255993e-01
      - 9.5672989990866988e+00
      - -1.4969571541660254e-01
      - 2.5777562248504001e+01
      - -6.1111356621783915e-02
      - 5.7373091915983444e+01
      - -2.8011568936962498e-02
      - 2.8492657215739843e+02
      - -9.1250996351920129e-03
      - 3.5594987641409557e+02
      - -5.3043513137468554e-03
      - 9.4791115927359712e+01
      - -1.6238399995902673e-02
      - 3.8327558212569656e+01
      - -3.6378614981226812e-02
      - 1.9899955434053297e+01
      - -6.8582010752963551e-02
      - 1.0583490008789630e+01
      - -1.2736849948820311e-01
      - 6.0022749242070725e+00
      - -2.2614336060038370e-01
      - 3.9429188777766218e+00
      - -3.5220290772844426e-01
      - 2.9703659427023865e+00
      - -5.0758351463884255e-01
      - 2.5120531810291049e+00
      - -6.7944964231380811e-01
      - 2.3400369882995657e+00
      - -8.2825105145513700e-01
      - 2.3152806380133186e+00
      - -8.8883003965305396e-01
      - 2.3570299628350395e+00
      - -8.4190091517470877e-01
      - 2.4523180750098583e+00
      - -7.6653453141818517e-01
      - 2.4745419852472459e+00
      - -7.7020475853643366e-01
      - 2.3415121077481293e+00
      - -8.2034372296827540e-01
      - 2.3006479016649179e+00
      - -9.1768349461627485e-01
      - 2.3215181931826061e+00
      - -1.0290959458622542e+00
      - 2.2951064685186098e+00
      - -1.0582790011233243e+00
      - 2.2922312798183810e+00
      - -9.6567404756517139e-01
      - 2.3969977575408943e+00
      - -7.9447676689302027e-01
      - 2.6843948212324853e+00
      - -6.1674936599250463e-01
      - 3.1327176368905603e+00
      - -4.7007288569919620e-01
      - 3.8146440475721257e+00
      - -3.5512441570711928e-01
      - 5.1233803565236054e+00
      - -2.5540754559716816e-01
      - 9.1333732885906187e+00
      - -1.5382451413879286e-01
      - 3.0176743919350308e+01
      - -5.2454282291703812e-02
      - 6.8736104119773330e+01
      - -2.1505865133579341e-02
      - 2.4886281089663652e+02
      - -9.9219815924551629e-03
      - 1.9519532896899645e+03
      - -4.0825169257547667e-03
      - 1.5278182212105168e+02
      - -1.0934385475086019e-02
      - 5.3124290381130734e+01
      - -2.5544797971133213e-02
      - 2.3963175940830791e+01
      - -5.7073081192190386e-02
      - 1.0894664373756868e+01
      - -1.2466202083886102e-01
      - 5.7190220435471195e+00
      - -2.3849817393128747e-01
      - 3.7247304971314525e+00
      - -3.7325889874453644e-01
      - 2.8570634271343360e+00
      - -5.3313607010242603e-01
      - 2.4649387283709516e+00
      - -7.0209414254697566e-01
      - 2.3294563044533056e+00
      - -8.3745005342666701e-01
      - 2.3162617421233631e+00
      - -8.8007425314282606e-01
      - 2.3541599869294054e+00
      - -8.4101427640859638e-01
      - 2.3976996357132512e+00
      - -8.1679096235082194e-01
      - 2.3455576036564376e+00
      - -8.9192404165129613e-01
      - 2.2405161665547344e+00
      - -9.7855056749435643e-01
      - 2.2848281990008465e+00
      - -1.1108034348264570e+00
      - 2.3193023652239093e+00
      - -1.1806299637403603e+00
      - 2.2737736985285615e+00
      - -1.1288577610345119e+00
      - 2.2859771540836697e+00
      - -9.7607041736638400e-01
      - 2.4356898638405293e+00
      - -7.7519539879466393e-01
      - 2.7447986339664068e+00
      - -5.9444660744996891e-01
      - 3.1590746832916117e+00
      - -4.6091023967254047e-01
      - 3.7814789520643957e+00
      - -3.5550054693543814e-01
      - 4.9257015514210067e+00
      - -2.6354918133304256e-01
      - 8.2208589242476027e+00
      - -1.6450368783159636e-01
      - 2.5954888077457770e+01
      - -5.9513032785963038e-02
      - 7.1809723124772660e+01
      - -2.3368667945240732e-02
      - 1.7375176839444867e+02
      - -7.4043238015330153e-03
      - 5.5276556182575848e+02
      - -4.0825169257547667e-03
      - 2.4691249127225689e+02
      - -7.9883454199429389e-03
      - 8.6134069842761278e+01
      - -1.8296453055643928e-02
      - 2.8082418945003692e+01
      - -5.1339434738376370e-02
      - 1.0759234825880586e+01
      - -1.2934639780528998e-01
      - 5.3166979990211676e+00
      - -2.5752139449892208e-01
      - 3.5308347249498726e+00
      - -3.9501133107809910e-01
      - 2.7788958855542472e+00
      - -5.5042172497057373e-01
      - 2.4456390322327417e+00
      - -7.0732309101379065e-01
      - 2.3309129818889831e+00
      - -8.2604982050292919e-01
      - 2.3276143696997282e+00
      - -8.6785315456393874e-01
      - 2.3528041492090299e+00
      - -8.6074372611799910e-01
      - 2.3564506975469435e+00
      - -9.0403568425773240e-01
      - 2.2859676784389427e+00
      - -1.0347035346571298e+00
      - 2.2422076618255358e+00
      - -1.1454361875382564e+00
      - 2.3283026161621181e+00
      - -1.2742078993414363e+00
      - 2.3215746332786940e+00
      - -1.2481935484502884e+00
      - 2.2691255498527179e+00
      - -1.1397750976187400e+00
      - 2.2957931461751087e+00
      - -9.6328345085513789e-01
      - 2.4457350592781810e+00
      - -7.6301131924236842e-01
      - 2.7139253507707810e+00
      - -5.9702704247599581e-01
      - 3.0907965633105148e+00
      - -4.7201999119145954e-01
      - 3.6782996426446153e+00
      - -3.6837041336524734e-01
      - 4.7685251138076854e+00
      - -2.7332531730663617e-01
      - 7.7275097775245278e+00
      - -1.7338663436106347e-01
      - 2.1431663193156854e+01
      - -6.8942720164739402e-02
      - 6.7976068223364109e+01
      - -2.4644657380557041e-02
      - 8.0352630096764460e+02
      - -6.9849019269755293e-03
      - 1.6587564066621760e+03
      - -4.7702800414168032e-03
      - 2.7628555281923161e+02
      - -4.1894280237942541e-03
      - 1.0543914156042786e+02
      - -1.8648256426065438e-02
      - 2.6868748417048771e+01
      - -5.3272123932593785e-02
      - 1.0056610295259727e+01
      - -1.4042051740819139e-01
      - 4.9056303882587207e+00
      - -2.7718062477915140e-01
      - 3.3920298880197790e+00
      - -4.1220900906901681e-01
      - 2.7586775502695384e+00
      - -5.5400340017988914e-01
      - 2.4700492270462737e+00
      - -6.9200544534485309e-01
      - 2.3574416684740833e+00
      - -7.9258314302255395e-01
      - 2.3494471930472263e+00
      - -8.4194083935003439e-01
      - 2.3534046381274121e+00
      - -8.6976698674166020e-01
      - 2.3271405763526309e+00
      - -9.5866435178155440e-01
      - 2.2645021592926078e+00
      - -1.0941026623517327e+00
      - 2.2643481010533932e+00
      - -1.2048945593454270e+00
      - 2.3324589356324146e+00
      - -1.2724254177800682e+00
      - 2.2899573648145002e+00
      - -1.1836340690530318e+00
      - 2.2643911272807853e+00
      - -1.0783524942057492e+00
      - 2.3214758116188281e+00
      - -9.2258453771877857e-01
      - 2.4481311437088400e+00
      - -7.5248127639028639e-01
      - 2.6679477326838810e+00
      - -6.0978718581715263e-01
      - 3.0089562499497662e+00
      - -4.8675394046402110e-01
      - 3.6000095403133292e+00
      - -3.8089677789549986e-01
      - 4.7658399627595980e+00
      - -2.7829889148674003e-01
      - 7.6781348424802269e+00
      - -1.7549155267349842e-01
      - 1.8194027952870897e+01
      - -7.7026142867230613e-02
      - 5.0970700973169819e+01
      - -2.9626304106761300e-02
      - 2.1444103433480433e+02
      - -9.1102402300022641e-03
      - 1.5615626688370928e+03
      - -4.0825169257547667e-03
      - 4.3118210866498373e+02
      - -6.7072773949266992e-03
      - 7.4103567040797373e+01
      - -2.1601432392398305e-02
      - 2.4849582084670089e+01
      - -6.0707692550739371e-02
      - 8.9577210510157030e+00
      - -1.5702241225085961e-01
      - 4.5844733595056848e+00
      - -2.9716316949982258e-01
      - 3.3078945953160570e+00
      - -4.2230679955157091e-01
      - 2.7862859655937635e+00
      - -5.4572670883740459e-01
      - 2.5345531891813025e+00
      - -6.5910029169170115e-01
      - 2.4268577521168866e+00
      - -7.4125055539316853e-01
      - 2.4016709244412526e+00
      - -7.8837956822291577e-01
      - 2.3774781804714529e+00
      - -8.3396729711932249e-01
      - 2.3181693652265993e+00
      - -9.1941340182165476e-01
      - 2.2581093867191364e+00
      - -1.0259556246832575e+00
      - 2.2637781374363977e+00
      - -1.1227755199202125e+00
      - 2.2914445737932567e+00
      - -1.1450631680222347e+00
      - 2.2738267121204796e+00
      - -1.0794597074728101e+00
      - 2.2925316038385004e+00
      - -9.9988631825843377e-01
      - 2.3499895118375496e+00
      - -8.7891758823830757e-01
      - 2.4512227250017862e+00
      - -7.4358354695923701e-01
      - 2.6336275973954510e+00
      - -6.1562164502372996e-01
      - 2.9908264110534786e+00
      - -4.9307976642021417e-01
      - 3.6241081455783544e+00
      - -3.7987428222747016e-01
      - 4.8968917167607033e+00
      - -2.7351765035083858e-01
      - 7.8803457154066576e+00
      - -1.7353912160656032e-01
      - 1.6651998712570645e+01
      - -8.4050148584957768e-02
      - 4.5490457495914207e+01
      - -3.4162442354077387e-02
      - 1.8533415106542139e+02
      - -8.9396475017993384e-03
      - 1.
      - 0.
      - 3.1272528069509980e+02
      - -8.9320884530738175e-03
      - 5.7722188781541384e+01
      - -2.5397763552538224e-02
      - 1.9766659214740706e+01
      - -7.3900175999987924e-02
      - 7.6197133271261928e+00
      - -1.7786004816348638e-01
      - 4.3139196946334328e+00
      - -3.1338343076992242e-01
      - 3.2703858159618995e+00
      - -4.2901306281978535e-01
      - 2.8322543736440142e+00
      - -5.3508893813496083e-01
      - 2.6182270867393669e+00
      - -6.2078198995980194e-01
      - 2.5150346894911983e+00
      - -6.8268924112787699e-01
      - 2.4702917048498105e+00
      - -7.2347014006379928e-01
      - 2.4179529110888551e+00
      - -7.6555898228681141e-01
      - 2.3484882223506967e+00
      - -8.2507042832445943e-01
      - 2.2995934391871122e+00
      - -9.1939023956809407e-01
      - 2.2784967857757339e+00
      - -1.0062601380037826e+00
      - 2.2814871178392950e+00
      - -1.0328150598231831e+00
      - 2.2960659036638327e+00
      - -1.0106726929154235e+00
      - 2.3213283244741656e+00
      - -9.5150930190270022e-01
      - 2.3550879384987486e+00
      - -8.5546569040277520e-01
      - 2.4434150552990870e+00
      - -7.4032107142160763e-01
      - 2.6358787565292001e+00
      - -6.1326579661208680e-01
      - 3.0316100828809454e+00
      - -4.8515629380565350e-01
      - 3.7626446035868213e+00
      - -3.6804197912277126e-01
      - 5.1811765341757416e+00
      - -2.6078182504371211e-01
      - 8.3242235766781221e+00
      - -1.6833375752181137e-01
      - 1.5937674453010477e+01
      - -8.8542637406523836e-02
      - 4.3629929251431058e+01
      - -3.5936234007029881e-02
      - 3.0745859936160235e+02
      - -1.0710812869814668e-02
      - 7.9264290382954835e+02
      - -5.9059667884066198e-03
      - 3.0466252237848397e+02
      - -6.3521141607904329e-03
      - 4.7072878041138345e+01
      - -3.3320214244283233e-02
      - 1.5316080507390778e+01
      - -9.1304863358325772e-02
      - 6.6617962943833726e+00
      - -1.9910803143977690e-01
      - 4.0960052775195699e+00
      - -3.2796741365280158e-01
      - 3.2065643376810495e+00
      - -4.3899542814059200e-01
      - 2.8285290962207679e+00
      - -5.3445409007988098e-01
      - 2.6514252731867503e+00
      - -6.0594789918596770e-01
      - 2.5479151004395426e+00
      - -6.5940509656342305e-01
      - 2.4802743245613934e+00
      - -6.9784836882395940e-01
      - 2.4320952188286302e+00
      - -7.3042289711392439e-01
      - 2.3963158369953845e+00
      - -7.8112567027452406e-01
      - 2.3365997654832360e+00
      - -8.7168855588320016e-01
      - 2.2936590400163581e+00
      - -9.5845445859848255e-01
      - 2.2982594127292231e+00
      - -1.0112466172079284e+00
      - 2.3140479275716292e+00
      - -1.0104488490174122e+00
      - 2.3138922655004164e+00
      - -9.5294508048441673e-01
      - 2.3390097793279789e+00
      - -8.5872464213485333e-01
      - 2.4369784609184322e+00
      - -7.3231139653859911e-01
      - 2.6754727095326194e+00
      - -5.9491059769969501e-01
      - 3.1294067910226357e+00
      - -4.6342915177180038e-01
      - 3.9445495520310541e+00
      - -3.4877114545342847e-01
      - 5.5085902005863181e+00
      - -2.4588474760444853e-01
      - 8.8099579978306579e+00
      - -1.5820093635281790e-01
      - 1.6777698363713807e+01
      - -8.5437963031161371e-02
      - 5.2277696344241953e+01
      - -3.1557961707876239e-02
      - 2.0428772867343619e+02
      - -9.7604141172027512e-03
      - 4.1641672487571304e+03
      - -4.0825169257547667e-03
      - 2.3612781711075036e+02
      - -1.1281662638917349e-02
      - 3.5408559718698022e+01
      - -3.9757101771674130e-02
      - 1.2957299696939886e+01
      - -1.0385233520642091e-01
      - 6.1964858147993693e+00
      - -2.1198097225213341e-01
      - 3.9594650444964721e+00
      - -3.3747788973590559e-01
      - 3.1271813601099603e+00
      - -4.5170193431740946e-01
      - 2.7617916321302518e+00
      - -5.5213161161170021e-01
      - 2.5842929066675864e+00
      - -6.3188647746150528e-01
      - 2.4802645880248617e+00
      - -6.9322439374912392e-01
      - 2.4176608056922126e+00
      - -7.3838490342499952e-01
      - 2.3783764450554807e+00
      - -7.7073076966790333e-01
      - 2.3490303082911219e+00
      - -8.2876952688509886e-01
      - 2.3116364742205167e+00
      - -9.1927271444367897e-01
      - 2.2877357705369965e+00
      - -1.0088061036688303e+00
      - 2.2962927703534590e+00
      - -1.0608282848796260e+00
      - 2.3055633661100563e+00
      - -1.0481237315772911e+00
      - 2.2953862067285660e+00
      - -9.6705521798398641e-01
      - 2.3392306315132405e+00
      - -8.4650228801890137e-01
      - 2.4875291139961457e+00
      - -7.0122275732413397e-01
      - 2.7878473255332268e+00
      - -5.5538565651689953e-01
      - 3.3310128770022769e+00
      - -4.2707460799875402e-01
      - 4.3033513665355905e+00
      - -3.1681048101811732e-01
      - 6.1459947839004654e+00
      - -2.2068580424468653e-01
      - 9.8816230148713426e+00
      - -1.4105726429159887e-01
      - 1.8655700071922737e+01
      - -7.8171042636145410e-02
      - 5.0726362610482980e+01
      - -2.9182578619715460e-02
      - 2.9949883377146671e+02
      - -8.0257859512416103e-03
      - 1.
      - 0.
      - 1.7274475915998426e+02
      - -1.0342104927080499e-02
      - 3.3237269496476486e+01
      - -4.3273622199041920e-02
      - 1.2341179937887706e+01
      - -1.0916701419569666e-01
      - 6.2613640936690826e+00
      - -2.0903257346693113e-01
      - 4.0691477585926403e+00
      - -3.3022464188369649e-01
      - 3.1277474562017642e+00
      - -4.5487526727414634e-01
      - 2.6981651335036378e+00
      - -5.6919680920874238e-01
      - 2.4916779890819090e+00
      - -6.7294360257836749e-01
      - 2.3897765853198467e+00
      - -7.6060122869494906e-01
      - 2.3376032043649415e+00
      - -8.2875749867192705e-01
      - 2.3094098733546939e+00
      - -8.8650819387043789e-01
      - 2.2931587187037685e+00
      - -9.5984040790998726e-01
      - 2.2848475852125874e+00
      - -1.0513839738978326e+00
      - 2.2875166188451828e+00
      - -1.1209048305462916e+00
      - 2.2928505979586640e+00
      - -1.1289434454891294e+00
      - 2.2923966853097815e+00
      - -1.0627393793992568e+00
      - 2.3074800485734488e+00
      - -9.3933290698519423e-01
      - 2.3936848519631009e+00
      - -7.8734756835251007e-01
      - 2.6109413868413118e+00
      - -6.2699095829156970e-01
      - 3.0390331936072981e+00
      - -4.8806277673095233e-01
      - 3.7717453270064931e+00
      - -3.6895114573691079e-01
      - 5.0386270820564043e+00
      - -2.6929222684699877e-01
      - 7.3023661237951742e+00
      - -1.8721262426800395e-01
      - 1.1428271378915754e+01
      - -1.2162743416079987e-01
      - 2.2633046192565740e+01
      - -6.6493819918405500e-02
      - 5.9439626894799801e+01
      - -2.6033003150953943e-02
      - 8.7457160875791180e+02
      - -5.7733159389513162e-03
      - 1.9519532896899645e+03
      - -4.0825169257547667e-03
      - 2.0097821386457520e+02
      - -1.0009503564535732e-02
      - 3.6333445668023472e+01
      - -4.0498731626959106e-02
      - 1.3862603433763448e+01
      - -9.9984708351078630e-02
      - 7.2357084414232782e+00
      - -1.8820172495416496e-01
      - 4.5209348496663777e+00
      - -2.9963131354587930e-01
      - 3.3206379128157311e+00
      - -4.2724847049622211e-01
      - 2.7455239673924332e+00
      - -5.5525136241948458e-01
      - 2.4686739450668247e+00
      - -6.8177739987301045e-01
      - 2.3426949046735590e+00
      - -8.0158751915885995e-01
      - 2.2944713474999623e+00
      - -9.0865684987425754e-01
      - 2.2878424154374488e+00
      - -1.0089452420447471e+00
      - 2.2955759265085596e+00
      - -1.1036228913658575e+00
      - 2.3106113088741012e+00
      - -1.1813322080156927e+00
      - 2.3057952754025552e+00
      - -1.1921856853912771e+00
      - 2.2980484211071177e+00
      - -1.1253050551749648e+00
      - 2.3053731812177567e+00
      - -9.9470796319709454e-01
      - 2.3720670298054869e+00
      - -8.3223274795177449e-01
      - 2.5546462043288165e+00
      - -6.6712599279544393e-01
      - 2.9231303420497383e+00
      - -5.2269449435178028e-01
      - 3.5635000634852583e+00
      - -3.9906542962413394e-01
      - 4.6428273522096921e+00
      - -2.9670064408779434e-01
      - 6.3701806670761432e+00
      - -2.1262622456584229e-01
      - 9.2275954809983389e+00
      - -1.4869395821728790e-01
      - 1.4508897402895309e+01
      - -9.6895728841391707e-02
      - 2.9263045878004082e+01
      - -5.0931089071961047e-02
      - 8.7293469201337828e+01
      - -2.0214429425303843e-02
      - 1.6016027333676827e+03
      - -4.0825169257547667e-03
      - 2.0149196406116675e+03
      - -4.0825169257547676e-03
      - 1.5572043077856297e+03
      - -6.0049057227948019e-03
      - 4.5942726236699890e+01
      - -3.3706347242927433e-02
      - 1.8509734930018020e+01
      - -7.8972450858446508e-02
      - 9.5511946810091679e+00
      - -1.4774137747773536e-01
      - 5.7193836820922845e+00
      - -2.4325025088460003e-01
      - 3.9284231374253080e+00
      - -3.6034629905507259e-01
      - 3.0523495303717452e+00
      - -4.8644317391314928e-01
      - 2.6031928890019969e+00
      - -6.2240998390928659e-01
      - 2.3820580368802329e+00
      - -7.5670417890365116e-01
      - 2.2865960298787700e+00
      - -8.8873651629216632e-01
      - 2.2595258215903029e+00
      - -1.0021705961184684e+00
      - 2.2676813246114129e+00
      - -1.0895925753510698e+00
      - 2.2740748483281883e+00
      - -1.1174380283506609e+00
      - 2.2724156883699842e+00
      - -1.0748398554738789e+00
      - 2.2911931165328139e+00
      - -9.6307263463876414e-01
      - 2.3773104761289381e+00
      - -8.1766817636238709e-01
      - 2.5690377547178307e+00
      - -6.6465591304478566e-01
      - 2.9451974012654514e+00
      - -5.2359508190457682e-01
      - 3.5692064629435833e+00
      - -4.0214203004097754e-01
      - 4.5720036484622586e+00
      - -3.0306916085785518e-01
      - 6.1702694261497379e+00
      - -2.2168084535953111e-01
      - 8.6299852982483980e+00
      - -1.5936593598315191e-01
      - 1.2613603522996451e+01
      - -1.1006069997814258e-01
      - 2.1385974089017630e+01
      - -7.0039765310377741e-02
      - 5.0072707896652531e+01
      - -3.7135622969980124e-02
      - 1.7446875323390933e+02
      - -1.2201409925660911e-02
      - 8.6753480686378691e+02
      - -4.0825169257547667e-03
      - 1.
      - 0.
      - 1.
      - 0.
      - 9.0364287961602884e+01
      - -2.2738726688603637e-02
      - 3.1606804277646912e+01
      - -5.1905397466875648e-02
      - 1.4715153146870287e+01
      - -9.9988024641741419e-02
      - 8.5647751210323548e+00
      - -1.6843162344781057e-01
      - 5.5173878059039252e+00
      - -2.6031072100529362e-01
      - 3.9393454269138735e+00
      - -3.6983708225796319e-01
      - 3.1044608743878799e+00
      - -4.9009799719239100e-01
      - 2.6645084982783320e+00
      - -6.1537068177771459e-01
      - 2.4387492096415366e+00
      - -7.3897799674054676e-01
      - 2.3362459534878677e+00
      - -8.4317590832245992e-01
      - 2.3067953676491069e+00
      - -9.0195141763074727e-01
      - 2.3138337282029231e+00
      - -8.9980608740497892e-01
      - 2.3637368685532509e+00
      - -8.3974858303552558e-01
      - 2.4785457180132680e+00
      - -7.3465553747717993e-01
      - 2.7125767315666223e+00
      - -6.1257571358669050e-01
      - 3.1218285421560279e+00
      - -4.9207119008839512e-01
      - 3.7996938912317675e+00
      - -3.7992816821790787e-01
      - 4.8326273042782271e+00
      - -2.8881739452323613e-01
      - 6.3854364769598693e+00
      - -2.1344093799804417e-01
      - 8.8669869107133010e+00
      - -1.5366778297330164e-01
      - 1.2619632853276977e+01
      - -1.0912600850246741e-01
      - 1.9248390570241277e+01
      - -7.4098756511331132e-02
      - 3.5589782125376395e+01
      - -4.3317185320121798e-02
      - 8.5094885527377215e+01
      - -1.9343792080923451e-02
      - 2.7583703406443715e+02
      - -1.0402481984734060e-02
      - 1.
      - 0.
      - 1.
      - 0.
      - 1.
      - 0.
      - 1.6655764615757803e+02
      - -1.0352700890498751e-02
      - 5.9994074933847870e+01
      - -2.8750102524065856e-02
      - 2.7003375540170516e+01
      - -5.7568373863846986e-02
      - 1.5182051158942553e+01
      - -9.5310537265846387e-02
      - 9.3189478652061020e+00
      - -1.5360976276349314e-01
      - 6.2309547067523656e+00
      - -2.2342452706933258e-01
      - 4.6003146079896382e+00
      - -3.0357777160973176e-01
      - 3.6585686458791615e+00
      - -3.8847997503342746e-01
      - 3.1467005272938047e+00
      - -4.7019583424592126e-01
      - 2.8897868890364111e+00
      - -5.3312356752001944e-01
      - 2.7991188735900057e+00
      - -5.6650599100434185e-01
      - 2.8160026559533500e+00
      - -5.6278365839423838e-01
      - 2.9584979336834598e+00
      - -5.2716469784496944e-01
      - 3.2482283585972671e+00
      - -4.6805739853350276e-01
      - 3.6779783775324946e+00
      - -3.9580504695925761e-01
      - 4.3342463742431860e+00
      - -3.2478944735782650e-01
      - 5.3825305523192180e+00
      - -2.5570503272368655e-01
      - 6.8782638998898085e+00
      - -1.9461171306904182e-01
      - 9.3112700649656173e+00
      - -1.4457420568795201e-01
      - 1.3020504802411075e+01
      - -1.0177354320002412e-01
      - 1.9147175508781199e+01
      - -7.1425222991494272e-02
      - 3.0486265340168710e+01
      - -4.7777757086526054e-02
      - 6.4497015077753005e+01
      - -2.5752435999282175e-02
      - 1.3080779972900260e+02
      - -1.1379423793926306e-02
      - 6.2688780062263675e+02
      - -4.7528749341798140e-03
      - 1.
      - 0.
      - 1.
      - 0.
      - 1.
      - 0.
      - 1.0847213087133043e+03
      - -6.6643011271786835e-03
      - 1.5721880005558535e+02
      - -1.0964213236813024e-02
      - 5.5086488023576301e+01
      - -2.7604451685625048e-02
      - 2.7705306946450186e+01
      - -5.1553601425717507e-02
      - 1.5743024153023145e+01
      - -8.6771846188993015e-02
      - 1.0293051935241124e+01
      - -1.2839203323658069e-01
      - 7.2960988449751776e+00
      - -1.7577589865098220e-01
      - 5.7870197642168240e+00
      - -2.2305443842966177e-01
      - 4.9024182121991906e+00
      - -2.6664028652916133e-01
      - 4.4971767442703481e+00
      - -2.9484431645459142e-01
      - 4.3322548406607746e+00
      - -3.0750543396580460e-01
      - 4.3780128970537122e+00
      - -3.0518012275382900e-01
      - 4.6657172510630858e+00
      - -2.8923178018649093e-01
      - 5.1147729585684223e+00
      - -2.6323129207069107e-01
      - 5.6771986005857658e+00
      - -2.3372359022899974e-01
      - 6.5795145791347958e+00
      - -2.0102782478387640e-01
      - 7.9934413549729015e+00
      - -1.6369105249752314e-01
      - 1.0295210628504439e+01
      - -1.2766599656024497e-01
      - 1.4166994665298915e+01
      - -9.3965139687798876e-02
      - 2.0292669136165173e+01
      - -6.5683259341041161e-02
      - 3.1602244940278954e+01
      - -4.5926531259964626e-02
      - 5.2377849853898759e+01
      - -2.8718809806365080e-02
      - 1.2798691546448659e+02
      - -1.5693036558388229e-02
      - 4.0575786632970085e+02
      - -5.6753061690289659e-03
      - 6.0060103964212067e+02
      - -4.0825169257547658e-03
      - 1.
      - 0.
      - 1.
      - 0.
      - 1.
      - 0.
      - 1.
      - 0.
      - 1.6437501695049459e+03
      - -4.0825169257547658e-03
      - 1.0877166104137086e+02
      - -1.5121393949717036e-02
      - 4.9049992613745033e+01
      - -3.1369554677313588e-02
      - 2.5264036432077848e+01
      - -5.3330235093993712e-02
      - 1.6845130997129960e+01
      - -7.9228267194858468e-02
      - 1.1932232824927320e+01
      - -1.0837665070136905e-01
      - 9.7295488013126779e+00
      - -1.3397906834398657e-01
      - 8.2812508102890874e+00
      - -1.5751318119558358e-01
      - 7.4665824969193100e+00
      - -1.7510551410246683e-01
      - 7.2259399750698483e+00
      - -1.8262689797873416e-01
      - 7.3549760793065140e+00
      - -1.8053534138236474e-01
      - 7.7763890446668418e+00
      - -1.6987649156736156e-01
      - 8.7749184574538699e+00
      - -1.5315731416993231e-01
      - 9.7697588468058694e+00
      - -1.3543312418421866e-01
      - 1.1460099152015596e+01
      - -1.1648029967275737e-01
      - 1.4083023156070727e+01
      - -9.3951254495821812e-02
      - 1.8349302005841515e+01
      - -7.2576887352189492e-02
      - 2.4714646487709242e+01
      - -5.2364359860292822e-02
      - 3.8916379061000157e+01
      - -3.6382999665505157e-02
      - 7.2851388649906184e+01
      - -2.1503063848340172e-02
      - 2.0535563144582238e+02
      - -1.3019279071624543e-02
      - 2.2181126274400849e+03
      - -4.4942151694836409e-03
      - 1.0586865875306848e+03
      - -4.0825169257547676e-03
      - 1.
      - 0.
      - 1.
      - 0.
      - 1.
      - 0.
      - 1.
      - 0.
      - 1.
      - 0.
      - 1.
      - 0.
      - 5.8282566922955721e+02
      - -5.7901636185117896e-03
      - 1.4815384042268099e+02
      - -9.0538459630506996e-03
      - 9.8031734479042356e+01
      - -1.6005443039450590e-02
      - 6.3234739408312400e+01
      - -2.2119760192230036e-02
      - 5.3391879867369703e+01
      - -2.6845995937598614e-02
      - 4.1276640363348562e+01
      - -3.1845063383270797e-02
      - 3.3200270050886715e+01
      - -4.3748408875714795e-02
      - 2.8042060901266538e+01
      - -4.7282947566080466e-02
      - 2.5762023480025256e+01
      - -5.3138804776655016e-02
      - 2.4444263035638215e+01
      - -5.6622819640951172e-02
      - 2.2362696334659461e+01
      - -6.0338355805842875e-02
      - 2.4245960803600116e+01
      - -5.6295001632962055e-02
      - 2.7133959988062209e+01
      - -5.1366537962549211e-02
      - 3.1646881451155753e+01
      - -4.2632279919398892e-02
      - 4.2201622222289785e+01
      - -3.3171027205153004e-02
      - 6.4456509031414527e+01
      - -2.2462883077193959e-02
      - 8.9794385126056980e+01
      - -1.6069087038247151e-02
      - 1.5117778664796199e+02
      - -1.1432202884208037e-02
      - 1.5194223226179110e+02
      - -9.0072945458071294e-03
      - 7.3572522314844582e+02
      - -5.7703939285430259e-03
      - 1.
      - 0.
      - 1.
      - 0.
      - 1.
      - 0.
      - 1.
      - 0.
   output_scale:
      - 5.2631578947368418e-01
      - 4.9999999999999994e-01
      - 5.2631578947368418e-01
      - 4.9999999999999994e-01
      - 5.2631578947368418e-01
      - 4.9999999999999994e-01
      - 5.2631578947368418e-01
      - 4.9999999999999994e-01
      - 5.2631578947368418e-01
      - 4.9999999999999994e-01
      - 5.2631578947368418e-01
      - 4.9999999999999994e-01
      - 5.2631578947368418e-01
      - 4.9999999999999994e-01
      - 5.2631578947368418e-01
      - 4.9999999999999994e-01
      - 5.2631578947368418e-01
      - 4.9999999999999994e-01
      - 5.2631578947368418e-01
      - 4.9999999999999994e-01
   inv_output_scale:
      - 1.8999999999999999e+00
      - -9.4999999999999996e-01
      - 1.8999999999999999e+00
      - -9.4999999999999996e-01
      - 1.8999999999999999e+00
      - -9.4999999999999996e-01
      - 1.8999999999999999e+00
      - -9.4999999999999996e-01
      - 1.8999999999999999e+00
      - -9.4999999999999996e-01
      - 1.8999999999999999e+00
      - -9.4999999999999996e-01
      - 1.8999999999999999e+00
      - -9.4999999999999996e-01
      - 1.8999999999999999e+00
      - -9.4999999999999996e-01
      - 1.8999999999999999e+00
      - -9.4999999999999996e-01
      - 1.8999999999999999e+00
      - -9.4999999999999996e-01
   weights:
      -
         - -2.4205505044311306e-03
         - 1.4350020023881954e-03
         - 6.4644512343053386e-04
         - 4.8633238430626955e-04
         - 3.7031664159510754e-04
         - -1.6347347408353825e-03
         - -1.2924630049669246e-03
         - 1.7709373011530339e-03
         - 7.3201703133273985e-04
         - 8.4176117600069699e-04
         - -2.2103004689572893e-03
         - 2.5701767177842448e-03
         - -4.6055566270852285e-04
         - -1.2959532608692174e-03
         - 1.2146696274049592e-03
         - 1.3501453984548978e-03
         - 1.2006486140541952e-03
         - -7.9047858364686484e-04
         - 5.2702745043081700e-04
         - 1.4969797402949717e-03
         - 5.1696284291902759e-04
         - -1.1462587045603955e-03
         - 1.3271121066285687e-03
         - 2.0349253709197814e-03
         - -2.0789439996259971e-04
         - -2.6278472881858567e-03
         - -6.2137547830144280e-04
         - -5.6314481290179158e-04
         - -5.8884356465172384e-04
         - 1.1347947913265721e-03
         - 1.8158400495619021e-03
         - 1.2053427000363397e-03
         - -3.3871773124435558e-04
         - 1.5782343508407672e-03
         - 2.3643370250245712e-03
         - 1.4576160908754509e-03
         - 1.2876331728093708e-03
         - -2.2223573664666742e-03
         - -1.2420822153991372e-03
         - 1.1362399353808165e-03
         - -1.2804791524286005e-03
         - 6.7518982672510366e-05
         - 2.2473935682637883e-03
         - 2.5395760880831206e-03
         - 2.0356583424529263e-03
         - -1.6138746992204096e-03
         - -1.3125068490776859e-03
         - -2.4967956905256933e-04
         - 9.9626523151477467e-04
         - -2.2087560357629665e-03
         - -1.1333992639877570e-03
         - -2.4273224828371152e-04
         - 7.7630524580477305e-04
         - -1.1719426692489087e-03
         - -2.1526167959436096e-03
         - 6.9756280721370938e-04
         - -1.7932330600998283e-03
         - 2.2032823546913132e-03
         - 1.6967791950376206e-03
         - -4.6670675607554966e-04
         - -2.4637757559718390e-03
         - -1.7327611006138013e-03
         - -3.2378306990859938e-04
         - 1.6180144935055938e-04
         - -1.2961637534946498e-03
         - -1.5411780484630919e-03
         - -2.1537375971565132e-03
         - 1.2317466357031616e-04
         - 1.5599706515948475e-03
         - 1.1229033724529732e-03
         - 1.5818133332635399e-03
         - -1.9540008608226636e-03
         - -2.2558202760087150e-03
         - 1.9116751418444991e-03
         - 8.3133094378275629e-04
         - -2.2891370683491056e-03
         - 2.4031849968570462e-03
         - -1.3613195690988339e-04
         - 2.4622165196933540e-03
         - 2.2469265872351483e-03
         - -2.2164555538606943e-03
         - 5.4420167816968225e-05
         - -1.8052510358768502e-03
         - 1.9240928100986337e-03
         - -2.1490698847570181e-03
         - -2.4642684111729599e-04
         - -8.7907366447753643e-04
         - 4.6436471972906442e-04
         - -1.1994013800273768e-06
         - -2.1401963432074326e-03
         - -6.8970606255694563e-04
         - 3.8017699352059709e-04
         - -2.0592862362326545e-03
         - -2.5428084608797009e-03
         - 1.4869682197062102e-03
         - -1.3405091543033452e-03
         - 1.6968982477163824e-03
         - 1.7704015934604858e-03
         - 6.4125698621222971e-04
         - -1.9799294755912370e-03
         - -1.6444973995184962e-03
         - -4.3799719571041755e-05
         - -1.9234802182087976e-03
         - 1.9955441270866278e-03
         - 7.8379081026646918e-04
         - -6.4226866380196466e-04
         - -2.2320138745057973e-03
         - 1.1573243959949113e-03
         - -1.6460949203925604e-03
         - -2.0755162909711173e-03
         - -1.2109553474629624e-03
         - -9.6223127535712103e-04
         - -2.4556823726113244e-03
         - -2.0884822605287236e-03
         - 8.3647399913376011e-04
         - -1.1715070707087234e-03
         - 2.4278281631352622e-04
         - 1.1581771796937818e-03
         - -4.0330837013380296e-04
         - 1.5824098313722316e-03
         - 1.9480833401877196e-03
         - 4.9223404527388710e-04
         - -2.5238726703305072e-03
         - -1.3079980521101626e-03
         - -2.4689822304553876e-03
         - 2.2754617926418891e-03
         - -1.0526081234787173e-03
         - -3.6487051617187715e-04
         - 7.4661993505201955e-04
         - 8.8176955885737565e-05
         - 1.4204778018725263e-04
         - 2.2194126952998438e-03
         - -1.1465519056710516e-03
         - 3.3471743796456343e-04
         - -1.3690072539198063e-04
         - -1.5037947783071259e-03
         - -1.2131881101341631e-03
         - -6.5869390660468262e-04
         - 2.5136147601643034e-03
         - 6.3911516776470122e-04
         - -1.3476482375602335e-03
         - 1.3548378242118010e-03
         - -1.7252890213117569e-03
         - -9.4683011213765925e-04
         - 1.6393767554926939e-03
         - -1.6294771394427603e-03
         - 2.5219725353717230e-03
         - 1.6091874831158180e-03
         - 1.7540571965168929e-03
         - -1.3138946119233877e-03
         - -1.3818338026690637e-03
         - 1.2919432192977096e-03
         - 5.2065326746362215e-04
         - -1.4259099601866515e-03
         - 1.4388457219316941e-03
         - 2.1229797614214863e-03
         - 2.3265137146770715e-03
         - -9.4943249687301544e-04
         - -2.2401223218766913e-03
         - -1.0299216535163650e-03
         - -1.5179642873671131e-03
         - -8.7803738569985153e-04
         - 4.3472526194037012e-04
         - 5.6108848391255299e-04
         - 8.1344258797895409e-04
         - -3.0913411210118117e-04
         - -1.3031592582726976e-03
         - 8.9551951712634685e-04
         - 1.3912398855951233e-03
         - 1.0562222524353837e-03
         - -2.4191583006407012e-04
         - -1.3910501813282044e-03
         - -1.1338867673053499e-03
         - 8.0296326768569399e-04
         - 1.8205861206110191e-04
         - 1.5261867539824105e-03
         - -2.3428463568896710e-03
         - -1.2240567201625651e-03
         - -9.6631872044087251e-04
         - 2.6675942656919824e-04
         - 1.8520543735109361e-03
         - 1.4466576111475499e-03
         - -1.0408105381045029e-03
         - -2.4429848070626158e-04
         - 2.1278611551909612e-03
         - 1.1052344849717610e-03
         - 9.1089933745043311e-04
         - 3.7423707290461141e-04
         - 1.0766520363299718e-03
         - -5.4924400659971066e-05
         - 1.4747365807939088e-03
         - -2.3342038998617810e-03
         - 9.3863755278867191e-04
         - 2.0868864267757263e-03
         - 1.4353976223345942e-03
         - 8.0670722930146273e-05
         - -6.6601619693575488e-05
         - -1.1728615964104660e-03
         - 1.2641911193869699e-03
         - 1.4600304651329560e-03
         - 2.0083151546723349e-03
         - 1.8272778278342235e-03
         - 6.9828899729658725e-04
         - 5.1735722337835604e-04
         - 5.1785538133258347e-04
         - -2.2195795021714851e-03
         - -1.9206163588961576e-03
         - -2.3564656836951659e-03
         - 8.2126803989862628e-04
         - -4.2084850458190705e-04
         - -2.3587344326903787e-03
         - 9.1357249180923600e-04
         - 1.9292145995443890e-03
         - -2.1951551430501085e-03
         - -8.6467205170623806e-04
         - 2.0450267767225458e-03
         - -1.1554535384737091e-03
         - 1.8222234801288639e-04
         - -1.0240729083307129e-03
         - -2.4259810056627643e-03
         - 2.8467446622635289e-04
         - 7.1301419407129364e-06
         - -1.9520772735413894e-03
         - 9.6478133724800161e-04
         - 1.6748590481547787e-04
         - -1.8426482634378873e-03
         - -2.5044088343399019e-03
         - 2.1328752650343042e-03
         - 9.7940098225204691e-04
         - -1.1246740974158588e-03
         - -1.2147735505715627e-04
         - -1.9877965366416608e-03
         - 8.3164271816482465e-04
         - 2.0051486555808411e-04
         - 1.0971990663864980e-03
         - 1.7896879019800433e-03
         - -1.1643265276362258e-03
         - 1.4704769451938369e-03
         - 5.5558269047500654e-05
         - 1.6323857113135344e-03
         - -6.1854156369322155e-01
         - -1.8020855206166302e+00
         - 8.4725669345107324e-01
         - 2.1973776612453895e+00
         - -1.8323352567680387e+00
         - -8.9634952491606223e-01
         - -5.0333077275218470e+00
         - -3.6719434228408061e+00
         - -1.0609246037924208e-01
         - -5.3172392849179362e-01
         - -1.1715097023780129e-01
         - -9.6592284693695041e-01
         - -5.1407694926200884e+00
         - 3.4243884780161387e+00
         - 2.2412712956076614e-01
         - -2.0829494800759296e-01
         - 5.3838321325172993e+00
         - 3.8919937601871495e+00
         - 2.0417433094907467e+00
         - -3.5542847799371198e+00
         - -6.1832422242557616e-01
         - -1.6433419651783558e+00
         - 1.1418474094349478e+00
         - 2.1949404381792097e+00
         - -2.1948564287006347e+00
         - -1.1450840989150737e+00
         - -4.7698311185564446e+00
         - -3.6724744168355170e+00
         - -1.0946746873350155e-01
         - -4.4038540565256029e-01
         - -5.0145715008943892e-01
         - -9.6483363160740743e-01
         - -5.1370216481463666e+00
         - 3.4241043642976083e+00
         - 2.2373961650996371e-01
         - -4.4053994523430584e-01
         - 5.3842361834032824e+00
         - 3.8942161558724049e+00
         - 2.0373689760841174e+00
         - -2.4125887503075734e+00
         - -3.8182498837998335e-01
         - -1.6179126638189403e+00
         - 1.2247109920661663e+00
         - 2.1952649364648122e+00
         - -2.6311724621088279e+00
         - -1.1452388033140029e+00
         - -4.6071505173828626e+00
         - -3.6725922166154477e+00
         - 6.7287638545353334e-01
         - -1.8232553315909042e-01
         - -1.5782463536154376e+00
         - -9.6573382554355913e-01
         - -5.1390011905005872e+00
         - 3.4237732210557144e+00
         - -3.8580151232587276e-02
         - -8.1026778831608615e-01
         - 5.3820558646530428e+00
         - 3.8923237500813324e+00
         - 2.0379554545062972e+00
         - -2.4134294100961076e+00
         - -3.8244168348075980e-01
         - -1.6188891263546470e+00
         - 1.2249639853777705e+00
         - 2.1977525862708376e+00
         - -2.6270256342205744e+00
         - -1.1441336884510998e+00
         - -4.6082793406324010e+00
         - -3.6747544867218735e+00
         - 6.7513313576192302e-01
         - -1.8208386985908634e-01
         - -1.5761288099435726e+00
         - -9.6511135845431462e-01
         - -5.1373240913733600e+00
         - 3.4209428510143773e+00
         - -3.8644785942662727e-02
         - -8.0737476886066972e-01
         - 5.3839827212731191e+00
         - 3.8956884970140893e+00
         - 2.0375673255311195e+00
         - -2.4125264125212653e+00
         - -1.4251225798383059e-03
         - -1.5890473498686717e-03
         - -8.0762309645902435e-05
         - -1.3598342427780033e-03
         - -2.3329599160474835e-04
         - 2.1944935225832502e-03
         - -3.1341928430198013e-04
         - -2.1922263295850375e-03
         - 9.7071599040508046e-04
         - -6.0095353360470219e-04
         - -1.0077192213966163e-03
         - -1.6419727606589401e-03
         - 5.0062523016231519e-04
         - -7.9409760698395627e-04
         - 2.3268245151482894e-03
         - -2.0468511316547454e-03
         - 9.2268684687723699e-04
         - -1.4314526758790267e-03
         - -8.4419261471443789e-04
         - -1.1969432282164984e-03
         - -7.5506563896843071e-05
         - 1.4521507289266069e-03
         - 1.8574904917527992e-04
         - -1.0509141955589495e-03
         - -9.3023880985647160e-04
         - -2.0139141162951579e-03
         - -1.4626053733747875e-03
         - 1.7804692234739147e-03
         - -1.0704200659513896e-03
         - -9.8626957586166793e-04
         - -1.7319874843055476e-03
         - 7.8345758797214839e-04
         - 5.5136955996922411e-04
         - 1.3119419476491814e-03
         - 9.5378771390859142e-04
         - -1.1917524974114041e-03
         - 1.9075631831270462e-03
         - 2.1677159175003818e-03
         - -1.7479292680582246e-03
         - 2.3388175365901915e-03
         - -1.1418663523841770e-03
         - -2.1339647616595503e-04
         - 1.2701827318840997e-03
         - 2.4734774443696617e-03
         - -1.8911428880156952e-03
         - 2.4099490304432180e-03
         - 3.2248439323025722e-04
         - 1.6721258845070407e-03
         - 7.2651704104675219e-05
         - 5.5528402105477258e-04
         - 9.2241838286681154e-04
         - 1.7547111551820601e-03
         - -2.2266706500697299e-03
         - -1.6430416118774060e-03
         - 1.8033468382288123e-04
         - -2.0843847442644564e-04
         - -9.1860680700187210e-04
         - -8.6621657482981054e-04
         - -8.1895492432965339e-04
         - -2.2049529798704726e-03
         - -8.2234402191242199e-04
         - 9.3508217411096138e-04
         - -1.4387910677909120e-03
         - -1.2009279951206134e-03
         - -1.8911334307008200e-03
         - 2.0295048130297708e-03
         - 9.1404616238633253e-04
         - 1.3770455659699375e-03
         - 2.6179926835170675e-04
         - 1.2516337206673928e-03
         - -2.5572184268598773e-03
         - 2.1316231274732147e-03
         - -1.7691190938068861e-03
         - 1.9249163083295308e-03
         - -3.7769086036333431e-04
         - 2.3876478479126348e-03
         - -4.8083947152634650e-04
         - -1.0189572123142279e-03
         - 1.7052339082915119e-03
         - -4.5050015421954501e-04
         - 1.5090325222826991e-03
         - -1.0333204742517255e-03
         - -1.6503136715924442e-03
         - 1.6689392836078175e-03
         - -1.6068428522242240e-03
         - -2.4106649452935009e-03
         - -1.2659648427497975e-03
         - 2.0602601999719326e-03
         - -1.9883357501018504e-03
         - 2.0844527997869783e-04
         - 2.2036150030782064e-03
         - -8.8362695702547686e-04
         - 1.1331568693295968e-03
         - -1.2024805787642652e-03
         - 1.0833194799334566e-03
         - 2.3382365655958935e-03
         - 5.1165398279661670e-04
         - 2.3542631195958927e-04
         - 2.3471684311650824e-04
         - 1.0413264733754625e-03
         - -1.5437401534611830e-03
         - 2.2109606494683902e-03
         - 1.0666236360184031e-03
         - -1.4834960940666559e-03
         - 1.4363143055977419e-03
         - 1.3923696595030850e-03
         - 4.6877913736210726e-04
         - 4.2987526865401025e-04
         - -5.3886662790430899e-04
         - 1.6508688094830834e-03
         - 4.2290509296556537e-04
         - 8.4493920053704558e-04
         - -7.7011026929990319e-04
         - 8.4793023112072542e-04
         - -2.1772360858676012e-03
         - 6.1051537726491707e-04
         - -1.4661096866212086e-03
         - -1.7740472444217150e-03
         - -2.2053593383104132e-03
         - 4.7894187843006694e-06
         - -7.3167802574093525e-04
         - -1.1646166407393720e-03
         - -2.2398069979535857e-03
         - -1.0884989760433362e-04
         - -1.7851812567111682e-03
         - 1.3167277700927316e-04
         - 1.7826811152396780e-03
         - 1.5485556607405765e-03
         - 1.9613091057322212e-03
         - 2.0575610765562803e-03
         - 6.2398217017577487e-04
         - -2.5784920272894671e-03
         - -1.4561855906251608e-03
         - 2.8785345150918689e-04
         - -1.9653804388095474e-03
         - 1.4239450773204548e-03
         - -2.2259288895171868e-03
         - -4.1476607599582894e-04
         - 1.7857352984811735e-03
         - -2.3822077352201928e-03
         - -1.9499373599970932e-03
         - -6.7936107708332580e-04
         - -1.8006463499556338e-03
         - 6.4336688518092395e-05
         - -5.3179262666446902e-04
         - -1.6266426424359427e-03
         - 6.1729614329622258e-04
         - 1.1581170067967148e-04
         - 2.5165765818013154e-03
         - -6.3373754639896123e-04
         - 3.2612162699349674e-04
         - -3.9012586322864754e-04
         - -1.3437678183324893e-04
         - 2.1878492304061199e-03
         - -1.9371646327445665e-03
         - 3.6277857855588404e-04
         - -4.9652650882623436e-04
         - -1.1853431627627970e-04
         - -2.4682784084280348e-03
         - -1.2979249181039169e-03
         - 1.7383685717860088e-03
         - 8.3475800318834629e-04
         - 1.6955970035531466e-03
         - -1.9474320287039652e-03
         - -2.3745644618927385e-03
         - -2.4045434905608045e-03
         - 2.0242958552051738e-03
         - -1.6535649944979173e-03
         - 2.2515769280976195e-03
         - -2.2821587819305609e-03
         - 1.4674907443746864e-03
         - 9.6153850231216643e-04
         - 1.6441875043471353e-03
         - -2.2128687898473226e-04
         - 5.8294967992311437e-04
         - 4.0146242211643230e-04
         - 1.2733482564120928e-03
         - 1.5873314018848902e-03
         - 1.3779173977255417e-03
         - -3.4799572963562701e-04
         - -2.3970218737346138e-03
         - 2.3389194980346492e-03
         - -1.3004611533888174e-03
         - -5.0615525434609095e-04
         - -2.1472955874481726e-03
         - 4.4810974402181587e-04
         - 1.3030582680488023e-03
         - 1.9583630290614541e-03
         - -1.1619411946025831e-03
         - 6.4554164547118108e-04
         - 1.1254067656120586e-03
         - -1.8163640154742985e-03
         - -5.0456291278852918e-04
         - 2.0526397677752537e-03
         - 1.6049210066932885e-03
         - 1.3098506832661290e-03
         - -2.0415496405611312e-03
         - -1.7803969982401475e-03
         - 7.4100406392412486e-04
         - -8.2437664626402215e-04
         - -2.1914352878136343e-03
         - 5.5942917577900221e-04
         - 1.7078833080952560e-03
         - -9.2755444185413372e-04
         - 1.5664382345328355e-03
         - -8.5468095061152691e-04
         - -1.7718096747289068e-04
         - -1.9103448134238695e-03
         - -1.4799590041414486e-03
         - 3.4537075391851443e-04
         - 1.1217946838101166e-03
         - 1.2635789218211004e-03
         - -3.7118098624049745e-04
         - -1.4607093728413768e-03
         - 1.4758739711562665e-03
         - -2.8300756117773384e-04
         - -8.2780983069710495e-04
         - -2.3020143497481721e-03
         - -3.0872666242507139e-05
         - -2.4026070994910786e-04
         - -2.4246882534054966e-03
         - -1.5983198833681767e-03
         - 2.3103620254295854e-03
         - -8.8337914397778618e-04
         - -4.4379399652727796e-04
         - -2.5904275908852806e-03
         - -4.6954480804626349e-04
         - -3.2596705973121079e-04
         - 2.5105426972719474e-03
         - 6.5560188796330622e-05
         - -1.0185507633896260e-03
         - 2.4886366159001562e-03
         - -4.5490151453889024e-04
         - 9.7867329636085101e-04
         - 1.9395028825553078e-03
         - 2.3955841549328678e-03
         - 9.3269958725550014e-04
         - 2.5645471031008065e-03
         - 1.6809372789824376e-03
         - 2.8748914114326346e-04
         - 1.9509086080484318e-03
         - -1.0161234535909045e-03
         - -4.5874637402158042e-04
         - -1.8679201680198076e-03
         - 2.3046693640085586e-03
         - -1.6133776091862653e-03
         - 1.8531886030541545e-03
         - 2.2441237391910267e-03
         - 1.9575793272894257e-03
         - 1.1936592616355630e-03
         - 1.7292045332026158e-03
         - -1.3373843055019671e-03
         - -1.0835617816808093e-03
         - 9.9719466186924655e-04
         - 1.3049170294497704e-03
         - -1.8944373380843754e-04
         - 1.3453371848797001e-03
         - 1.6668523155892474e-03
         - -2.0013100923226158e-03
         - 1.0104715836602859e-03
         - -2.1355983436319743e-03
         - -4.6268756629154002e-05
         - 2.5985908243444373e-03
         - -1.4594410494733938e-03
         - 1.8472363957464640e-03
         - 2.6364873979361725e-05
         - -1.7613844164874798e-04
         - 1.0771649984815720e-03
         - 7.8864344345441783e-04
         - -1.8844443419157944e-03
         - -4.1358414891943482e-04
         - 4.0535358845667028e-04
         - 2.0010345094221169e-04
         - -5.3874073635589088e-04
         - -9.3397837979627236e-04
         - -2.1309216476788980e-03
         - 4.7989271460182638e-04
         - -7.5519107547346971e-04
         - -4.7679046976309382e-04
         - -2.5206638311487360e-03
         - -2.1049809838225189e-03
         - -1.3843149704619625e-03
         - -7.9721027097440060e-04
         - 1.3449201182180600e-03
         - -2.0735513814188833e-03
         - 2.6180134743747359e-03
         - 1.4042345143389890e-03
         - 2.4080179518188205e-03
         - 2.2461113169178716e-03
         - 1.4835996106308048e-03
         - 4.6279342685534878e-04
         - -3.3676988723630005e-04
         - 1.0574467755980737e-03
         - 8.2486307321568228e-05
         - 9.1649112455583382e-04
         - 2.1926257487017878e-03
         - 1.5125818525157471e-03
         - -1.6692540118957797e-03
         - 1.2403621261023244e-03
         - 1.2707615221039525e-04
         - 1.1000862758503351e-03
         - 1.9269722174095056e-03
         - -2.2590916956136104e-04
         - 8.2417846027025665e-04
         - -8.0137626827632565e-04
         - 3.2619692883485983e-04
         - -2.0003163525945280e-03
         - -8.7856067247579404e-04
         - -2.2923315339726663e-03
         - 2.2696820965224453e-03
         - 4.1445220129873527e-04
         - -1.3812075540032803e-03
         - -1.1596080624959818e-03
         - 4.2188753171901563e-04
         - -4.6442626217688907e-04
         - -1.9767490169119105e-03
         - 8.7166080025191065e-04
         - 2.3409624055072175e-03
         - -1.0878030903741802e-03
         - -1.6261515090611534e-03
         - -9.4248749257242204e-01
         - -1.6176417205843503e+00
         - 6.8356504118596062e-01
         - 2.0397538600331111e+00
         - -3.0491815440605659e+00
         - -6.2960432241491660e-01
         - -4.1197146787523753e+00
         - -3.6756498178084316e+00
         - 1.1124129622418712e-01
         - -9.8562383393758690e-01
         - -7.9030756605913388e-01
         - -9.6493190298801335e-01
         - -5.1390676014068664e+00
         - 3.4246520049161662e+00
         - 2.1962207977248510e-01
         - -5.2354913765512090e-01
         - 5.3847217637537623e+00
         - 3.8917187077092907e+00
         - 2.0381931991296711e+00
         - -2.6973833953887683e+00
         - -1.1521412911507098e+00
         - -1.5516216071830429e+00
         - 6.9462459442185875e-01
         - 2.2347877464429131e+00
         - -2.1465832003952916e+00
         - -6.3033932345669119e-01
         - -4.3784404771071097e+00
         - -3.6760669186718826e+00
         - -3.0648226674536795e-02
         - -1.1638761734992709e+00
         - 3.5047056218706846e-01
         - -9.6641977367108345e-01
         - -4.9534538538408448e+00
         - 3.4232608889673997e+00
         - 5.7185840328756754e-01
         - -5.1987862860147560e-01
         - 5.3847277167845577e+00
         - 3.8923930319206512e+00
         - 2.0415732197714647e+00
         - -2.9594541376789589e+00
         - -6.3550944030724110e-01
         - -1.1017413011727584e+00
         - 4.7836211205450362e-02
         - 2.1955516433396833e+00
         - -1.3505146182813360e-01
         - -8.9596835485265447e-01
         - -3.0907632951966924e+00
         - -3.1984351526747532e+00
         - -3.6407502606444231e-01
         - -1.2087994498252608e+00
         - 1.9141174747888773e-01
         - -9.6559683346456737e-01
         - -5.4936504896483429e+00
         - 3.6097919359266140e+00
         - 6.7577212774811501e-01
         - -5.9046901395339046e-01
         - 5.3807489674869888e+00
         - 3.8934548122675761e+00
         - 2.0382729424939923e+00
         - -2.1620749101945269e+00
         - -2.2248416965595563e-01
         - -1.8711099613228444e+00
         - 2.1925828462288972e-02
         - 2.0380964201079648e+00
         - 2.3325203622474361e-01
         - -1.1359040252435411e+00
         - -1.2749417958692486e+00
         - -3.1620089659884836e+00
         - -3.6430636580325459e-01
         - -1.4729830589377901e+00
         - -5.9332775009944727e-01
         - -9.6562766985215343e-01
         - -3.9772178723439038e+00
         - 2.3593356307355360e+00
         - -3.2758689006326291e-01
         - -3.3123961471461150e-01
         - 5.3833207784159791e+00
         - 3.8907855396495656e+00
         - 2.0405606866222330e+00
         - -1.8436512649617174e+00
         - 3.2289897047742755e-01
         - -2.0443828122540713e+00
         - -1.4032645384328374e-01
         - 2.0522985344079574e+00
         - -6.1372028878474438e-01
         - -9.1610248929132521e-01
         - -3.8801493929812775e-02
         - -3.6022001390355505e+00
         - 5.7822328449807329e-02
         - -1.0791324357836889e+00
         - -8.7300415429410180e-02
         - -9.6572511195881827e-01
         - -2.3130005139011791e+00
         - 3.5401306900115510e+00
         - -1.0603658595319048e+00
         - -4.2023969452070875e-01
         - 5.3823235628689350e+00
         - 3.8911714861060323e+00
         - 2.0415371505063860e+00
         - -2.3212077035553542e+00
         - -1.6584236406165281e-02
         - -1.4982606469741160e+00
         - -8.1466905930342365e-02
         - 2.4953643571928446e+00
         - -6.2871992299258017e-01
         - -8.6899167896172358e-01
         - 1.4457667822288461e-01
         - -3.6047665396687285e+00
         - -6.4672477593195388e-01
         - -1.0273282980640521e+00
         - -6.7109267830286057e-01
         - -9.6707564390266365e-01
         - -8.3257708356061821e-01
         - 8.6512282307823063e-01
         - -2.2165861285441768e-01
         - -8.6415911155284586e-01
         - 5.3809940453481779e+00
         - 3.8907770763527147e+00
         - 2.0417499899251803e+00
         - -7.3376092731720099e-01
         - 5.4097473966839962e-02
         - -4.8120356170547524e-01
         - 2.9290071954023285e-02
         - 2.8076217439443791e+00
         - -5.3511204388689260e-01
         - -9.8089950332065112e-01
         - 1.1607055739030205e-01
         - -3.2011550158936242e+00
         - -6.9315783733075698e-01
         - -2.2901439580595975e-01
         - -1.1093700600577370e+00
         - -9.6777541427345259e-01
         - -1.0469823827078637e+00
         - 7.5942958487913215e-01
         - -1.5140872855944960e+00
         - -1.3439805463817405e+00
         - 5.3823784337805485e+00
         - 3.8913614215905263e+00
         - 2.0406577488477766e+00
         - -2.5092313741892658e-01
         - -3.1668524393435060e-01
         - -4.8259095612574282e-01
         - 8.2764923010446717e-02
         - -3.2768765541806205e-01
         - -1.2448110488199260e+00
         - -9.8065662291992961e-01
         - -5.3317174552409252e-01
         - -3.5125228926796366e+00
         - 3.1911260790667340e-01
         - -1.4613166322131266e+00
         - -1.2502642858528110e+00
         - -9.6488740207288448e-01
         - -5.1564518892775879e-01
         - 3.9370914533816506e+00
         - -4.4236494419324135e-01
         - -5.7848408983706789e-01
         - 5.3819743144846006e+00
         - 3.8924691312493387e+00
         - 2.0420070515162387e+00
         - -6.4566341234314359e-02
         - -4.7791769083292446e-01
         - -1.1441499330653642e+00
         - -4.1429628862138662e-01
         - -2.6324310539092507e-02
         - -1.3440089646293305e+00
         - -3.1866199204683510e-01
         - 2.8922482296212104e-01
         - -3.5113325004314819e+00
         - -1.6440863478604259e-01
         - -1.6715503983749012e+00
         - 3.9464184606965561e-02
         - -9.6442259078060755e-01
         - -8.3787415838978874e-01
         - 4.0003361287224148e+00
         - 2.3920721003232936e-01
         - -1.0058814744977571e+00
         - 5.3847532731792942e+00
         - 3.8954244211467506e+00
         - 2.0377844986835774e+00
         - -9.0504828981148111e-01
         - 1.9326221115538566e-02
         - -1.4374842087489334e-01
         - 8.6551014533322967e-01
         - 1.7102997912862756e+00
         - -1.6264447859958711e+00
         - -6.0377094411195542e-01
         - -8.8993788385868564e-02
         - -3.5142083605225238e+00
         - -3.1104027989353311e-01
         - -1.2626854572562725e+00
         - 7.2077572520109226e-02
         - -9.6701328802521813e-01
         - -3.9371218438722688e-01
         - 1.9997529418108699e+00
         - -2.2068827172383015e-01
         - -9.0434775150048996e-01
         - 5.3822703999501886e+00
         - 3.8922354973328495e+00
         - 2.0404100838819561e+00
         - -9.8534820366173448e-01
         - -3.4076730194095695e-01
         - -1.1003780297866957e-01
         - 4.2168699793300519e-02
         - 2.2475277252392662e+00
         - 1.1655554037212765e-01
         - -9.2264462167625272e-01
         - 8.1068082526888274e-01
         - -3.5140515825385856e+00
         - -8.4452230122334870e-01
         - -6.6778507507648444e-01
         - 2.5742532037364246e-02
         - -9.6735276368081868e-01
         - -1.4737879680599442e+00
         - 8.3075134286104602e-01
         - 1.2237856221781915e+00
         - -1.6463131651695335e+00
         - 5.3830857356396509e+00
         - 3.8916914597116610e+00
         - 2.0401652087414242e+00
         - -4.4057866365879372e-01
         - -7.0422048818586491e-02
         - -1.9789693042202041e+00
         - 6.3694509744668126e-01
         - 2.5341626132647770e+00
         - -6.4288863856665035e-01
         - -8.4869217468007152e-01
         - -1.2493466132662532e+00
         - -3.5156711544094890e+00
         - -1.3731970925023527e+00
         - -1.4629592210174931e+00
         - -3.3050342719303555e-01
         - -9.6387305049245608e-01
         - -1.4879366090220176e+00
         - 1.1872047991748818e+00
         - -2.1423275852621410e-01
         - -1.0670658137834801e+00
         - 5.3850205554290769e+00
         - 3.8934824146751472e+00
         - 2.0380757632120035e+00
         - -6.0320800514752682e-01
         - -1.1233481506020716e-01
         - 6.7980876261310852e-01
         - 4.3885469655108383e-01
         - 2.3751692972821421e+00
         - -9.8599633299797956e-02
         - -7.5218386990343067e-01
         - -1.9665250174584498e-02
         - -3.5144002925741433e+00
         - -1.8313363447063473e+00
         - -1.7452149861397335e+00
         - -1.0933649469682518e+00
         - -9.6452385655780548e-01
         - -1.3189240821186192e+00
         - 9.7245772061438474e-01
         - -1.9382998430616287e+00
         - 4.3615063812265703e-01
         - 5.3831279181397482e+00
         - 3.8948593490709760e+00
         - 2.0380263531548040e+00
         - -5.9157775831188142e-04
         - -2.8277059785865766e-01
         - -1.6776253249589107e-01
         - 7.5139282921646167e-01
         - 2.3792390041672657e+00
         - 6.0542130784555526e-01
         - -1.4774983844692056e+00
         - -5.2355374663158993e-01
         - -3.5146024804173255e+00
         - -7.1823733975018955e-01
         - 2.9739195171337246e-01
         - -1.9094584747996557e-01
         - -9.6766716036709710e-01
         - -8.6686239294545486e-01
         - 1.0009383949653743e-01
         - 1.4491678825471168e+00
         - -7.3950046335115094e-01
         - 5.3832951720597739e+00
         - 3.8955060382794864e+00
         - 2.0406537789845203e+00
         - -3.8014896005453755e-02
         - 1.0067631019428641e-01
         - 4.2642508748797042e-01
         - -3.7391106452680573e-01
         - 2.3762806247123316e+00
         - -1.1780641157641654e+00
         - -8.9867000211168624e-01
         - 1.9397397562930232e+00
         - -3.5137989404911569e+00
         - -1.0784868796848475e+00
         - -1.6690591333588498e+00
         - -1.8983220071465323e-01
         - -9.6413437709225491e-01
         - -1.0996496774453839e+00
         - 3.4386319017060138e+00
         - 3.7898381748630217e-01
         - -6.7658026726774445e-01
         - 5.3811353251465617e+00
         - 3.8910171860432796e+00
         - 2.0415892158776696e+00
         - -2.5978534410124809e-01
         - -3.9577263403214702e-01
         - -1.7470064024456842e+00
         - 4.7075869330508496e-01
         - 2.3790542858357053e+00
         - -4.8363381246823689e-01
         - -1.0834664064722643e+00
         - 9.9058873277932863e-02
         - -3.5131893304894022e+00
         - -1.4228222148664655e+00
         - -1.9496111973907959e+00
         - 3.6018586461578384e-01
         - -9.6538342992088311e-01
         - -3.3952981456242668e+00
         - 3.3416043861388927e+00
         - 7.8388707313893313e-01
         - -2.7957963195560698e+00
         - 5.3846730914084091e+00
         - 3.8914250435744768e+00
         - 2.0406014510109203e+00
         - 2.1467337438514617e-01
         - -3.6703029112096996e-01
         - -1.6987788260961958e+00
         - -7.6826134021486664e-02
         - 2.1963055275206393e+00
         - 1.7629317800898237e-01
         - -1.4887995750281835e+00
         - -5.9924986015076405e-02
         - -3.5118481767894276e+00
         - -9.4889038855902064e-01
         - -2.9225695839712129e+00
         - 6.8167416946038362e-01
         - -9.6362940819546250e-01
         - -5.2647095601503464e+00
         - 3.1035670091682368e+00
         - 9.8178407586050098e-01
         - -1.7955486415846524e+00
         - 5.3841000914238828e+00
         - 3.8934134303662633e+00
         - 2.0373422804965382e+00
         - -1.9412182579473742e+00
         - -4.3243787970202319e-01
         - -1.7706931431800501e+00
         - 2.6426771769413343e-01
         - 2.1972686779463282e+00
         - 1.1522677473065110e-01
         - -1.4617133415931405e+00
         - -1.9437137823243940e+00
         - -3.5148735323173641e+00
         - -8.2132765967978205e-01
         - -1.7060112094991025e+00
         - -3.7898132745428020e-01
         - -9.6853722240780293e-01
         - -4.6512790185983759e+00
         - 3.3995495450927891e+00
         - 6.7067961732840042e-01
         - -8.5159365217801219e-01
         - 5.3838587808053280e+00
         - 3.8955014071893066e+00
         - 2.0374620125443759e+00
         - -2.8247718457365778e+00
         - -5.6098815761046517e-01
         - -1.3600553507098572e+00
         - 2.4386177970871253e-01
         - 2.1950009447807628e+00
         - -1.0764969693057018e+00
         - -8.9692958681006218e-01
         - -3.6414145690924884e+00
         - -3.5140319430357971e+00
         - -1.0377277366340159e+00
         - -1.2180555286655241e+00
         - 3.1194537912105486e-01
         - -9.6680891266677060e-01
         - -4.6326920630699640e+00
         - 3.1088271946852601e+00
         - 5.1965907458236105e-01
         - -5.4847860599704290e-01
         - 5.3824489625136005e+00
         - 3.8928357461375409e+00
         - 2.0386953789178155e+00
         - -2.7856453832944945e+00
         - -4.4237669201660845e-01
         - -1.3580715108180028e+00
         - 1.1025328030323431e+00
         - 2.1977815575237214e+00
         - -2.8886624049914773e+00
         - -8.9767610184156355e-01
         - -4.1562584640511044e+00
         - -3.5153850651322416e+00
         - -4.3139877754715583e-01
         - -1.2405861335847554e+00
         - 3.0110161050611667e-01
         - -9.6725277806847532e-01
         - -5.1403304925486593e+00
         - 2.9976771817504222e+00
         - 6.3208519538179497e-01
         - -3.4823549442516377e-01
         - 5.3834524362743235e+00
         - 3.8909008450273128e+00
         - 2.0391656535898703e+00
         - -2.7053788276540143e+00
         - -4.2595629590518654e-04
         - -1.0273108582891117e-03
         - 2.1960525273506349e-03
         - -1.8376135002353819e-03
         - 3.4276292421605247e-04
         - 8.3765531448783950e-04
         - 6.7181308426208218e-05
         - -3.8027284772987346e-04
         - 6.8782644271238151e-04
         - -3.8968554133812002e-04
         - -1.6895053202459580e-03
         - 1.6674421002062126e-03
         - 1.3964554155444769e-03
         - -5.4082215792299656e-04
         - -2.5872276408383985e-03
         - 2.4475868123302368e-03
         - 2.1506106430897879e-03
         - -5.4955780790026567e-04
         - 1.3146171819082939e-03
         - 1.5600292554563272e-03
         - 9.4666085250087880e-04
         - -1.1715283343086483e-03
         - -1.8690078810365844e-03
         - 1.5157302308869240e-03
         - -4.9917683869876847e-04
         - -2.4819651364029139e-04
         - -1.7181206047659032e-03
         - 5.6075090736708918e-04
         - 1.4521558493007917e-03
         - 8.1566867846865297e-04
         - 7.9009476601067761e-04
         - 9.8459702568247484e-04
         - -2.0594863451230904e-03
         - -1.0602085341548623e-03
         - 2.3064152796664246e-03
         - -2.1746925785727841e-03
         - 1.4904768993650088e-03
         - -1.8801220170735708e-03
         - -7.1328965890775516e-04
         - -1.5200296495881250e-03
         - -2.5433020234524716e-03
         - -6.0917777012191798e-04
         - -1.0243555310515174e-03
         - 5.6164809568628511e-05
         - 1.3125081738006173e-03
         - -1.1646649907001961e-03
         - -5.7232545585975082e-04
         - 7.9409378074065339e-04
         - 5.2525459296606780e-04
         - -7.3730731355178640e-04
         - 3.2346125482950975e-04
         - 3.7007119143863835e-04
         - -1.6329123984334271e-03
         - 1.9794332397126513e-03
         - 1.3407270053849220e-03
         - 4.4715531528221925e-04
         - -2.7627833077130024e-04
         - 2.1807933008756068e-04
         - 8.0994581885708743e-05
         - 1.6691529706220245e-03
         - -6.6317271273082126e-04
         - -2.2911854998381781e-03
         - -2.9519998662640574e-04
         - -1.9309493140872186e-03
         - -1.9333995313871772e-03
         - -2.4370765442687467e-03
         - -9.1610860412403975e-04
         - 2.4344209519636902e-03
         - -8.7584547312904559e-04
         - -1.9105254571286829e-03
         - -2.1894588113834110e-03
         - 2.4893358798529384e-03
         - -1.2907823099651786e-03
         - 5.3862207534696759e-04
         - 2.0886316524248282e-03
         - 1.0011271982769527e-03
         - -6.1361117655588018e-04
         - -1.2065459225038572e-04
         - 1.0431278750759536e-03
         - -2.8980876507844630e-04
         - -7.6272466411753776e-04
         - -1.4356679063903298e-03
         - 9.6621799641466162e-04
         - -1.5238026284125586e-03
         - 1.1542600699219710e-03
         - -2.0374664745649042e-03
         - 1.0312369059176567e-03
         - -2.0522245148380854e-03
         - -8.2806884781193061e-05
         - 2.3103196179233483e-03
         - -1.8302201270248781e-03
         - -9.4987287458832888e-04
         - 7.5118359494815736e-04
         - -5.6469910689209315e-04
         - -1.6509054420295465e-04
         - 1.9634341498924223e-03
         - 1.2898075729208703e-03
         - 1.7588185428129024e-03
         - 5.5201714495602648e-04
         - -1.8264212917405271e-03
         - -1.7851055141981469e-03
         - -5.1275361159205826e-04
         - 1.9143922192823241e-03
         - 8.6171414531380848e-04
         - -1.8939784894459418e-03
         - 7.6571282638410762e-04
         - -3.2100974637908324e-04
         - -1.5636694402751433e-03
         - -1.8036853231533638e-03
         - 1.4580304274602561e-03
         - -7.1132632031692649e-04
         - -1.3745181159152834e-03
         - 1.5571137039958672e-03
         - -2.5403850486705060e-03
         - -6.0200606447611410e-04
         - 1.9669479364560196e-03
         - 2.4311923862610583e-03
         - 2.1430813710837920e-03
         - -6.8292746665413894e-05
         - 2.4773617207937922e-03
         - -5.3895406590411166e-01
         - -1.6091709048883742e+00
         - 7.8281458298430717e-01
         - 2.1984095827333774e+00
         - -3.0513481302741852e+00
         - -4.0357695034663610e-01
         - -4.5345763307704869e+00
         - -3.3569908071565902e+00
         - 1.1869385892357964e-01
         - -7.7737440203896102e-01
         - 3.2784822730092714e-02
         - -9.6540359010493593e-01
         - -5.1398618421255957e+00
         - 3.3119368881968634e+00
         - 5.3017210631505007e-01
         - -6.1081733763263835e-01
         - 5.3823328226056191e+00
         - 3.8912047302353394e+00
         - 2.0398368862692027e+00
         - -2.5377975503748247e+00
         - -1.3183751995998907e+00
         - -1.9224444671264633e+00
         - 1.1811133715435471e+00
         - 1.3034017943470184e+00
         - -2.7075827895128546e+00
         - -6.2499530276098314e-01
         - -4.5367923386896658e+00
         - -3.2006032208318520e+00
         - 4.6889091699071062e-01
         - -4.8284438625852560e-01
         - -1.5853912025341865e-01
         - -9.6739966904287533e-01
         - -5.5332920220545754e+00
         - 3.4221170322329466e+00
         - -4.5631559327637994e-01
         - -1.1296876515621244e+00
         - 5.1423412167259279e+00
         - 3.8937187477057185e+00
         - 1.2627719274398062e+00
         - -2.1631832470253070e+00
         - -1.0609432809920061e+00
         - -1.4744371503350364e+00
         - 1.5656051214103195e-01
         - 2.0630310007773112e+00
         - -9.2207339974591540e-01
         - -1.1520625016540609e+00
         - -4.4292582554933002e+00
         - -3.1862687745408786e+00
         - -1.2090290686638885e+00
         - -1.3917538729244929e+00
         - 1.1210266236331919e-01
         - -9.6620540474969607e-01
         - -4.7765015109232491e+00
         - 2.6889414603667898e+00
         - 4.5756890739541300e-01
         - -1.1826642674938792e+00
         - 5.5128640898801962e+00
         - 3.8935150565527055e+00
         - 2.0394325711178709e+00
         - -1.0717101913016219e-01
         - -7.5421835707241369e-01
         - -2.0365789548948707e+00
         - 1.9169571503402377e-01
         - 2.1346845109145058e+00
         - 1.1103495157332943e+00
         - -1.1783855162280292e+00
         - -1.3092225540776743e+00
         - -3.4180920939533901e+00
         - -8.8271655809262062e-01
         - -1.4832024396647390e+00
         - 8.9706577376207242e-01
         - -9.6806688543660091e-01
         - -5.3117879280834543e+00
         - 2.8803959229880921e-01
         - 8.1989631784336270e-02
         - -3.7913059783630421e-01
         - 5.3817709595816616e+00
         - 3.8933802615045723e+00
         - 2.0378439847806593e+00
         - -9.0838389663475039e-01
         - -5.2172310321112048e-01
         - -2.0766984471400360e+00
         - -1.3007217844606744e-02
         - 9.6916741690596386e-01
         - 4.6431613005409128e-01
         - -1.2587970848469121e+00
         - -1.9728567008551994e+00
         - -2.3417037160963081e-01
         - 1.1775092825660327e-01
         - -2.4579843352179260e+00
         - 8.1271921187953122e-01
         - -9.6810027458540759e-01
         - -5.0453064001576946e+00
         - -1.6177092404682880e+00
         - -1.3327276949517159e+00
         - -1.8015546794595978e+00
         - 3.3747630217198337e+00
         - 3.8946645998487561e+00
         - 7.9752276375254061e-01
         - -2.4467851689485403e+00
         - 3.5516060246821279e-01
         - -2.0365365774747777e+00
         - -2.3211034814375861e-01
         - 1.5213840500538471e+00
         - -5.3444312819111461e-01
         - -5.0837563455823453e-01
         - 6.6715771102386701e-01
         - -6.9190382506586068e-01
         - -8.6880480551470707e-01
         - -2.2108110855020824e+00
         - -7.6203220466615607e-01
         - -9.6367601420115412e-01
         - -2.4684834980504466e+00
         - 1.7113681586870255e-01
         - -1.2312306052385535e+00
         - -3.6436313819681110e+00
         - 2.5826947224919916e+00
         - 3.8933729575448766e+00
         - 2.0419949089271969e+00
         - -1.8064441554891495e+00
         - -3.5691480764928743e-02
         - 2.3791024543039782e-01
         - -1.7440142186130025e-01
         - 1.2166944791814813e+00
         - -3.4653825046958725e-01
         - -4.8336581613103649e+00
         - -4.7453639943067488e-01
         - -2.2542380952340220e+00
         - -1.8626776326744183e+00
         - -2.0826109648601934e+00
         - -2.6596215978379045e-01
         - -9.6860956463713788e-01
         - -7.0075804413896259e-01
         - 1.4432816118710492e+00
         - 1.4548648449208361e+00
         - -2.1959073697925313e+00
         - 4.0058779523322308e+00
         - 3.8942988970297900e+00
         - 2.0387824250819317e+00
         - -2.8545845374725261e+00
         - -4.2981123792816534e-01
         - -6.7728442846183745e-01
         - 4.5077644736177802e-01
         - 2.6919189576958164e-01
         - 6.8401374765345846e-01
         - -3.2089590829631924e+00
         - -2.0666887564461951e+00
         - 7.8454933777181624e-01
         - -2.3633997124900481e+00
         - -3.1108967012773947e+00
         - 7.1056933876453088e-01
         - -2.3479859705101584e+00
         - 1.5592386935780547e+00
         - 2.6625073471292744e+00
         - 1.6048085754945038e+00
         - -2.4132458561885617e+00
         - 5.4470435982205814e+00
         - 3.7159538539806767e+00
         - 2.0379912255354076e+00
         - -4.1421952251927037e+00
         - -2.5341662715704322e-01
         - 1.9916776622781102e-01
         - 1.0890250784195350e+00
         - 2.7890383264280755e-01
         - 8.8695171550740515e-01
         - -1.6890938981726764e+00
         - 1.0127904821719606e-01
         - 7.8008977969543780e-01
         - -2.6665415970609252e+00
         - -2.9390429972686367e+00
         - 2.5884410422143258e+00
         - -1.4571541976780473e+00
         - 1.7042960130265254e+00
         - -4.0928020166732176e-01
         - 4.0126718985678017e-01
         - -4.3040205772274378e+00
         - 5.8497597790509346e+00
         - 1.5400640801537695e+00
         - 2.9975866857861631e+00
         - -3.6086015316033979e+00
         - -7.2088599568131140e-01
         - 5.1526749401063188e-01
         - -1.2445039618247966e+00
         - -6.6650104806310539e-01
         - 2.9749544843217159e+00
         - -1.4378644119193158e+00
         - 8.9900921299306391e-01
         - 3.0306567468399526e-01
         - -2.1377907787697388e+00
         - -2.7096787786989465e+00
         - 5.0244201347057755e+00
         - -6.9669995694875964e-01
         - 2.1854409378107187e+00
         - 1.8092710138358501e+00
         - -2.3855063650753583e+00
         - -2.8245273521273123e-01
         - 6.9670909920472059e+00
         - 1.6772521248429419e+00
         - 2.9716684888276133e+00
         - -1.8338028602282328e+00
         - -2.0771439225602633e+00
         - -1.5531179560762038e+00
         - 7.5837402016267352e-01
         - -3.6836156839074985e-01
         - 8.1767620465444313e-01
         - -5.0552299789122754e+00
         - 2.3238444187417001e-01
         - 6.2180185753051886e-01
         - -2.1151301098590412e+00
         - -1.9099582596777780e+00
         - 2.3014475885950061e+00
         - -2.2798906514933073e+00
         - 1.0934387990407781e+00
         - 2.5442072268438545e+00
         - -5.0009383097820486e+00
         - -1.9848126223814917e+00
         - 7.9631489105793669e+00
         - 3.9076183253052870e+00
         - 2.0565272418782587e+00
         - 9.0508556692149611e-01
         - -3.2611546815549226e+00
         - 6.0562333092523069e-01
         - -1.0240704298709062e+00
         - -1.8369957250617486e+00
         - 3.3469349289518585e-02
         - -8.0207735312568484e-01
         - -6.4331888935397957e-02
         - 5.2545501283408669e-01
         - -2.5830483763581777e+00
         - -6.3934048325333925e-01
         - 4.4605232599692168e-01
         - -3.7058835588911285e+00
         - -3.7794927905346209e-01
         - 1.7268067446395143e+00
         - 9.2031274765991128e-02
         - -2.5447947643530200e-01
         - 6.0650045723938248e+00
         - 3.2000811321808040e+00
         - 1.1243307621578897e+00
         - 2.7978092112957311e+00
         - -3.8655204711451332e+00
         - 1.1060683689972273e+00
         - -1.3394027532201600e+00
         - 9.9170400643598033e-01
         - -8.2030319152034359e-01
         - -4.9206407327458146e-01
         - 8.1408826045559002e-01
         - 5.2948293826105775e-01
         - -3.8595048911762384e+00
         - -2.2690741495114888e+00
         - 5.1950828888847616e+00
         - -2.9991553123879120e+00
         - -1.5658508388417594e+00
         - -1.0967069980453668e+00
         - 1.1078813326889836e+00
         - 7.7487782341888545e-01
         - 2.0990172391708168e+00
         - 2.8277750622508444e+00
         - 1.4737149176036284e+00
         - 4.3420084059255215e+00
         - -3.6079713868639405e+00
         - 1.3525819053233394e+00
         - 3.0743549814970911e-01
         - 2.7251023552224320e+00
         - 6.6917760702371065e-01
         - -2.3252012956179686e+00
         - -1.1799650507956287e+00
         - -2.3121739784313666e+00
         - -3.8020333929733696e+00
         - -1.8186550257415708e+00
         - 7.3464377449172602e+00
         - -1.7917457872756031e+00
         - -9.3604401627695089e-01
         - -2.0899688422715401e-01
         - 2.0299043214707635e+00
         - 6.0052050290462522e-01
         - 1.3992347963900500e+00
         - 4.5854979373871716e+00
         - 2.1386044116136609e+00
         - 1.7917156746634935e+00
         - -3.6348412075346213e+00
         - 2.4707500000771372e+00
         - -1.6165456024184208e+00
         - 4.5301300075630152e-01
         - 1.2191296491152592e-01
         - -2.6118702937313141e+00
         - 2.5325025742213909e+00
         - -1.1059346884083394e+00
         - -1.6196092773799855e+00
         - -1.8609489473205658e+00
         - 5.4245533837346791e+00
         - -1.9160028500424797e+00
         - -8.2792974058337077e-01
         - 1.3022036696105266e+00
         - 1.8907370703714343e+00
         - -4.9256655138606903e-01
         - 7.4782617660932482e-01
         - 3.2049450990625825e+00
         - 1.2066549249998464e+00
         - 2.7713418157373577e+00
         - -3.2089751202734047e+00
         - 2.8702164665558522e-01
         - -2.4916554950468375e+00
         - 9.7912739628345902e-01
         - 2.3168584372614212e+00
         - -3.4321811684590648e+00
         - -8.9253700283699933e-01
         - 1.7978429914883383e+00
         - -9.2188453226357570e-01
         - -1.4425643040606861e+00
         - 2.9491577077552327e+00
         - -1.7927114708339875e+00
         - -2.6847924459328025e+00
         - -1.6878525310431518e+00
         - -1.2381076299063156e+00
         - 1.2990254818407958e+00
         - 3.2427580071331237e+00
         - 1.0930215045869633e+00
         - 2.1596104932436537e+00
         - 2.5764313417915952e-01
         - -6.3318858789574106e-01
         - 1.4107013909052410e+00
         - 3.5660613960861215e-01
         - 5.0513227074186373e+00
         - 2.1773346911212079e+00
         - -4.6787082349040761e+00
         - -1.7997964095489139e-02
         - 1.4657735618535848e+00
         - 3.2467929973786924e-01
