%YAML:1.0
---
opencv_ml_ann_mlp:
   format: 3
   layer_sizes: [ 324, 20, 20, 10 ]
   activation_function: SIGMOID_SYM
   f_param1: 2.
   f_param2: 1.
   min_val: -9.4999999999999996e-01
   max_val: 9.4999999999999996e-01
   min_val1: -9.7999999999999998e-01
   max_val1: 9.7999999999999998e-01
   training_params:
      train_method: RPROP
      dw0: 1.0000000000000001e-01
      dw_plus: 1.2000000000000000e+00
      dw_minus: 5.0000000000000000e-01
      dw_min: 0.
      dw_max: 50.
      term_criteria:
         epsilon: 1.0000000000000001e-05
         iterations: 10
   input_scale:
      - 2.3319205469812363e+01
      - -6.1494020083185486e-01
      - 2.4829963870830849e+01
      - -5.9959321375390628e-01
      - 1.7791923975602664e+01
      - -5.6948036708913463e-01
      - 2.4136746415244190e+01
      - -4.1412962343401971e-01
      - 1.4733896613811515e+01
      - -4.1968900529725361e-01
      - 4.9036627040607080e+01
      - -2.4939748755979313e-01
      - 4.8009864556278131e+01
      - -2.6203574229824206e-01
      - 5.7382019476770999e+01
      - -2.9356049063195805e-01
      - 2.7953502243920994e+01
      - -5.2588701126266746e-01
      - 1.0585039491802148e+01
      - -1.0907709508981849e+00
      - 8.8374694937531064e+00
      - -9.2508987837654388e-01
      - 8.3286837320153460e+00
      - -7.9749192266975844e-01
      - 1.3943427821677934e+01
      - -4.6451383467265644e-01
      - 1.0258590273707611e+01
      - -4.7666936666272552e-01
      - 2.1547564169676779e+01
      - -3.3664548651243376e-01
      - 2.0554937863000916e+01
      - -4.1074838317108670e-01
      - 2.2368334225137151e+01
      - -4.7814332356045691e-01
      - 1.3249427364696265e+01
      - -9.3904252175901037e-01
      - 7.2519030092807997e+00
      - -9.3691308507594750e-01
      - 7.3128521543583407e+00
      - -1.1986076529614378e+00
      - 7.1178730321411239e+00
      - -1.5580819221943050e+00
      - 8.6033307558814176e+00
      - -1.0310381763999568e+00
      - 7.5541366121316385e+00
      - -1.1273704507469853e+00
      - 1.3675956126095876e+01
      - -4.7470381300552461e-01
      - 1.4769257302947386e+01
      - -4.5326484722367316e-01
      - 1.5929167495739645e+01
      - -4.3026812104439388e-01
      - 8.4749321788692189e+00
      - -7.3113655826110546e-01
      - 6.4116174556012497e+00
      - -1.9299788095126476e+00
      - 5.8311404416657080e+00
      - -1.9203150404408711e+00
      - 6.0539891789253453e+00
      - -1.9656334504543329e+00
      - 6.4593256472800311e+00
      - -1.1590685786007293e+00
      - 6.6800817819132510e+00
      - -1.1708299404210323e+00
      - 9.9053225907018110e+00
      - -6.7262930056655013e-01
      - 9.6493372892897860e+00
      - -7.2904163490181106e-01
      - 9.1868425469721835e+00
      - -7.5119071433760154e-01
      - 6.6183103988481600e+00
      - -1.4984680753229223e+00
      - 1.1121020688866793e+01
      - -1.0991281256838372e+00
      - 1.1074642185494383e+01
      - -8.7376838128153445e-01
      - 1.1901734226779588e+01
      - -7.2730491885855253e-01
      - 1.8010133925276669e+01
      - -3.9836365106989158e-01
      - 1.0645418646219602e+01
      - -4.6363991740860855e-01
      - 1.8074815873356634e+01
      - -3.7189613454579051e-01
      - 1.6405831592186811e+01
      - -5.0488515515164101e-01
      - 1.8322039166360135e+01
      - -6.0000514793799753e-01
      - 1.2583652044885595e+01
      - -1.0036755036809220e+00
      - 1.0037712879280212e+01
      - -1.1249159215950537e+00
      - 1.0048737566005046e+01
      - -8.1530648070343625e-01
      - 9.7650126213737458e+00
      - -6.5021136422049830e-01
      - 1.6689646623679927e+01
      - -4.3978905878451702e-01
      - 1.2097969449103379e+01
      - -6.2991134388220860e-01
      - 2.1754294975346795e+01
      - -5.2834736134624216e-01
      - 1.4967522654303108e+01
      - -6.7403700451483484e-01
      - 1.5267277231195257e+01
      - -7.6096105913508960e-01
      - 1.1136662086031093e+01
      - -1.1214390845547531e+00
      - 8.0525049687746879e+00
      - -1.9036690042895370e+00
      - 8.1403942351135736e+00
      - -1.8796213266451594e+00
      - 8.3862683401606120e+00
      - -1.7905438582395146e+00
      - 8.4246992656074191e+00
      - -9.1790393583282959e-01
      - 7.1563354410591158e+00
      - -1.0453056124042703e+00
      - 9.6565779428861021e+00
      - -7.4918436346386053e-01
      - 8.6759595898242985e+00
      - -8.4426084050693739e-01
      - 8.6903153889574867e+00
      - -8.6093891556220026e-01
      - 7.8595294259029007e+00
      - -1.5071552459035498e+00
      - 7.6780513271386113e+00
      - -1.8599883170586466e+00
      - 6.7996434161872132e+00
      - -1.4927209644375090e+00
      - 6.7389861577961456e+00
      - -1.3117384658346243e+00
      - 8.1333823047493485e+00
      - -9.1401800085505958e-01
      - 7.6536148036627587e+00
      - -1.3330518933020084e+00
      - 9.0020039667719765e+00
      - -9.5969985120207879e-01
      - 8.3130982296680394e+00
      - -1.1151318310809102e+00
      - 8.5731431715640074e+00
      - -1.1268602679854802e+00
      - 7.9034763353478361e+00
      - -1.7138325748389744e+00
      - 1.1394488448995913e+01
      - -1.1049141028022338e+00
      - 1.3807484471688884e+01
      - -7.1644523266654014e-01
      - 1.3270996258396069e+01
      - -5.7169385185850119e-01
      - 1.9780725125772030e+01
      - -4.2388971414845761e-01
      - 9.5777154387123797e+00
      - -6.2765009823103857e-01
      - 1.3511394255909561e+01
      - -5.8593747059194612e-01
      - 9.6343363844089538e+00
      - -7.9203505708697564e-01
      - 1.1224422023838988e+01
      - -8.5821815310332261e-01
      - 1.0641762062197826e+01
      - -1.1287447689629337e+00
      - 1.6831629389541519e+01
      - -8.8790230918449919e-01
      - 1.9221721256824694e+01
      - -4.7707005550299386e-01
      - 1.8014964299422097e+01
      - -3.8416112209951447e-01
      - 2.7980867345874444e+01
      - -3.2886190628773376e-01
      - 1.1010862050540538e+01
      - -6.2433903627693588e-01
      - 1.5658835930609271e+01
      - -5.6046840958798438e-01
      - 1.0810599992988164e+01
      - -7.5481533041107962e-01
      - 1.5144345645760948e+01
      - -7.9145164908996013e-01
      - 1.5738950579180953e+01
      - -9.7726268748940015e-01
      - 7.6295227786960993e+00
      - -1.6711056280292322e+00
      - 7.0922845096502591e+00
      - -1.2611304800770444e+00
      - 7.6097591581030368e+00
      - -1.1905532094055225e+00
      - 8.3862980162583067e+00
      - -9.1670749190948808e-01
      - 6.7216246254331908e+00
      - -1.3973836581027823e+00
      - 7.1796472846093247e+00
      - -1.0765114060716861e+00
      - 6.9792458215917081e+00
      - -1.2732189988047620e+00
      - 7.4530246178662063e+00
      - -1.1574146320169658e+00
      - 7.6218557898496799e+00
      - -1.5531626667695353e+00
      - 6.5130035639732142e+00
      - -1.1543665778934833e+00
      - 6.6756457371983666e+00
      - -8.1166446676414017e-01
      - 7.2223683941828742e+00
      - -8.5285323438916893e-01
      - 9.4095736982140945e+00
      - -7.8841057125422032e-01
      - 8.3683404976577993e+00
      - -1.8261662030781409e+00
      - 8.4187246885584948e+00
      - -1.1051083570586546e+00
      - 7.6691253542127855e+00
      - -1.3665739781684181e+00
      - 8.0811590449209803e+00
      - -1.1810136360721013e+00
      - 6.9128933515997755e+00
      - -1.2951138253731604e+00
      - 1.1991373042988997e+01
      - -7.3984111943252195e-01
      - 1.0744698343251374e+01
      - -9.6485461879813172e-01
      - 9.2401205146381962e+00
      - -1.4233776790865771e+00
      - 1.0684414332296162e+01
      - -1.1355117434665354e+00
      - 8.7199785142838522e+00
      - -1.4555455547007692e+00
      - 1.4867330101846253e+01
      - -6.3622423656691696e-01
      - 1.5693451807531389e+01
      - -5.9226167598509949e-01
      - 2.2113400828041225e+01
      - -4.8098513578394353e-01
      - 1.4484361244536624e+01
      - -6.0465154193715109e-01
      - 8.6985142011449188e+00
      - -1.2954345182603892e+00
      - 8.3551232614659394e+00
      - -1.6281843671368070e+00
      - 8.7779023452809639e+00
      - -1.9516512957481724e+00
      - 8.3398004346242232e+00
      - -1.2499275219625348e+00
      - 7.7792916123302982e+00
      - -1.3377733182419691e+00
      - 1.1891284060019569e+01
      - -7.4775717779444928e-01
      - 1.2626840706639006e+01
      - -7.4669035754138857e-01
      - 1.4336649776460831e+01
      - -6.8034777561889959e-01
      - 9.9749538787148140e+00
      - -1.0137001761313891e+00
      - 9.4310909054191541e+00
      - -7.9582352131407508e-01
      - 8.4071621649122505e+00
      - -8.0311230831899516e-01
      - 8.2156060434351357e+00
      - -1.1668791932798763e+00
      - 9.5768684038105274e+00
      - -1.0886155746581572e+00
      - 9.9119817158321109e+00
      - -2.2320622010834739e+00
      - 1.1340902529700120e+01
      - -9.5998274498170910e-01
      - 1.0214925594202498e+01
      - -1.0349238398909157e+00
      - 1.3506183007409511e+01
      - -8.3536047626138155e-01
      - 1.1214510813810435e+01
      - -8.2330050584055581e-01
      - 8.5903418397568849e+00
      - -1.5184105697100831e+00
      - 8.1160992050811185e+00
      - -1.5790988965748911e+00
      - 8.1813756905487853e+00
      - -1.7628571058079288e+00
      - 8.0832174548512832e+00
      - -1.2476139598763596e+00
      - 8.1008602775404714e+00
      - -1.6579344762912755e+00
      - 9.9088504826252297e+00
      - -1.0263016512649137e+00
      - 9.5314413394819724e+00
      - -1.1008449366890756e+00
      - 1.0448238411904258e+01
      - -9.7977426663573353e-01
      - 9.1551011388525314e+00
      - -1.3349146951210564e+00
      - 9.9606336566019049e+00
      - -1.4236451164138046e+00
      - 9.4617504691576784e+00
      - -1.6154036954106801e+00
      - 9.5149629713780950e+00
      - -1.7416346254905204e+00
      - 1.0574996052278708e+01
      - -1.1144289800471088e+00
      - 9.0193254449200353e+00
      - -1.2733335828575052e+00
      - 1.3987727161778578e+01
      - -8.0419341401776379e-01
      - 1.2690820234852669e+01
      - -7.6827776498812284e-01
      - 1.5004076474657001e+01
      - -7.2433046431726722e-01
      - 1.1373898486554229e+01
      - -1.1240311797619780e+00
      - 9.7937035019738303e+00
      - -1.4717590534214158e+00
      - 8.9516173141345146e+00
      - -1.4842245054387921e+00
      - 9.0490982582151904e+00
      - -1.5491624593951694e+00
      - 1.0243057082024457e+01
      - -1.0942941020437356e+00
      - 9.0501653371423245e+00
      - -1.4277203299909196e+00
      - 1.1284932448869602e+01
      - -9.1534643024568174e-01
      - 1.0780762551969604e+01
      - -9.3289523250193251e-01
      - 1.3052783790463042e+01
      - -8.5726857636962206e-01
      - 1.0799436215300110e+01
      - -1.2249444040257871e+00
      - 9.5066558278163953e+00
      - -1.6285334748562268e+00
      - 9.3600796056255859e+00
      - -1.7977839830568616e+00
      - 9.2925403162617464e+00
      - -1.7904812196624829e+00
      - 1.0429727319012454e+01
      - -1.1844184514843772e+00
      - 9.3786123348352834e+00
      - -1.4443197413502986e+00
      - 1.2059991126228581e+01
      - -8.8386444810227394e-01
      - 1.0584389457207701e+01
      - -9.2966457269578362e-01
      - 1.2311228239281869e+01
      - -8.8850142267904053e-01
      - 1.0137864647329875e+01
      - -1.3122835546972089e+00
      - 9.9973515526467480e+00
      - -1.9210896274226810e+00
      - 9.4215415566548231e+00
      - -1.9292543363467778e+00
      - 9.3485942501342052e+00
      - -1.9061122282495688e+00
      - 1.0007356749146648e+01
      - -1.1484066657576639e+00
      - 9.1666139213202023e+00
      - -1.3905084528949276e+00
      - 1.1358673661777049e+01
      - -8.6071875346871307e-01
      - 9.8032044695700460e+00
      - -8.8850270192819236e-01
      - 1.0732101324630325e+01
      - -8.9166181998120686e-01
      - 1.0230034888538936e+01
      - -1.5160151602343961e+00
      - 9.4055970399229558e+00
      - -1.3171722667102643e+00
      - 8.1488098391415811e+00
      - -1.2026046731240607e+00
      - 8.3192695055355479e+00
      - -1.3699131161007876e+00
      - 9.5161518649442751e+00
      - -1.0689133333858654e+00
      - 8.2163064382624800e+00
      - -1.4526591413777268e+00
      - 1.1589116469428383e+01
      - -9.6803424100435365e-01
      - 1.0813804563500488e+01
      - -9.6129026190397981e-01
      - 1.3358411023406779e+01
      - -8.3807040723985149e-01
      - 1.0897460868836687e+01
      - -1.1626035053661590e+00
      - 8.4722526275905334e+00
      - -9.3754637739856217e-01
      - 7.8477408235723658e+00
      - -8.6911967856880679e-01
      - 8.0839305054770687e+00
      - -1.1980111387771222e+00
      - 9.0546912577022010e+00
      - -1.0059723923256068e+00
      - 8.6966781939309801e+00
      - -1.7287155572067923e+00
      - 1.0705229776066551e+01
      - -8.9211752234606134e-01
      - 1.0433343239817043e+01
      - -9.8757118801722776e-01
      - 1.5044666267428688e+01
      - -8.5283402991344881e-01
      - 1.0602368417620115e+01
      - -9.4574486638868338e-01
      - 8.7970487043166905e+00
      - -1.5888608227160068e+00
      - 8.9840632673830427e+00
      - -1.8352004172461034e+00
      - 9.1297391052811587e+00
      - -1.9845194346834505e+00
      - 8.8041165434003474e+00
      - -1.1402485926446124e+00
      - 8.2357438165111176e+00
      - -1.2067676246439776e+00
      - 1.2785284659324905e+01
      - -7.3297560311183241e-01
      - 1.1112524824655742e+01
      - -7.6796199254085051e-01
      - 1.1088994711331525e+01
      - -7.6105642622016445e-01
      - 9.0217469339822465e+00
      - -1.2208555249191744e+00
      - 7.9588444010855373e+00
      - -9.9687958305804447e-01
      - 8.6783650046228065e+00
      - -1.3175645117090529e+00
      - 9.3278565665538782e+00
      - -1.8398226268260716e+00
      - 8.2993458814168122e+00
      - -1.1140285577644859e+00
      - 8.4030168117562027e+00
      - -1.4307695725241090e+00
      - 1.4365117342461208e+01
      - -6.3993423757726586e-01
      - 1.3275757811692085e+01
      - -6.5168864194577636e-01
      - 1.2313863787846488e+01
      - -5.4374854836304765e-01
      - 8.5338440183291411e+00
      - -7.8894345223513251e-01
      - 7.6069369906864752e+00
      - -1.0188879093227254e+00
      - 8.1253948340193425e+00
      - -7.3889464178675568e-01
      - 8.5235448699909924e+00
      - -8.5811249579515980e-01
      - 1.0398952690385519e+01
      - -8.2654144744411728e-01
      - 9.9706225242160809e+00
      - -2.1840053924533813e+00
      - 1.0754483737331675e+01
      - -1.0851321529884861e+00
      - 8.1910232898888022e+00
      - -1.3522838560715611e+00
      - 8.5997563897138143e+00
      - -1.1584671225841752e+00
      - 7.6331777290669178e+00
      - -1.1560689032782294e+00
      - 7.7621602479519041e+00
      - -1.8722250808877627e+00
      - 7.5933948854880686e+00
      - -1.5405122693051165e+00
      - 7.8610670525706112e+00
      - -1.4368375604551797e+00
      - 8.4214381718021176e+00
      - -9.8790173683586824e-01
      - 7.8077310326320974e+00
      - -1.4921920091174785e+00
      - 8.7471070939333817e+00
      - -1.0851226625424657e+00
      - 7.5803734572064263e+00
      - -1.3370511163320367e+00
      - 7.3085341883192561e+00
      - -1.2573965042585518e+00
      - 7.4566714116586397e+00
      - -1.7064332174208807e+00
      - 1.5757470751370864e+01
      - -9.5039576896061062e-01
      - 1.5395054812087382e+01
      - -4.9943314981708242e-01
      - 1.3545189987003720e+01
      - -4.4932412969518409e-01
      - 1.7306885587020041e+01
      - -3.9949972711778486e-01
      - 1.0138551291149167e+01
      - -7.6062783651972810e-01
      - 2.0884616876347188e+01
      - -6.1705524682935464e-01
      - 1.3319281218576291e+01
      - -8.3634496438715289e-01
      - 1.6278527956796903e+01
      - -8.9263206357392122e-01
      - 1.6181853444015474e+01
      - -1.1407906225190765e+00
      - 9.5032433500961293e+00
      - -1.4675386743870524e+00
      - 9.2531565231795643e+00
      - -8.8963781629471139e-01
      - 9.6857338262770654e+00
      - -7.1372765920461811e-01
      - 1.2109320484585764e+01
      - -4.7495046479910241e-01
      - 8.8280036481771518e+00
      - -7.0563509479180608e-01
      - 1.3268495294445875e+01
      - -6.0738688810027996e-01
      - 9.5523855587094104e+00
      - -8.6618513741171577e-01
      - 9.6380320088127682e+00
      - -9.4448813921043662e-01
      - 9.5288679308667739e+00
      - -1.4630328715029794e+00
      - 7.3877801468513180e+00
      - -1.7445111600006513e+00
      - 6.9816238122152026e+00
      - -1.5161973740554147e+00
      - 7.2371819915634719e+00
      - -1.3275021897981767e+00
      - 9.8339933678493505e+00
      - -8.3485284957789330e-01
      - 9.0645045323849640e+00
      - -1.0927783989153788e+00
      - 1.2431711443924236e+01
      - -8.4421702738812610e-01
      - 9.1270906408231784e+00
      - -1.0230574118813163e+00
      - 9.4099080493997587e+00
      - -1.0895839477603506e+00
      - 7.7876978363682010e+00
      - -1.6037012437059985e+00
      - 8.7878525834225645e+00
      - -2.2689927179891969e+00
      - 8.4526762062895990e+00
      - -2.0644069743010611e+00
      - 8.2752094508680241e+00
      - -1.6884385525573447e+00
      - 1.0720230121387825e+01
      - -8.4542608402704544e-01
      - 9.2711929089904714e+00
      - -9.5852908171506335e-01
      - 1.0559292629229905e+01
      - -6.9870169564929197e-01
      - 7.8257708548511378e+00
      - -8.5040405469295066e-01
      - 7.6155121971816797e+00
      - -9.4779748096847183e-01
      - 8.0124917562219213e+00
      - -1.7272562228091435e+00
      - 9.6973144500494257e+00
      - -1.3039372353734429e+00
      - 8.6975697722383263e+00
      - -9.3940822412272917e-01
      - 9.1174730821913936e+00
      - -7.2006327808117387e-01
      - 1.4087891297541255e+01
      - -4.2013813919153070e-01
      - 1.1808051990712432e+01
      - -5.4142767435728723e-01
      - 2.2611707495837553e+01
      - -4.9997934063181937e-01
      - 1.3782379801134681e+01
      - -6.9345898196503764e-01
      - 1.3138675053212484e+01
      - -7.8704446517273396e-01
      - 1.0857500469763368e+01
      - -1.2281463090999509e+00
      - 9.5982574895844142e+00
      - -1.2906920862259161e+00
      - 9.8848317184534888e+00
      - -1.0252766901886101e+00
      - 1.0470368317962372e+01
      - -8.2403076819927545e-01
      - 1.6879348153760148e+01
      - -4.2883211676649402e-01
      - 1.2426681691662582e+01
      - -4.6760904228448719e-01
      - 1.8144463186142374e+01
      - -4.0874668152819871e-01
      - 1.1604030651143457e+01
      - -5.9184659519703886e-01
      - 1.1062257768322736e+01
      - -7.0340121115243259e-01
      - 9.6420787610463190e+00
      - -1.1355577329648396e+00
      - 7.2393130385274977e+00
      - -2.1359651199783576e+00
      - 6.7039239603477965e+00
      - -2.0361197076240098e+00
      - 6.3969199046140748e+00
      - -1.7759822171716078e+00
      - 7.5257274953811200e+00
      - -9.4637792449052349e-01
      - 7.9940621330938395e+00
      - -8.9764225386394170e-01
      - 1.2913697049707785e+01
      - -5.5512557711037336e-01
      - 9.6212566817589771e+00
      - -7.2780702327783708e-01
      - 8.3422621934264107e+00
      - -8.3972339676429597e-01
      - 7.2095958639285440e+00
      - -1.6772396268836887e+00
      - 6.3874123560500946e+00
      - -1.1983211976922730e+00
      - 7.0739575601092817e+00
      - -1.5586532452940984e+00
      - 7.5375212236577767e+00
      - -1.6975482595773475e+00
      - 8.5294912331927932e+00
      - -1.0088644820942763e+00
      - 8.6245758696047528e+00
      - -1.1041229790075866e+00
      - 1.7200732594228334e+01
      - -4.1885989808196761e-01
      - 1.3424350314614808e+01
      - -4.4944997932731562e-01
      - 1.0960997609955502e+01
      - -4.8600675695266032e-01
      - 6.9174908718527064e+00
      - -9.1653733475324817e-01
      - 9.7404769205948210e+00
      - -1.2342266981372632e+00
      - 8.2737103735032242e+00
      - -9.7232381793681133e-01
      - 7.9178121264342032e+00
      - -8.4013145710247283e-01
      - 1.2210389362868536e+01
      - -4.9663014775480785e-01
      - 1.0487853891742944e+01
      - -4.5386487120594254e-01
      - 1.8405770478916413e+01
      - -3.0305212537631177e-01
      - 1.5801443927334862e+01
      - -4.3778983074379557e-01
      - 1.5715823813016714e+01
      - -5.7082111443428107e-01
      - 1.1148405711544212e+01
      - -1.0641661390851789e+00
      - 1.4995251567157858e+01
      - -7.1465881662008668e-01
      - 1.5737875853501002e+01
      - -7.2713297315300074e-01
      - 1.1349479114603620e+01
      - -6.9087750462207975e-01
      - 1.8668911440887346e+01
      - -4.8144221490385131e-01
      - 1.3420252280674879e+01
      - -4.4499574961883265e-01
      - 3.0380277092740823e+01
      - -2.3000832993305681e-01
      - 2.3983980874012982e+01
      - -2.4895430676533128e-01
      - 2.5066465150298203e+01
      - -2.9285351118891867e-01
      - 1.5911730180356711e+01
      - -5.6515100818666608e-01
   output_scale:
      - 5.2631578947368418e-01
      - 4.9999999999999994e-01
      - 5.2631578947368418e-01
      - 4.9999999999999994e-01
      - 5.2631578947368418e-01
      - 4.9999999999999994e-01
      - 5.2631578947368418e-01
      - 4.9999999999999994e-01
      - 5.2631578947368418e-01
      - 4.9999999999999994e-01
      - 5.2631578947368418e-01
      - 4.9999999999999994e-01
      - 5.2631578947368418e-01
      - 4.9999999999999994e-01
      - 5.2631578947368418e-01
      - 4.9999999999999994e-01
      - 5.2631578947368418e-01
      - 4.9999999999999994e-01
      - 5.2631578947368418e-01
      - 4.9999999999999994e-01
   inv_output_scale:
      - 1.8999999999999999e+00
      - -9.4999999999999996e-01
      - 1.8999999999999999e+00
      - -9.4999999999999996e-01
      - 1.8999999999999999e+00
      - -9.4999999999999996e-01
      - 1.8999999999999999e+00
      - -9.4999999999999996e-01
      - 1.8999999999999999e+00
      - -9.4999999999999996e-01
      - 1.8999999999999999e+00
      - -9.4999999999999996e-01
      - 1.8999999999999999e+00
      - -9.4999999999999996e-01
      - 1.8999999999999999e+00
      - -9.4999999999999996e-01
      - 1.8999999999999999e+00
      - -9.4999999999999996e-01
      - 1.8999999999999999e+00
      - -9.4999999999999996e-01
   weights:
      -
         - 8.7590753618801365e-01
         - -2.7075042717919140e-01
         - 7.7202482730720723e-01
         - 1.3049044075470206e+00
         - -3.6078117102721963e-01
         - -7.5117863143396824e-01
         - 4.2275723176655344e-01
         - -2.5287765115344971e+00
         - 1.1679532363397434e-01
         - -2.2548657852552348e-01
         - 3.5050313314712840e+00
         - 2.4507184535738641e-01
         - -2.0310208419926210e-01
         - 1.9033761011803871e+00
         - -5.7911032309633437e-01
         - -1.6378036145741806e+00
         - -1.0601660086849192e+00
         - 3.2042256101182249e+00
         - 5.3609223764842850e+00
         - -3.1402112652723646e-01
         - 1.5095015843753420e-01
         - 2.3736918815002395e+00
         - -1.2927186778128483e+00
         - -2.7690015172287672e+00
         - 2.7275968420252621e+00
         - -2.2585802153223486e+00
         - -1.6056189345141139e+00
         - 1.5942413395747377e+00
         - -1.0508955963480340e+00
         - 1.3832927980571532e+00
         - -3.6361541100635703e-01
         - -7.3153254343791208e-01
         - 1.1592030510171947e+00
         - 1.1160709111908875e+00
         - 2.3308648335381004e+00
         - 9.6755505851648693e-01
         - 1.9831364095786082e+00
         - 8.5219190010053336e-01
         - 2.3105284830281709e+00
         - -1.5915670316025259e+00
         - -4.7069068945486603e-01
         - 1.3878065038823137e+00
         - -3.6280021138229706e+00
         - -3.1994550083208950e+00
         - 1.6302157942073503e-01
         - -6.0388877506142657e-01
         - 2.7819659195258806e-01
         - -9.7503602577300486e-01
         - -4.5843051155296450e+00
         - 3.2325727082808307e+00
         - -8.6892420787531655e-01
         - 7.9059810172364214e-02
         - 2.3869653839874028e-01
         - 7.9617815381315393e-01
         - -2.1957261332069016e+00
         - -3.4455992463988800e+00
         - 1.6754095485177620e-01
         - -1.4449185742057211e+00
         - 3.4525729391919611e+00
         - 3.7508316279513805e+00
         - 2.1273945073160054e+00
         - 2.8465848010679626e+00
         - -1.8577821008526161e+00
         - 1.4871302265061899e+00
         - -1.0696013720824105e+00
         - 1.4585829382921471e+00
         - -3.5149636967286337e+00
         - -4.3818279639902338e+00
         - -2.9296719507336637e+00
         - 2.3690892953972069e+00
         - 5.6064037396091759e+00
         - 1.7040727281979633e+00
         - -4.1149842271292464e-01
         - 3.3297797741926072e-01
         - -1.8356635313312690e+00
         - -2.3621470170965249e+00
         - -2.9081776647111413e-01
         - 1.0981818986217777e+00
         - 1.4643308588948323e+00
         - -3.3082323932217650e-01
         - -6.3557034825602321e-02
         - -1.5302617360172506e+00
         - -6.7700247390960505e-02
         - 1.2664063596267014e+00
         - -1.3192509888490542e+00
         - 7.5817663029629845e-01
         - 4.9015428238744796e-01
         - -2.3051152295479023e+00
         - 4.4155514119831336e+00
         - 4.4931333699710425e+00
         - -1.5295445576263706e+00
         - 2.5079987784741946e+00
         - -2.0388135862349532e+00
         - 3.5739813420751592e+00
         - -5.5526932226316408e+00
         - 5.0913402692338594e-01
         - 2.5433260642507136e+00
         - -5.0069714526357769e+00
         - -1.0073784872399330e+00
         - 1.4140964400627034e+00
         - 7.6665159912194503e-01
         - -1.8935667769904996e+00
         - 3.6892942811240265e-01
         - -7.6777625824979789e-01
         - 6.5857768903045810e-01
         - 1.7463368231449708e-01
         - -1.4546372606569327e+00
         - 9.3664821805126419e-01
         - -5.9216502722017239e-01
         - -4.6686878958538897e-01
         - 8.3087467129119130e-01
         - -2.9310870156640765e+00
         - -2.8949636329434980e-01
         - 9.7904691138038924e-01
         - 3.1525017429921387e-01
         - -3.4230014763039096e-01
         - 7.7127169716328170e-01
         - 1.2109033330870658e+00
         - -6.0290695777961467e-01
         - 1.2144605511292936e+00
         - -8.7273020825596326e-01
         - 3.0877323761481834e-01
         - 1.2913224737841218e+00
         - 3.5527539321593054e+00
         - 4.0284909886596121e-01
         - 2.1506602365045482e+00
         - 4.6486695321958360e-01
         - -2.3160087170596908e+00
         - 7.5257984251542098e-01
         - 5.8380307724282332e-01
         - 5.0004573392970403e-02
         - 1.9139113868752078e+00
         - 1.0081368027908040e+00
         - -1.9325181732562786e+00
         - -3.5520291074163511e-02
         - 3.0006337554367164e+00
         - -1.4225256150592425e+00
         - -4.0244827265465111e-01
         - -6.9416210684430990e-01
         - 2.7493018297506622e-01
         - -1.8058077432084245e+00
         - 4.2611049342457408e-01
         - 6.7971615144146880e-01
         - 1.6004180762010967e-01
         - 7.2877762076349673e-01
         - -3.0880297772394640e+00
         - -6.1461641624637986e-01
         - 3.6602471689420135e-01
         - 6.2204188978884578e-01
         - 2.7749170174142657e-01
         - -3.7700301780538359e+00
         - 3.5838000043472935e-02
         - 1.3673652353158641e-01
         - 8.8607572945775537e-01
         - 2.1677561189233292e+00
         - -3.6073403125894943e-01
         - -8.0140290861959373e-01
         - 1.2290055506148581e+00
         - -2.6817944191094782e+00
         - -2.3962130480750235e-01
         - 6.8670348243781754e-01
         - -1.4929981286095588e+00
         - 2.1203063709832088e+00
         - 2.1950764632548483e-01
         - 7.9192728711475091e-01
         - -1.2505085186512090e+00
         - -9.9914574698727762e-02
         - -9.9523044352430901e-01
         - 1.0126006778423715e+00
         - -1.9079044798490379e+00
         - 3.4322341301585944e+00
         - -1.9661422833327624e+00
         - 1.5608687525366030e+00
         - 2.7534869854860178e+00
         - 2.9241431251803256e+00
         - 1.6684078796063808e+00
         - -1.2098580151002747e+00
         - 2.1736639875282329e+00
         - -2.7375644478753092e+00
         - -5.1455657002315469e-01
         - 3.9048014818088097e+00
         - 3.6549388969723928e+00
         - 1.9615967902181968e+00
         - 3.2752242275182621e+00
         - 2.4876667365331182e-01
         - 1.0734573627629098e+00
         - -1.5547221787627834e+00
         - -1.4302537711959686e+00
         - 3.2366503292112676e+00
         - -3.4914432523536281e+00
         - -1.0002237567623931e+00
         - 4.8684825286610950e-01
         - -4.4970440041164000e-01
         - -1.6250021993196067e+00
         - -8.5242401944889989e-01
         - 9.9403003786957433e-01
         - -4.3954778068839930e+00
         - 6.0105777198361565e-01
         - -8.9854733894712557e-01
         - 2.2634161541220563e+00
         - -2.2633946502164730e+00
         - 1.8963550430974319e+00
         - -1.6293393535021814e+00
         - 2.1229515581278342e+00
         - -4.8620997506675551e-01
         - 1.2252271651984930e+00
         - 1.1588536606606816e+00
         - -9.5244881738598353e-02
         - 5.8491054302166290e-01
         - -2.4224318877621767e+00
         - -8.7417679900549750e-01
         - 1.7416656853354509e+00
         - -3.2541707188464142e+00
         - -3.6923240840571583e+00
         - 4.5271061074430774e+00
         - 3.0287119732917764e+00
         - -3.3604400816420839e+00
         - 6.8229782758594959e-01
         - -3.4170919426072062e+00
         - 8.9768836387716627e-02
         - 1.9515391172070873e+00
         - -7.5812544795748849e-01
         - -2.8451702710830391e+00
         - -3.0745616205231268e+00
         - -5.3908489625429123e-01
         - -8.4124353425135534e-01
         - -8.9729269421982127e-01
         - -2.1996120138109947e+00
         - 3.2038674782705390e+00
         - -3.1389217957151736e+00
         - -1.2077652344008527e+00
         - -5.0865779702085128e+00
         - 7.6871147928806605e-01
         - -4.4462464360926992e+00
         - -3.7437433584209994e+00
         - -2.5305238447029468e+00
         - -2.3703657831084675e+00
         - -2.1784886115477393e+00
         - -6.3464653622016765e-01
         - -1.0490516888458901e+00
         - -5.7377653404053952e-01
         - 2.4040815073766963e+00
         - 1.3368821687843908e+00
         - -5.0320071170278802e-01
         - 1.2976648543685039e+00
         - 1.3606698809317721e+00
         - -7.3755461105076947e-01
         - -1.5921397989537378e+00
         - 1.2947352107137435e+00
         - -1.8227816024364549e+00
         - -6.4495226121802207e-01
         - -1.6315953951533919e+00
         - -1.9471196333617704e+00
         - -2.8179151360046339e+00
         - -6.4372144637798128e+00
         - -4.2106252918371210e+00
         - -2.0024250065734637e+00
         - 1.7304098883473722e+00
         - 1.4683058036212226e-01
         - -1.6930495364432354e+00
         - -2.5056508655537608e+00
         - -1.6016743647800560e+00
         - -1.8433174073770715e+00
         - -2.1895536745017152e-01
         - 5.6517522861463287e-01
         - -1.3858712669152031e+00
         - 1.3893054783118477e+00
         - 2.2215790588701601e+00
         - -2.5224865210831199e-01
         - 1.1868049956293407e+00
         - 2.3160840146407721e-01
         - 1.1593257379045601e+00
         - -6.3859932474266179e-01
         - 1.0810636896703159e+00
         - -3.9545433258505209e+00
         - -3.9725077980227161e+00
         - 5.6494538289334928e+00
         - -2.4453029829488107e+00
         - -7.9839951543388618e-02
         - 1.1573266427235207e+00
         - -9.1911580808521154e-01
         - 1.5962885558011120e-02
         - 2.1591226840489153e+00
         - 5.5248552924897845e-02
         - 2.2815063752730063e+00
         - 1.1364581420791409e+00
         - -2.4133458751461574e+00
         - -2.5192251128345395e+00
         - 2.4429271834913533e+00
         - -9.6718557110764314e-01
         - 1.6387381426565286e+00
         - 1.6746971441388765e+00
         - 3.1349878978628749e+00
         - 1.7175744039518097e+00
         - -1.0939391598357593e+00
         - 1.1496142425050164e+00
         - 8.6178512636129745e-01
         - -4.0781730483592495e+00
         - -4.3127203439548362e-01
         - 4.5716960788112404e+00
         - -5.7618618905397423e-01
         - 2.2590138700417364e+00
         - 1.7383059221559347e+00
         - -2.0646687732790276e+00
         - 8.2385691391790181e-02
         - -2.3704744683642391e+00
         - -1.5172293429873640e+00
         - -3.8143656704953649e-01
         - 6.7070155459557601e-01
         - -2.3591576704805410e+00
         - 6.9079785054522647e-01
         - -1.6759517174488008e+00
         - -8.0962756281272430e-01
         - -6.2397072062340764e-01
         - 8.6873022524694388e-01
         - 1.0442652246520145e+00
         - 1.7658487759173334e+00
         - 2.7264063552967510e+00
         - -1.4261156117182947e+00
         - 1.4613716790126516e+00
         - 1.4329520169531829e-01
         - -1.5830155551056138e+00
         - -1.6115400980308478e-01
         - 3.4188830156793202e+00
         - -3.0657698024950855e+00
         - 1.1074494347343389e+00
         - -9.1204790251231926e-01
         - 2.0633856224687803e+00
         - 1.8996406698194523e+00
         - 9.5702264949391297e-02
         - 2.4972055008339118e+00
         - 1.5812730032281699e+00
         - 1.5070286047336452e+00
         - 3.9802366716901760e-01
         - 1.9916631148519883e+00
         - 1.7640661301401310e+00
         - -1.1827501637602236e+00
         - 1.6615981933326127e+00
         - 2.1989047403118671e+00
         - -1.1407531874052264e+00
         - -1.2333907193050675e+00
         - -3.8577749887522872e-01
         - 3.4094592649158963e+00
         - 1.9203327501332972e+00
         - -2.6551055139222326e+00
         - 1.8221650766445885e+00
         - 1.3793883253295973e+00
         - 2.3821773548603060e+00
         - 4.9673834840616653e+00
         - -4.2755460142565882e+00
         - 1.8208665981770966e+00
         - 1.3976629367994176e+00
         - -1.5240262753828056e+00
         - 1.1076287433586158e+00
         - -9.9229759644970073e-01
         - 4.0024629262582039e+00
         - 3.8532405309137929e-01
         - -1.0203229289667510e+00
         - 1.9128537758554703e-01
         - 8.6113442842837207e-01
         - -3.1974736943288522e+00
         - -1.4577337143429536e+00
         - 1.6781439595185037e+00
         - 5.7661245896286362e-01
         - -3.3042696148094568e+00
         - -2.3773547069071745e+00
         - -1.4712721514817870e-01
         - 1.3313124130524525e+00
         - 3.4826955429886142e+00
         - -1.1487913910152268e+00
         - 8.3064609204505324e-01
         - 2.1811827679888984e+00
         - 2.6092667574244293e+00
         - -1.6379333916297107e+00
         - 6.4635119851900269e+00
         - -3.4482581126819223e-01
         - 3.7884793248512394e+00
         - 5.5447363903251345e-01
         - 8.7979635594712358e-01
         - 2.9410069122081897e+00
         - 1.1441417301521037e+00
         - 2.7278772731522580e+00
         - 1.6641317063096512e+00
         - 2.0690138283343047e+00
         - 2.2900800721593173e+00
         - -1.5670621903697155e+00
         - -1.0570128838113481e-01
         - 2.5023501140780096e+00
         - 5.4194575109581977e-01
         - 1.8472298244435768e+00
         - -4.1166950281356716e+00
         - -7.5490591289233189e-01
         - 3.1692820451484556e+00
         - 5.8950723387952053e-01
         - -1.1825719349607017e-01
         - -4.4095623094488889e-02
         - 1.8177817123342994e+00
         - 1.7556986727947976e+00
         - 6.6596221460208160e-01
         - 3.4672029944331317e+00
         - 4.8030614176022218e-01
         - 3.0992732491781727e-01
         - -4.1247206857004098e-01
         - 2.8441087303123567e+00
         - -1.2314892928820693e+00
         - -1.8764001560195505e+00
         - 6.6896112113636419e-01
         - 5.1503383434693291e+00
         - -1.7153572157991981e+00
         - 2.3107811898083805e+00
         - -2.2827255518495799e+00
         - 5.5543826639961602e-01
         - 1.0161191184235101e+00
         - 1.2771241608039459e+00
         - -9.1518395943841757e-01
         - -4.5414958256421896e+00
         - -1.8372396238317272e+00
         - 8.0321600081225797e-01
         - -1.9437071062167888e+00
         - 2.6210503958170830e+00
         - -2.6459102715395293e+00
         - -9.1750572938401453e-01
         - -1.4125583630054130e+00
         - -1.9080515060327783e+00
         - 7.1754422494208070e-01
         - -2.1350030727251439e+00
         - -8.7858552380227675e-02
         - 2.6010608796664383e+00
         - -7.4614616530854316e-01
         - 1.9877729696688540e-01
         - -1.5587322665578740e+00
         - 3.1998082856199028e+00
         - -1.2170097900346895e+00
         - 1.0113055064424208e+00
         - -1.1682587090487879e+00
         - -1.6026075507742652e+00
         - 2.4651447603155621e+00
         - 1.9866648184775140e+00
         - 1.9928624179685526e+00
         - -1.1884718806325341e+00
         - -3.9649390680742846e-01
         - -6.6737200548146458e-01
         - 3.1260154573282355e+00
         - 8.0178378565322606e-01
         - -1.5259301769885016e+00
         - 1.9076656161988719e+00
         - -1.1183384820324278e+00
         - 5.2631963301689522e-01
         - 5.0189659142696295e+00
         - 1.1069503644409548e+00
         - 2.2883497504217716e+00
         - 4.1816683654316957e+00
         - 4.0130160980819412e+00
         - -9.3058968662685027e-01
         - -2.5782500562723616e+00
         - 8.4901866735003251e-01
         - 2.3519067926965556e+00
         - -3.2059807514924277e+00
         - -2.5884107873611839e+00
         - 4.0999276961833946e+00
         - -2.2595264537559943e+00
         - 8.2777342516871999e-01
         - 3.5181517694015674e-02
         - 5.9106233379819806e-01
         - 6.5393171732770150e-01
         - 4.9085586861733016e-01
         - 8.9874115691721757e-01
         - -1.7564623093361584e+00
         - 1.3899642316014766e+00
         - 1.8880952245455491e+00
         - -1.0336608090352799e+00
         - -1.0568849785558241e+00
         - 7.0905908497935932e-01
         - 2.2330481500220980e+00
         - 3.1000972204197158e-01
         - -2.5753957137048080e+00
         - 2.4806797408299031e+00
         - -1.4970942280428368e+00
         - -2.3367123058827538e-01
         - 1.9236725333596993e+00
         - 4.5322947771641031e-01
         - 1.8682955360077322e+00
         - 3.2083214360357104e+00
         - 8.6065129616447666e-01
         - 1.1272358429759211e-01
         - 1.7725733338320998e-01
         - -2.5397876927550103e+00
         - -2.7278213052613669e+00
         - 3.6178792528016546e-01
         - -9.9216287795696423e-01
         - -1.0532463424892164e+00
         - 6.4818198477039406e+00
         - 2.5901111598297657e+00
         - -4.0976094977094302e-01
         - -4.8358156128908231e-01
         - -1.4857440320750628e-01
         - -3.0674205307760007e+00
         - 2.0804122499916851e+00
         - 1.7544221024447297e+00
         - 2.0422616905742901e+00
         - 1.6120060018136395e+00
         - -1.7129206135873953e+00
         - 1.2052125312720117e+00
         - 1.9152053164339429e+00
         - -2.3815678382806036e+00
         - 9.7393498188801941e-02
         - 1.4772065811668345e-01
         - -1.2574390507825002e+00
         - -1.1260272434927094e+00
         - -3.0992266382289912e+00
         - 2.2322123743514770e+00
         - 1.6936406969669167e+00
         - 8.0532533976660370e-01
         - -2.9146870750509941e+00
         - 1.8549022752477453e+00
         - -6.5594196099902224e-01
         - -2.0215351947857956e+00
         - 7.0548508584492831e-01
         - -4.1286190600064154e-01
         - 3.1162224567716166e+00
         - -4.5949369932745393e-01
         - -9.2890773876601573e-01
         - -1.0821496643838389e+00
         - -2.8921101709698172e+00
         - -2.5004913715568051e+00
         - 5.3956685155952522e-01
         - -3.3558398949324011e+00
         - -2.1342152035809070e+00
         - 2.0097743189146371e+00
         - 4.8929734769196545e+00
         - 3.4708563787990304e-01
         - 3.1577258750031496e+00
         - 3.7563610364969147e-01
         - 3.1615478653658329e+00
         - 3.3055668898665553e+00
         - 2.2151477093728236e+00
         - -2.0456276557305744e+00
         - 5.4742568462123598e-01
         - 3.3101589026577727e-01
         - 6.8469832254596319e-01
         - 1.7297815779959171e+00
         - -5.8798132857067997e-01
         - 1.5237432223808596e+00
         - 3.4339707454768026e-01
         - 3.8588499017317592e+00
         - -1.3209849817158099e+00
         - 1.7933206634626895e+00
         - 3.0140333690986065e-01
         - -1.0586118663832531e+00
         - -2.3647095225418138e+00
         - 1.8956013336950732e+00
         - -2.5231136187367840e+00
         - 9.2030004416835376e-01
         - -1.5658989322534000e+00
         - -2.5189703386325326e+00
         - 1.9662311553258063e+00
         - 6.3391298105536253e-01
         - -2.0027897870579841e+00
         - 1.1109479600125423e+00
         - -4.8254308280775632e-01
         - 4.6284719122855233e-01
         - -1.2938942415848977e+00
         - 1.4642772302067424e+00
         - 4.6312559571169593e-01
         - -8.6436493964947791e-01
         - 3.3812156955566683e+00
         - -5.5106974597771552e-01
         - 5.2665140571347746e-02
         - 1.8997966313178114e+00
         - -3.8232976480453194e+00
         - 3.1300929237814423e+00
         - -2.3147752914168729e+00
         - -2.9289045677893220e+00
         - -1.6190182217024076e+00
         - -2.2140185488853761e+00
         - 2.0961844422685549e-01
         - 9.0186255377659641e-01
         - -6.9038462104604958e+00
         - -1.0890170353189152e+00
         - -7.2546798489901949e+00
         - 1.2713297217140105e+00
         - 1.7507573877488172e+00
         - 1.2948761787011096e+00
         - -5.5908801790366902e-01
         - 1.9291942755426370e+00
         - 5.8564444383804695e+00
         - -2.7789015827982153e+00
         - -4.2751420189680793e+00
         - 1.6300036067757895e+00
         - -8.7485856111277993e-01
         - 2.2607363899830331e+00
         - -1.0909891762763939e+00
         - 2.1471880253588740e+00
         - -2.3993823963211774e-01
         - 4.2028556473250261e-01
         - -1.5386449114932199e+00
         - -2.1605717150923978e+00
         - -3.2320669704557723e+00
         - -7.9018254354802131e-01
         - -2.1146550955922042e-01
         - 3.6748640756409434e-01
         - 3.9666984373494092e-02
         - 1.5578242380699865e+00
         - -2.5230778304561685e+00
         - 6.6531479388238612e-01
         - 4.6526119547607381e-01
         - 1.5971617608760125e-01
         - -3.2853931386217150e+00
         - 1.7070233985030554e+00
         - 8.5916214020603765e-01
         - 2.8512624687425142e-01
         - 1.9652009571306586e+00
         - -2.2018335046637558e+00
         - 1.9753146374934338e+00
         - -2.0019636668129377e+00
         - 7.1338591896282777e-02
         - -2.5144933546151249e-01
         - -2.1344818349424828e+00
         - 6.3809822790812798e-01
         - 2.6798669429071378e+00
         - -1.2913382164852925e+00
         - 1.0799953704829635e+00
         - 2.0389523221132966e+00
         - -1.6384699148855364e-01
         - 1.8293336175870876e+00
         - -2.2876192242592936e+00
         - 1.4380585058092701e+00
         - -4.7375685093597690e+00
         - -9.9234832302047515e-01
         - 1.2894091030578345e+00
         - 2.2155132195396536e+00
         - 3.2903467050863170e-03
         - 9.4122805890868955e-01
         - 3.9960539597157578e+00
         - -1.0739048738151040e-01
         - 9.9693436376646583e-01
         - 1.1790509872242139e+00
         - -9.1019914838415439e-01
         - 1.5648558025372061e+00
         - 2.2980725537272679e+00
         - -1.5248448998027480e+00
         - 1.8790430672617495e+00
         - 3.3888022271699052e+00
         - 7.2068155030840653e-01
         - -6.8975999973116098e-02
         - -3.3578880166883618e+00
         - 4.4195293451341069e+00
         - -1.9539937631037003e+00
         - 7.2951896430505925e-01
         - 6.3928100094757512e-01
         - 1.0782932421733227e+00
         - 2.9113262342621167e+00
         - 9.0129050604427985e-01
         - 1.7489175337003723e-01
         - 1.1733294169177260e+00
         - -1.1018288291686102e+00
         - 3.0177748897044925e+00
         - -1.2858424524546563e+00
         - 2.7746307567940462e+00
         - 2.9372968224718314e+00
         - -1.6966248049787245e+00
         - 1.5496481638613835e-01
         - 2.0628020099662083e+00
         - 8.7881910960659082e-01
         - 1.4574552898404038e+00
         - -5.1787889241864793e-01
         - 1.2059923748742820e+00
         - 3.6070927636836778e+00
         - 1.8878032872256025e+00
         - 4.4360507692949280e+00
         - 1.8697199099077064e+00
         - 3.3909427341670773e-01
         - 1.0227424930962494e+00
         - 4.6060191592269746e+00
         - 2.8999087786372288e+00
         - 1.0862714420036625e+00
         - 1.3347991098487040e+00
         - 7.2378305810435073e-01
         - 3.3863720246976876e+00
         - -1.7821912703211227e+00
         - -1.9477684521028493e+00
         - 3.2424782130595937e+00
         - -6.7532496256722652e-01
         - 3.4697427462435165e-01
         - 8.9743643541336196e-02
         - 8.0025687166785875e-01
         - -1.5450935093642360e+00
         - -2.9782260044499602e+00
         - 1.4711589617490368e+00
         - -2.1491068196670940e-01
         - -2.3179176719968925e-01
         - 2.3488160592825453e+00
         - 2.3174874354274468e+00
         - 4.5319919298009816e+00
         - 1.0707778764057474e+00
         - -6.5309350562985857e-01
         - 1.2208210538190487e+00
         - 1.5878293238397028e+00
         - 1.0279519985379577e+00
         - 2.7165893497955893e+00
         - -2.2073017393873187e+00
         - 1.3653209655988026e+00
         - -4.4191549027638679e+00
         - -1.8341672761920274e+00
         - -1.8733534594495129e+00
         - -9.7649662801534864e-01
         - 7.6740930816490405e-01
         - 1.6968274595201274e+00
         - -1.9753177052749409e+00
         - -5.5050167801928318e-01
         - -1.6950205846641795e+00
         - -2.3424832658759023e+00
         - -8.8275585951844271e-01
         - -6.9024782427600329e-01
         - 4.0876505008635106e-01
         - -9.9549912922352835e-01
         - 3.1985476439064908e+00
         - -4.3272486886435479e-01
         - 1.6990422885082843e+00
         - -2.4268313457578357e+00
         - 2.0259212200944687e+00
         - 2.2368732123206985e+00
         - -4.8325503163256639e-01
         - 8.7379353187462805e-01
         - 4.1422789970164366e+00
         - -1.4873837266439013e-01
         - -8.2616236180536418e-01
         - 2.4274041815759655e+00
         - -1.2267346764346267e+00
         - -2.2617268259270191e+00
         - -1.0557314359170105e+00
         - -1.9118241830659621e+00
         - 4.3331855137487990e-01
         - -3.4867478487609072e+00
         - 3.1710408348844363e+00
         - 2.0824065161836360e+00
         - -1.1317162212338348e+00
         - 1.2207770619840972e+00
         - 5.1710685279733459e-01
         - -1.1117067239387941e+00
         - -1.7541302418492652e-01
         - -3.8015342674880359e-01
         - 8.9860212964384978e-01
         - 7.3752540615079343e-01
         - 1.9556263173085924e+00
         - 2.5536678037138669e+00
         - -2.7003263187384445e+00
         - -1.8705955432271801e+00
         - 4.0110536376579331e+00
         - 2.3204376699476298e-01
         - 4.1501070915330427e+00
         - -2.1023604822254324e-01
         - 2.8217244771100023e+00
         - 6.4121577081550529e-01
         - 2.1006608097195776e+00
         - 2.8443665489173529e+00
         - -2.1631116142284021e+00
         - 1.6794527179539183e+00
         - -5.5408100288998856e+00
         - -2.7408693590311985e+00
         - 6.8658270229292206e+00
         - 3.1040715738832851e+00
         - 3.2785826325968310e+00
         - 7.1364497895088908e-01
         - 5.9415911569200395e+00
         - 1.8952261441998838e-01
         - 5.9760846645956434e-01
         - -6.0748093436928672e+00
         - 3.1892211414104579e+00
         - 2.0156705709543576e+00
         - 1.0627149854076257e+00
         - 4.4936941757971999e-01
         - 4.7187448673607308e+00
         - 1.1152239280333454e-01
         - -2.0555067722677127e+00
         - -9.1862249995124334e-01
         - 4.6445393830085863e-01
         - 1.2132151407889162e+00
         - -1.0979695855242373e+00
         - -1.6234377733288012e+00
         - -2.8962958304514991e-01
         - 3.9366253764103537e-01
         - 3.6369724584696326e+00
         - 1.3138892423632256e+00
         - -2.5188604084935515e+00
         - 1.2469451152322157e+00
         - -6.5690356880477496e-01
         - -9.7734793897157432e-02
         - 1.8985500564586876e-02
         - 2.2345391432519346e+00
         - -2.0522322745261898e+00
         - -6.0918490130158731e-01
         - -8.8200704913202754e-01
         - 4.1968644507289374e+00
         - -2.0447414396117325e-01
         - 2.8675607951867510e-01
         - 8.3561684198112096e-01
         - -1.1687178507444209e+00
         - -2.2915395138242317e-01
         - 2.8597471371973961e+00
         - -6.8450060817027207e+00
         - -2.8972061874908093e+00
         - -2.2879482011515875e+00
         - -8.5870452407598741e-01
         - 9.4314242737437937e-01
         - -3.4264963262139880e+00
         - -2.1320663912289572e+00
         - 5.5625987003324839e+00
         - -2.9545167108722254e+00
         - 6.0937262634958262e+00
         - 1.5185522847447064e+00
         - 4.4918979450812069e+00
         - 3.2665452649352349e+00
         - 4.7739141998295835e+00
         - 7.9934405427735322e-01
         - 7.2623710017425258e-01
         - 3.9200017661479989e+00
         - -1.0402473074310536e+00
         - 1.3420480852673917e+00
         - -9.0512617412035104e-02
         - -3.4968739722398956e+00
         - -4.7437299819097611e-01
         - 1.0950997478613948e-01
         - -1.7767106905854804e+00
         - -6.7877549329746734e-01
         - 1.7196271519391482e+00
         - -2.9751729578995509e+00
         - -3.2812857489223451e-01
         - -2.3616195382479965e+00
         - 2.5255382157953682e-01
         - -1.9623989018949293e+00
         - 6.8733921331545078e-01
         - -7.0609934461028923e-01
         - 1.6024118130768004e+00
         - 1.1346720138850261e+00
         - 1.8374601040511063e-01
         - -1.2024538708006050e+00
         - 3.1745946240391381e+00
         - -2.3737240992133879e+00
         - 2.3682403056844330e+00
         - 1.7237376954858064e+00
         - 3.9494197220344129e+00
         - -2.7096459058171680e+00
         - -1.8367901990711146e+00
         - -3.2580374901241078e+00
         - 2.8350163426311106e+00
         - 1.0731684217188553e+00
         - 4.5952420292995555e+00
         - -1.1400700880339434e+00
         - -1.5179118541884653e+00
         - -1.6702146374857838e+00
         - -9.5100464383594152e-02
         - 6.7464072108500017e-01
         - -2.8413476196019491e+00
         - -1.3577698071816502e+00
         - -1.5553775882219871e+00
         - -7.6109463892537671e-02
         - 1.0103561790756237e+00
         - -1.9903026873419454e+00
         - -9.6961366146084871e-01
         - -3.9474607386841363e-03
         - -1.2864656544784412e+00
         - 2.0409307118853834e+00
         - 3.3078066559844338e-01
         - -1.1615236756021745e-01
         - 3.3674920287463106e-01
         - -2.1102558144417234e+00
         - 3.0303422486200371e+00
         - -5.7559346569110326e-01
         - 3.2876358437993064e-01
         - 1.8175296942215358e+00
         - -2.8389462029862700e-01
         - 9.8798338310341749e-01
         - -3.0438257201456302e+00
         - -2.1824147191680510e+00
         - -9.9151985780867791e-01
         - -2.2302356303101085e+00
         - -2.8230545481178287e-01
         - 4.0240213110342102e+00
         - -4.7226929744263102e-01
         - 1.4707294066791710e+00
         - -8.2591952866315377e-01
         - 2.8169624507373352e+00
         - 4.8668136816035759e+00
         - 4.7502005138343628e-01
         - 4.8730131090055301e-01
         - -1.6909503276712754e+00
         - 1.9858005806246006e+00
         - 7.2241356844217641e-01
         - -2.5932384898493810e+00
         - -3.8472851063133828e-01
         - -5.3163565330334173e-01
         - 8.7689078941749599e-01
         - -4.1683718929966274e+00
         - 1.1852460754869734e+00
         - 1.3867746061443316e+00
         - -1.0625225343687901e-01
         - 1.0014695479459421e+00
         - 7.1732644551406197e-02
         - 7.2963870978633494e-01
         - 4.6640154336698938e+00
         - -1.0756481875612176e+00
         - 7.7270377082626429e-01
         - -7.2022265201261937e-01
         - 4.7708171725188402e+00
         - 2.4180485460304338e-01
         - -3.2399566318809381e+00
         - 1.2709968683426152e+00
         - 3.4989591333024266e+00
         - -1.5714094472628799e+00
         - 2.0378179180039906e+00
         - -2.9679506063940397e-01
         - 6.6481377301050215e-01
         - -2.2391773932208285e+00
         - -1.0995241999935068e+00
         - -1.9269302207812065e+00
         - -2.2182482148570357e-01
         - 2.5356518043610117e+00
         - -7.4436413821028211e-02
         - -1.0168734142902904e+00
         - 6.1313312521979206e+00
         - 1.4325452603919440e+00
         - 1.1097782558958680e-01
         - -7.3322194832233234e-01
         - 1.7983163861605034e+00
         - -2.1093030912144575e+00
         - 1.0408015756333118e+00
         - -3.5921800857299108e-01
         - 7.9315289019373958e-01
         - -1.7058136239084658e+00
         - -2.7370739591942326e+00
         - -1.8704436146144490e+00
         - -2.0949605608403190e+00
         - -6.0745640456727645e-01
         - -4.1816644526761237e+00
         - -1.5420081229895158e-01
         - 9.3534470162493877e-01
         - 9.2092947950006476e-01
         - 2.8298352232977679e+00
         - -2.1087093304021893e+00
         - -1.4511306772021773e+00
         - 3.2961524946613885e+00
         - -1.2538233199700455e+00
         - 3.1270702702369571e+00
         - -8.7655901722643603e-01
         - -9.7484739315546942e-01
         - -1.5111680884072151e-01
         - 5.4750020384545306e-01
         - -2.1805812225759134e+00
         - -1.2637132327646523e+00
         - -1.2017204781161848e+00
         - 1.3854063260752871e+00
         - -4.9551029356307579e+00
         - -1.2777791866600272e+00
         - 2.8029784817661935e-01
         - -2.0291627057628228e+00
         - -2.1509193648591234e+00
         - 1.0341460958379280e+00
         - 1.7769278863963378e+00
         - 2.4938400743639675e+00
         - -6.4380506499734591e-01
         - -2.4401836180238439e+00
         - 1.9283306442012433e+00
         - -3.5699369076329615e+00
         - 3.5196583051763752e-01
         - -4.2153340639196806e+00
         - 7.9706333791285533e-01
         - -4.4940808779296432e-01
         - -2.9934746707267776e+00
         - -1.5012228822334013e+00
         - 8.4929538926954196e-01
         - 1.1304588186189331e-01
         - -2.4053933870035387e+00
         - 2.9315629893681230e+00
         - 3.7581441498941688e+00
         - -4.4464766022647826e+00
         - 1.6033560618514264e+00
         - 2.1034762810888421e+00
         - 1.4660688390402581e+00
         - 5.9900145370668612e-01
         - -1.3781881604347710e+00
         - -3.0760474491841037e+00
         - -1.4387904165316590e+00
         - -5.0623353716311961e+00
         - -5.3806665764850408e+00
         - 1.3394185784270334e+00
         - -1.8456902196607228e+00
         - 4.7272757483801936e-01
         - -4.3766995027683055e+00
         - 4.7474018520300474e+00
         - -5.6819835115471595e-01
         - 1.0377134048402539e+00
         - 6.1088147711368270e+00
         - 6.0017096992424319e+00
         - 6.0997972891239538e+00
         - 3.4322785098505681e+00
         - 1.6449818944560164e+00
         - 3.1839548790729708e+00
         - -1.1703260059942295e+00
         - 1.7339542925972091e+00
         - -2.7632106823313157e-01
         - -1.5641883544552698e-01
         - -5.8377964807290239e-01
         - -2.2317447326872997e+00
         - -8.9340291458615240e-01
         - 5.5787098150164938e-01
         - -1.7360226835146624e+00
         - 3.1653783607219124e+00
         - -1.6405944996680710e+00
         - 2.3735106225894511e+00
         - -6.6169786807797032e-02
         - 1.0144336012175621e+00
         - 1.0605477481422414e+00
         - 1.7209478396643232e+00
         - -7.5346469310063324e-01
         - 2.2686965749596508e+00
         - -7.0281446723839736e-01
         - -1.4732472906262961e-01
         - 1.3461191021251249e+00
         - -1.6603560807784408e+00
         - -1.0780114356568522e+00
         - -5.0356977435321104e-01
         - 2.0478822510390668e-01
         - -1.1055080210994390e-01
         - -9.7357465898722784e-01
         - 1.1828356118984764e+00
         - -3.1822778312528741e+00
         - -2.7029660842534322e+00
         - -2.4396474388945282e+00
         - -2.3022954950932517e+00
         - -1.8398081179539154e+00
         - -7.0050856711842435e-01
         - 3.0014414855095248e+00
         - 1.0731487303821152e+00
         - 5.9104115829462633e-01
         - 2.8638487632176002e+00
         - -2.6447692661074589e+00
         - -2.4962212818451199e+00
         - -1.3815479307975433e+00
         - -5.6578686799756039e-01
         - -4.5835273580391833e-01
         - -2.5741838731288977e+00
         - -1.6702039246082125e+00
         - -3.0444856633681452e+00
         - -1.4693418519704631e+00
         - -1.2251380986110185e+00
         - 1.2400271594599950e+00
         - 8.2655451723527218e-01
         - 6.1108811332732182e-01
         - -1.1037498861316644e+00
         - 2.2330295840086407e+00
         - 1.5067895344290756e+00
         - 1.4237203576189630e+00
         - -4.6334489347931612e-01
         - 2.4875628742447602e+00
         - -8.2846318396372770e-03
         - -2.9178928181401536e+00
         - 1.2142710616600083e+00
         - -1.2132155912863802e+00
         - -9.0973760988156308e-02
         - 2.1010650993076871e+00
         - -6.2440320621509615e-01
         - -1.3139306488892035e+00
         - 3.9361045717940063e-01
         - 5.7354209751559926e-01
         - -4.8079811971879563e-02
         - 1.4508770213687858e+00
         - -2.0198488200156786e+00
         - 1.2157251575385866e+00
         - -2.2579959022567637e+00
         - 8.5695896026391594e-01
         - -1.6193209458188766e+00
         - -1.7835033066381425e+00
         - -7.5035361683414925e-01
         - -1.6463475874443902e+00
         - -3.5441058948428406e-01
         - 6.7445213086231942e-02
         - 4.9766949800848359e-01
         - 8.0278514826814834e-02
         - 1.8445053201188921e-01
         - 1.0748991139150170e+00
         - 1.2186753582849759e+00
         - -2.0476862630589441e+00
         - -6.6100429982743536e-01
         - -2.9292006439619528e-01
         - -1.7007136835600580e+00
         - -3.9148472532525673e+00
         - -1.1317072036369491e+00
         - -2.1813297531709712e+00
         - -2.2070963903335464e-01
         - 3.3607360793800884e+00
         - -2.2167905807432692e-01
         - 4.0880461218544473e-01
         - 1.3790891908184271e+00
         - 2.6963321315537742e-01
         - -1.8036795527795570e+00
         - -4.2862955014398363e-01
         - -1.3411996138814901e+00
         - -1.6269365701897678e+00
         - -1.5757388167860416e+00
         - -1.2902960371956842e+00
         - 2.4178003813739526e+00
         - 3.7379391798545586e-01
         - -6.7490980125094655e+00
         - -7.8736302415005024e-02
         - -2.3174671650803838e+00
         - -8.3091608728554101e-01
         - -3.0703099747322180e+00
         - -7.8246694323667765e-01
         - 6.5383324509750969e+00
         - -1.9552838840774842e+00
         - -1.6232730570828999e+00
         - 1.1755352464735576e+00
         - 1.0017366130485570e+00
         - -5.7758789855709225e-01
         - -4.6654962490444811e+00
         - 1.4526057271686013e+00
         - 7.3931454687144171e-01
         - 5.0075451299057034e+00
         - 4.6143169514822607e-01
         - -5.0378232257889310e+00
         - -1.5005541910472595e-01
         - -2.5704263804307886e-01
         - -3.3338169503911939e+00
         - -2.4288454931593302e+00
         - -2.6264633484454949e+00
         - -5.5145111496548804e-01
         - -3.4159460119003007e+00
         - -2.5591762395904829e+00
         - 4.8697583093340828e+00
         - 4.5675699288178839e-01
         - 4.4984359017588343e-01
         - 1.3290979994426191e-01
         - 2.4329619411553067e+00
         - -1.3593726684199965e+00
         - -3.6025707488992671e+00
         - 3.5321710264065087e-01
         - -1.9425851258544455e+00
         - 1.9200846850014006e+00
         - 2.4695785337879883e+00
         - -3.9634739580659044e+00
         - 2.4870575356292184e+00
         - 1.9757112376432400e+00
         - 7.9428883670940387e-01
         - -2.6057819433007570e+00
         - -2.5418526768753829e+00
         - 3.2352197973969936e+00
         - -1.4765466693295275e+00
         - -2.9654149957761766e+00
         - 2.5363525261032009e+00
         - 1.2678524658653465e+00
         - 1.4782886427761990e+00
         - 2.0192616593381221e+00
         - 6.1116676302660871e+00
         - -2.0600997787783290e-01
         - -1.6469263111432799e+00
         - -1.7662057037508010e+00
         - -2.5097380345620506e+00
         - 1.8120845978772144e+00
         - 2.5182295566368857e+00
         - -3.0760224480203910e+00
         - 2.8372653408367894e+00
         - -1.2981169671185244e-01
         - 3.5404045327279793e-01
         - -3.2595696128931726e+00
         - -2.7866132140289337e+00
         - 3.5651782258228608e+00
         - 1.2318150648687418e+00
         - -3.0607968312378668e+00
         - 4.8659582702656685e+00
         - 1.9614529364111390e+00
         - 4.8568655351028491e+00
         - 3.3782420410803473e+00
         - 4.8749477553726646e+00
         - 5.9797931245037645e+00
         - 1.1411733263108803e+00
         - 1.7403449856794346e+00
         - 5.2784927252274487e+00
         - 2.8987285401393024e+00
         - 6.9881458284544644e+00
         - 1.2823318756777960e-01
         - 1.2587986222620826e+00
         - -1.4200850451745988e+00
         - -1.2960436823340056e+00
         - -4.4613191855736476e+00
         - 3.0947566951967489e+00
         - -2.6901560287340129e+00
         - -1.9741888794560969e+00
         - -1.0303645736559999e+00
         - 2.4754071327296896e+00
         - -6.1335555742740822e-01
         - 1.5367609720000581e+00
         - 2.9017880180407980e+00
         - 9.1342390753094804e-01
         - 6.0263642264297246e-01
         - -8.4114614767362983e-02
         - -5.6576836575595368e-01
         - 2.3850873013729335e-01
         - 4.5595507857197337e-01
         - -2.1451039523218063e-01
         - 1.6055242739318418e+00
         - 4.4756944873996929e+00
         - -2.0023793799192924e+00
         - -1.7324513305353977e+00
         - -3.4092136815893119e+00
         - 2.4413718171365519e+00
         - -1.4811915477248534e+00
         - 3.0943448998777008e+00
         - -1.4368105242957232e+00
         - 3.6842500105722631e-01
         - -2.1167684072059560e+00
         - -1.7242841227072394e+00
         - 3.2357666542308983e-01
         - 9.2500452047307624e-01
         - -1.8879032515502201e+00
         - 2.4286135210313978e-01
         - -2.8099327194002761e+00
         - -1.6701428017877749e+00
         - -2.3792430774018172e+00
         - 1.2446675085360466e+00
         - 9.2830158371995530e-01
         - 3.5671943834338782e+00
         - -1.4750809523090207e+00
         - -3.0167340735979571e+00
         - -1.9206514387164684e+00
         - 2.7405594805493230e-02
         - -3.9016025036006035e+00
         - 1.8287244313467970e+00
         - -3.0042921868864600e+00
         - 8.3812899982145583e-01
         - -3.0937266823581058e+00
         - 4.6995211662207065e-01
         - -1.6450007159639419e+00
         - 8.6496476097509309e-02
         - -2.5053156835995374e+00
         - -8.6038818108517379e-01
         - -2.5250517678836628e+00
         - -1.4369803516104789e+00
         - -5.5992502344283750e+00
         - 3.8775586845431714e-01
         - 2.7470592624105588e+00
         - 9.1293253659148688e-01
         - -2.8931606067753370e+00
         - -3.3795056162470594e-01
         - -3.7727057076111103e+00
         - 2.4817045611434079e+00
         - -4.3947234337609142e+00
         - 2.5710733783860085e+00
         - -4.8080238850820972e-01
         - 1.2401986554191775e+00
         - 3.3249271567746275e-01
         - 2.4104146770205950e+00
         - 3.6381471898650761e+00
         - 8.7329167279672859e-01
         - -2.7303641567217558e+00
         - -3.0157011735645196e+00
         - -2.9600696018488954e+00
         - -2.5699860931732492e+00
         - 7.0435528289717975e-01
         - 8.7010255537118253e-01
         - -4.7830638827442229e+00
         - 1.3430480676792820e+00
         - -1.0867564331524493e+00
         - -5.4592780646938195e+00
         - -1.4317659447500737e+00
         - -4.3344765473082880e+00
         - -7.2351862753582263e-01
         - -1.2478420386572000e+00
         - 1.9970872401389272e+00
         - 7.6954720450317948e-01
         - 9.6823530816539871e-01
         - -4.5268060767759566e-01
         - 7.6018488299131742e-02
         - 1.3522288991039147e-01
         - -3.3389544661428697e-02
         - 5.9209160526038779e-02
         - -2.3040218686946838e+00
         - -3.8627420510044943e+00
         - 3.5586182186542943e+00
         - 4.0085906963111428e+00
         - -2.6048599264029870e+00
         - 4.4175963822870514e+00
         - 1.2428951071213818e+00
         - -4.6153143113775172e+00
         - 5.5386717331978030e-01
         - -2.2607170572076005e+00
         - -4.4793222821236239e-02
         - 3.1674293758523780e-01
         - -2.9989549586582567e+00
         - -2.3468136173443539e+00
         - 4.8336858908543562e-01
         - 2.4262232120029692e+00
         - -5.6595211118082878e-01
         - 1.9358410159025023e+00
         - 1.5699370029904234e+00
         - 3.8300108678002147e-02
         - -3.1723819625417216e+00
         - -3.0680523105604456e+00
         - -2.9408224797683759e-02
         - 6.2608489083766319e+00
         - -6.7746705564927305e+00
         - 2.3539830389809975e+00
         - -3.3003908533860959e-01
         - 2.5812544262596324e+00
         - -5.1866542111249991e+00
         - -3.8345952039401614e+00
         - -7.0861509634857034e-01
         - -1.4706945023412112e+00
         - -4.5882066961993084e+00
         - -4.0815041141935748e-01
         - 7.7483034814680241e-01
         - 2.8600850969787865e+00
         - -4.7413230157635822e-01
         - -1.2617497975938770e+00
         - 1.1393794413473703e+00
         - 2.8641242162538201e+00
         - -4.4553083990763959e-01
         - -1.2114710706403580e+00
         - -1.2983817766104595e+00
         - 1.0709877890808103e+01
         - -1.6917562910954129e+00
         - 2.4339986146954304e+00
         - 2.0629048507103707e+00
         - -5.3473482884029522e-01
         - -4.5310713794734614e+00
         - -1.1144115159918998e-01
         - 7.3244165341591416e-01
         - 4.9155759594880024e+00
         - -1.6598408651335328e+00
         - 9.4622715738058238e-01
         - -5.6788930703005780e-01
         - 5.3942794224012536e+00
         - 1.0057403737730155e+00
         - 2.1364815267127337e+00
         - 2.1942147921836557e+00
         - 3.0847119322627283e+00
         - 8.7629169374416949e-01
         - 9.2891328668091688e-01
         - 2.1713443869072854e-01
         - 6.2393332624880644e+00
         - -1.3804785001259590e+00
         - 1.8433073378066345e+00
         - 3.7891354090896603e+00
         - 3.9408843902019192e-01
         - -3.6393513503727006e+00
         - 1.9570267952722094e+00
         - -1.5498971985044983e+00
         - 3.4021106230319824e+00
         - -2.0273539030625627e+00
         - 1.0025626765407090e+01
         - -3.8118954245568371e-01
         - 3.4199657070295801e+00
         - 8.3845462466560523e+00
         - 1.3650839374323098e+00
         - -1.0422691017123535e+00
         - -2.2437288876819581e+00
         - 3.5890304056769571e+00
         - -2.0186668812596649e+00
         - 2.7638827022826490e-01
         - 5.4087185615800584e+00
         - 1.9343081890082783e+00
         - 1.9566377698608803e-01
         - -1.8812570918605878e-01
         - -2.7228737923488167e+00
         - -2.4572702485058118e+00
         - 2.2476186916284169e+00
         - -4.2879180367557144e+00
         - 4.0239422169559251e+00
         - 1.0662554584072768e+00
         - 1.3475086871358548e+00
         - 8.4958679862361519e-01
         - 2.2258946678988649e+00
         - 4.9816133673821312e+00
         - 1.4823033008946305e+00
         - -4.1035324710220840e+00
         - -1.8914307330998608e+00
         - 2.4941143149185203e+00
         - -1.3101441532733571e-01
         - -2.7536559776869711e+00
         - -1.9870215372312352e+00
         - 3.0954265819584443e+00
         - -1.4373778819699107e-01
         - -2.9049304427062146e+00
         - -8.0430206973081706e+00
         - -2.6059458851570358e+00
         - 5.5990530051038130e+00
         - -4.3260162952078414e+00
         - 2.1763219350316567e+00
         - 8.7389145264306989e-01
         - 4.7999223389976011e+00
         - -1.6021383017243986e+00
         - 1.5190414944173509e+00
         - 3.4599791247215923e+00
         - 3.0811549539905025e-01
         - -3.7431071226581949e+00
         - -1.4262903603988790e+00
         - 4.8049398817788544e+00
         - -1.1131160184926019e+00
         - -1.4676140964485545e+00
         - -2.4019351929416235e+00
         - 2.7138246405644071e+00
         - -3.5050035939313062e+00
         - -1.5156403988608227e+00
         - -9.0025298958013988e-01
         - 1.3340044029049640e+00
         - -5.1496524724189550e-02
         - -4.0306301702034109e+00
         - 3.6819382394790261e+00
         - -5.9888111667698318e-01
         - 1.1703092909038699e+00
         - -5.0820095662370668e-01
         - -4.1528846336217096e-01
         - 3.4469818318786087e+00
         - 2.8670176721995161e-01
         - -2.7959899579638821e+00
         - 3.4420973328728266e-01
         - 4.1300687979860360e+00
         - -3.3012839645696812e+00
         - -1.8610106262223876e+00
         - 2.7777439667769155e+00
         - -2.3231881566680470e+00
         - -2.0867812339458864e+00
         - -1.2247231261873679e+00
         - 3.1168605637204172e-01
         - 1.8513439712857258e+00
         - -4.3901407078919574e-01
         - -1.2615652165328828e+00
         - -1.5495702930770792e+00
         - -3.1648217491867241e+00
         - 2.2128359912457025e+00
         - 2.7157847332098308e+00
         - 2.4809073459179873e+00
         - 4.9194711385555383e+00
         - 4.9818026775609203e+00
         - -1.0719639048480476e+00
         - 1.3128757922233354e+00
         - -4.2689033350647126e-01
         - -4.0653528910674499e+00
         - 1.8098832919883296e+00
         - 1.9092463927362808e+00
         - 1.4400139447095850e+00
         - 6.2619261636362333e-01
         - 4.8184152178815349e+00
         - 1.4258379341167176e+00
         - 4.0577531398844577e+00
         - -1.8105882018433674e+00
         - -1.1842081869943288e+00
         - 1.6971774182701077e-01
         - 6.5907708046277547e-01
         - 7.3345796168842070e-01
         - -1.9083092374106811e+00
         - 2.3480271356485947e+00
         - -3.7870174276937645e+00
         - -1.8349477109460062e+00
         - -6.1764149244018762e-01
         - -1.2311277034530128e+00
         - -2.0375612651523407e+00
         - -9.7502568178011073e-01
         - 2.5419719176054412e+00
         - 3.7780508161812126e-01
         - -1.0396241548549670e+00
         - 4.0017374235235890e+00
         - 6.2416741692916100e-01
         - -4.8793026299332187e-01
         - 2.2416962150425335e-01
         - -1.4192678803161713e+00
         - -3.1041888422355907e-01
         - -1.6059394285265587e+00
         - 1.2211341997115238e-03
         - 4.1227357827254951e-01
         - -1.3565645108589630e+00
         - 1.4898481648882349e+00
         - -3.7586694084878998e+00
         - -9.5604944129331026e-01
         - 9.5231940800246251e-01
         - -3.3100716761309745e+00
         - -3.6639491995819431e+00
         - 2.8059457605937993e-01
         - 9.1576172150461266e-02
         - -1.2593915731851074e-01
         - -2.8475056606879194e+00
         - 2.8467160993500142e+00
         - 5.0759962546394988e-01
         - -6.2769840859508930e-02
         - -1.2139257361614402e+00
         - 3.8204771729589071e-01
         - 5.3266822823585647e-01
         - 2.6110501509217037e+00
         - 3.1797770251960866e-01
         - -1.2394063005463338e-01
         - -2.9387065342766037e+00
         - 1.3997549324196208e+00
         - -3.3139795537759791e+00
         - -3.4577283286041016e+00
         - 4.1410163144473233e-01
         - 3.5354127811799169e-01
         - -3.0597690465708989e+00
         - 2.3332335248980369e+00
         - -3.2105224109769765e+00
         - 1.7155052716403912e-01
         - 2.8191821528190297e-01
         - -2.2420501196554041e+00
         - -1.1318773774940378e+00
         - 1.1856594695827516e+00
         - 1.0810579431935905e+00
         - 9.3679582359832148e-01
         - -2.8834433886635863e-01
         - 5.8623645885490616e-01
         - -1.7772754385792219e-01
         - 5.3451129808695463e-01
         - -9.7364495092669456e-01
         - 7.2386905611060848e-01
         - 1.4202197274920789e+00
         - 1.3251090436427821e+00
         - 1.4361250585678331e+00
         - 3.8553206190932339e+00
         - 1.3789735493203075e+00
         - -2.5132258368739420e+00
         - -2.2042132484397983e+00
         - 1.1357124688864670e+00
         - 3.8547256808918791e+00
         - 9.5354892716276873e-01
         - 5.2729678544134240e-01
         - 9.7068958069776112e-01
         - 2.1889127872387553e+00
         - 1.4805382820569244e+00
         - -1.7048014309932953e+00
         - -2.4665689549177277e+00
         - 3.9242175899410117e+00
         - 4.1797875811693066e+00
         - -2.1399202128656830e-01
         - -6.7586974523594301e-01
         - 5.5347418674562219e+00
         - -2.7539392351060310e-01
         - 1.0898356823110362e+00
         - 6.0375778580631159e-02
         - -1.6964668889151571e-02
         - 2.0798203362304668e-01
         - -4.3415363312492730e+00
         - -5.4245569244424557e-02
         - 5.8514294247452825e-01
         - -1.3146558183833392e+00
         - -2.4765822808757720e+00
         - 1.4168541737582276e+00
         - 6.8301323052391982e-01
         - -2.8757726872012385e-01
         - 1.5117434054436723e+00
         - -3.7640661219688950e-03
         - -9.8982520942569996e-01
         - 1.1954599436524276e-01
         - -2.1991761204374932e-01
         - 9.5520104848621057e-01
         - -1.2118097710984115e+00
         - -4.8668287502474894e-01
         - -1.2794943976865858e+00
         - -3.5276619896314552e+00
         - -3.8041407218462209e-01
         - -1.9939483414293133e+00
         - 3.0188985851426603e-01
         - 3.1000931039201929e-01
         - -1.9586091996651928e-01
         - -2.1260418946991305e-01
         - -1.1750428494492011e+00
         - -6.5505359180661005e-01
         - 4.6915908117725778e+00
         - 1.0796345267070234e-01
         - 3.5852405565829097e+00
         - -2.3861383933279665e+00
         - -1.3613117830130024e+00
         - -4.3906425616665574e+00
         - 3.5777070255956733e-01
         - -1.4779901210295614e+00
         - -1.2832173770452706e+00
         - -9.2631989474719434e-01
         - 8.9935210093437135e-01
         - -2.0440070622880251e+00
         - 2.3051014997719657e+00
         - -3.5424797969178892e+00
         - -1.3169492961126337e+00
         - -1.9956373924522077e+00
         - 2.7410257891124696e+00
         - -1.3714585364799239e+00
         - 1.4249573728933076e-01
         - 2.7778233478250609e+00
         - 3.7165799843369736e+00
         - -6.5815687505154341e-01
         - 2.2741981795917332e+00
         - -3.0180020337070519e+00
         - 3.1820649851936986e+00
         - 8.8273968569647920e-01
         - 5.0681996145501229e-01
         - -1.8656090608899421e+00
         - -1.4890339804893888e+00
         - 1.1744897944390200e+00
         - 4.7108347816468804e-01
         - -2.9972038822755511e+00
         - -3.9374297117479182e-02
         - 2.3088477185937992e+00
         - 4.6947831169317988e-01
         - -4.1850303181086792e+00
         - 2.2080264770483171e+00
         - 6.1207006223891902e-01
         - -8.2376244222187123e-01
         - -3.8686712502233350e-01
         - 3.7335277734019265e+00
         - 1.5133098933510403e+00
         - 2.1101599263057880e+00
         - -7.5015187889382207e-01
         - 1.8761114409750592e+00
         - 5.1501379333010657e+00
         - -1.8284700592588417e+00
         - -1.2597523656014207e+00
         - -2.2130271890756799e+00
         - -2.7880687690166539e-01
         - -1.0761373156242134e-01
         - -2.8708636288599299e+00
         - 2.9950603723595109e-01
         - 3.5020507410916100e+00
         - 5.4499438893928953e-01
         - -1.5819456617320338e+00
         - -5.8632089754418504e-01
         - 1.1067392293277931e+00
         - -1.0015782184266395e+00
         - 3.1106749172435504e+00
         - -2.4149438560332431e-01
         - -1.2699695385790339e+00
         - -1.3641583828289059e+00
         - -7.5785617733580923e-01
         - -2.3974129799438728e+00
         - -1.9331161207746734e+00
         - 9.6411892151635703e-01
         - 8.1407813500863901e-02
         - 1.0141131241500574e+00
         - 2.1963219869746893e+00
         - 3.3942514141848599e+00
         - 1.3391100653591852e+00
         - -2.5325262514186681e-01
         - -1.4674265184520232e+00
         - 7.0245596866211957e-02
         - 8.4327479821627582e-01
         - 4.2515903109319397e-01
         - -2.4664043375145837e+00
         - -1.0240916185276976e+00
         - -6.1793029675911999e-02
         - 6.5083367119478819e-01
         - 1.7142882126047105e+00
         - 1.8230907502654781e+00
         - -1.7403259866955523e+00
         - 1.0103414435280282e+00
         - -1.0045371833940748e+00
         - -2.8614732293352718e+00
         - -2.0796067448765116e+00
         - 2.0489220147070792e+00
         - 1.7862825359892859e-01
         - 9.9023944938124442e-02
         - -1.0322142925763618e+00
         - -2.6629935588473563e-01
         - 1.6084595033164208e+00
         - -2.3494065418193792e+00
         - 1.5910528971933586e+00
         - 1.0550111559379376e+00
         - 4.2281578394120795e-01
         - 2.5043623305676710e+00
         - -1.0767237343776523e+00
         - 1.4471767173086258e+00
         - 2.8191790208701009e+00
         - -6.2988386959573961e-01
         - 1.2393267020604870e+00
         - -1.2287864001188562e+00
         - 3.4762458929153031e+00
         - -1.4450909845938487e+00
         - -2.8241607100190067e+00
         - 1.1121771872335544e+00
         - 1.6362857244171309e+00
         - 1.5166045488660869e+00
         - 1.4333544355720769e+00
         - 3.5918359510462894e+00
         - -3.2062174486680167e-02
         - -1.2845569983798610e+00
         - 3.0979508065279417e+00
         - 1.8428612793891193e+00
         - 9.8696597799254648e-01
         - -4.5402882047903965e+00
         - 1.3342614948761047e+00
         - 9.0180020999595401e-01
         - 1.9626360962460054e+00
         - 6.1592935764264389e-01
         - -3.5826484761678348e+00
         - -3.0480445912763793e-01
         - 1.7866898441863807e-01
         - -1.0092933915206086e-01
         - 9.8913437407089422e-01
         - -3.0295274456134402e+00
         - 1.0115213945098280e+00
         - 7.3668235379356328e-01
         - -3.2200918971835311e+00
         - 1.3437599961565654e+00
         - -4.4896222849263232e+00
         - 1.2378121315471247e+00
         - -6.4785528993031238e-01
         - -8.6180711843474178e-01
         - -2.8238150575920806e+00
         - -3.9768772661091156e+00
         - -1.5479545341991707e+00
         - 1.1069842839761703e+00
         - -1.7793484810036502e+00
         - -8.8485835963711984e-02
         - -2.2944482651272819e+00
         - -2.6322756241091709e+00
         - -1.9416185239794939e+00
         - 3.3192354733587446e+00
         - -2.9936018657431904e+00
         - 2.2838041626741393e-01
         - -1.3258848336533566e+00
         - -4.1963838793318384e+00
         - -4.3800481345216927e-02
         - 2.5642084250683714e+00
         - -4.9318466577836020e+00
         - 6.0754103463734497e+00
         - 9.2681455989419592e-01
         - -1.9899438125818723e+00
         - -7.4569931796003275e-01
         - 2.1835128756308282e+00
         - -8.0466245041041284e-01
         - 1.5548676823648072e-01
         - 1.0156282764089306e+00
         - 2.8897886589586236e-01
         - -3.4762990859748338e-01
         - -3.6917270001586209e+00
         - 9.9354916942263960e-01
         - 2.6787297791058804e+00
         - 4.6239563262300842e-01
         - -8.4761131955444813e-01
         - -2.9875109510517900e-01
         - -1.4469633710569600e+00
         - 1.3435242548215285e+00
         - -2.2277207751080388e+00
         - -2.5482518234633185e+00
         - 4.1847451912103095e-01
         - 7.4535935666427511e-01
         - -8.3073851553191647e-01
         - -1.3634819275286922e+00
         - 2.3087867229157271e-02
         - -3.1594735139466934e-01
         - -2.1633229665842508e+00
         - 1.0346234654478188e+00
         - 1.3354067593536025e+00
         - 2.6292390103407994e+00
         - -4.1805557279812966e+00
         - 6.3780820164095953e-01
         - -2.1934441786366121e+00
         - 2.5425895613260638e+00
         - 1.7012541953061329e+00
         - 3.3059137967653411e+00
         - -5.7559478140463307e+00
         - -1.9658198455131795e+00
         - 1.8272218252376056e+00
         - -3.8286656309796134e+00
         - 2.0096752803272833e+00
         - 1.8740868118931664e+00
         - 3.7731587925693470e-02
         - -1.1323814751702834e+00
         - 9.2905276777905621e-01
         - -3.5866096060735781e+00
         - -3.8482999245975709e+00
         - -2.4547922170392971e+00
         - -1.3397401199327728e+00
         - -1.4173567795580055e-01
         - -2.7810747761226877e+00
         - 2.1555236939678662e-01
         - 1.5558050210387540e+00
         - 1.2892476978543546e+00
         - 3.8980835185041895e+00
         - 1.7921058693591125e+00
         - -4.8510193135185781e-01
         - 9.5822247121926474e-01
         - 4.3145917033296566e-01
         - -3.1882045159042987e+00
         - 7.3233180109694307e-01
         - -1.6089097201236846e+00
         - -1.8178248272064848e+00
         - 3.3112260942704963e-01
         - -2.3648398850362096e+00
         - 3.7838680936218183e-01
         - -3.6004913248944979e+00
         - 8.4803724281260662e-01
         - 1.9272742820224489e+00
         - 5.4652480823388971e-01
         - -2.0846594702815491e+00
         - -2.9107970054936805e-01
         - 1.4312866127554220e+00
         - -1.0069735072555828e+00
         - 8.0658048898603174e-01
         - -2.6676774051602553e-01
         - 1.2117943109329088e+00
         - 1.8863085307319531e+00
         - 1.2753892953228871e+00
         - -2.9286708826738219e+00
         - 3.1732780860432923e+00
         - -1.3835419593787674e+00
         - -1.7600811270026131e+00
         - 6.0426967028782663e-01
         - 2.2708398934014009e+00
         - 1.4563917514275986e+00
         - -4.9988647122965020e+00
         - 7.1172319733687948e+00
         - 2.8798227296387795e+00
         - 2.9475782466552114e-01
         - -5.4821165385442072e-01
         - -2.3188962673515481e+00
         - -1.9712493001528415e+00
         - 2.2652172524702063e+00
         - -2.1252853312996587e+00
         - 2.4105440091557151e+00
         - -1.1597202398739528e+00
         - -3.7122158748816991e-01
         - 3.4057804087704064e+00
         - 2.0476737571672698e+00
         - -3.2131700781440755e+00
         - 4.0632695515645878e+00
         - -1.1406658022595961e+00
         - 1.8552647671069313e+00
         - 1.3723756215566143e+00
         - 1.0423860444275779e+00
         - -3.2554846975780096e+00
         - 1.0009451159422158e+00
         - 2.3196171499302465e-01
         - 2.9428712072019145e+00
         - -7.2210101930995840e-01
         - -1.2353528429758478e+00
         - -4.5477386583483597e+00
         - 2.2758176062960849e+00
         - 7.8289696738897818e-01
         - 9.4851265348870628e-01
         - 4.0187214136080623e-01
         - -6.4002062490921630e-01
         - -1.0989516123314824e+00
         - 1.2691014862913381e+00
         - -2.8959102075161116e+00
         - 1.0296345791026824e+00
         - 4.4147137167676553e-01
         - -3.9079413326717125e+00
         - 1.8075247595568276e+00
         - -1.9220574548947740e+00
         - -1.8967336866010396e+00
         - 2.6794722790623213e+00
         - -2.4469812253890013e+00
         - 4.5919500085292295e+00
         - -2.8931102660218619e+00
         - 2.1249376145291703e+00
         - 4.7106830394222554e-01
         - 4.4571016919160761e-01
         - 4.8839729495036348e+00
         - 5.3563185242119482e-01
         - 1.6859988303605133e+00
         - -7.9986034271963574e-02
         - 4.0992905354353576e-01
         - -3.7031505219173133e-01
         - -1.4168326135017228e+00
         - 1.0844314032807019e+00
         - 2.9519388710925161e+00
         - -2.5294322754528997e-01
         - 3.8742815931617205e+00
         - -6.6138329069819167e-03
         - 1.0313250559905964e+00
         - 1.0006308447174339e+00
         - -1.4772795055331542e+00
         - 2.1020225306356619e+00
         - 2.6505674967704094e+00
         - -1.6307709026504214e+00
         - 4.7621179554237809e+00
         - 1.2750972716908775e+00
         - 3.5008047396222861e+00
         - 1.1098107137335265e+00
         - 6.4547906508017366e-02
         - 1.5977041244023078e+00
         - 3.0047049395169219e+00
         - -1.3257949708198096e+00
         - 1.9908988542873021e+00
         - -1.3444094983439185e+00
         - 4.0068445874303737e+00
         - 1.8852907325860047e+00
         - -3.4816608698038096e+00
         - 1.9862846480368354e-01
         - 2.1448830390436942e+00
         - 1.5712017850917246e+00
         - -4.2598609369939817e+00
         - 8.6525695035057226e-01
         - 3.3066571762645340e+00
         - 4.4112326250873561e+00
         - 1.6358476490507849e+00
         - -2.0407455307777336e+00
         - 7.9366948706253995e+00
         - 4.8754072241588169e+00
         - -3.0124905177869615e-01
         - 1.3654136934823704e+00
         - 4.8266704579617921e+00
         - 2.0424751396018140e-01
         - 1.1635103555861019e+00
         - -3.0063795828180830e+00
         - 5.5328771055070669e-02
         - -4.7293518646285249e-01
         - -3.4055530691931424e-01
         - -1.9206275656797762e+00
         - -1.2407867682186857e+00
         - -1.1140639540473252e+00
         - -3.9607114762314799e+00
         - -4.1973005829889297e-02
         - 2.2369231881218541e+00
         - 3.1017763602300237e+00
         - 1.4696082510700703e-02
         - 1.1840272355043908e+00
         - 5.2225609201808103e+00
         - -1.5708900251427953e+00
         - -1.4073635801617426e+00
         - 9.4002311916519399e-01
         - -3.5844711507449645e-01
         - -4.0016603359168235e+00
         - 7.8206539440439993e-01
         - -5.2763612377720681e-01
         - 3.0923795132529092e-01
         - 3.7712333018829685e+00
         - -2.6291988105858648e+00
         - -1.7643583808705550e+00
         - -1.6596932204151373e+00
         - 2.9913990564086701e+00
         - -1.0944507614763377e+00
         - 1.7419111008199444e+00
         - 1.4431742317005147e+00
         - 7.2732904971531132e-01
         - 3.8568508040206440e-01
         - -1.9513844480081868e-01
         - 1.0940517285217215e+00
         - -3.2090160189675515e-01
         - -9.9321207326865979e-01
         - 1.4599441643480806e+00
         - 3.5417425163117975e+00
         - -1.2119840632468686e+00
         - -2.2478148276035315e+00
         - -9.5421293914288041e-01
         - -6.6759672293491779e-01
         - 2.0821002566366462e+00
         - 1.8430353221564839e+00
         - -1.8182401428595865e+00
         - 4.4123905211015932e+00
         - -3.4481328783253828e-01
         - -2.9410717074315875e+00
         - 4.8596305888297975e+00
         - 2.6564645334787560e+00
         - 9.0953854239022003e-01
         - -6.6649989589713776e-01
         - 6.3628330553098178e-01
         - -6.6219580358992503e-01
         - 3.5094208324740870e+00
         - -8.9142213257935393e-02
         - 2.5371650998679121e+00
         - 2.6561897217799304e+00
         - -2.3659645561448746e+00
         - 7.2282138097157833e-01
         - 6.9682812858943088e-01
         - 9.2719388187042770e-02
         - -6.2784399946798852e-01
         - -2.6920839221659554e+00
         - -2.8655019493891900e+00
         - 5.8741931191541075e-01
         - -6.9046336941202879e-01
         - 2.4342986737005692e+00
         - -1.1634319919131819e+00
         - -4.3011667656341261e+00
         - -6.8734458091034989e-01
         - -8.3866026083780432e-01
         - -1.6778469106821419e+00
         - -1.8238607602984589e+00
         - -8.1576667595625219e-01
         - -4.5992029012584110e+00
         - -7.4065666711468442e-02
         - 8.8071491305997585e-01
         - 1.6908063649938121e-01
         - -2.4857795476856710e+00
         - 4.9806858775194547e+00
         - -1.5941506417404583e+00
         - -2.0361456974686236e+00
         - -1.8748376773493494e+00
         - -1.2718612209344704e-01
         - -2.2595798824505668e+00
         - -2.3099585458623692e-01
         - -2.5737517906530549e-01
         - 7.5979440817484745e-01
         - -1.8706070885493027e+00
         - -1.7996632822831826e-01
         - 1.5787020139369476e+00
         - -1.4765766768543835e+00
         - 2.1485894795152918e+00
         - 3.5428259482467981e+00
         - 1.2526200041720987e+00
         - -1.6652645276207976e+00
         - 1.7882547837672536e+00
         - 2.9676905220118149e-01
         - 2.8401940435377853e+00
         - 5.5419933306936162e-02
         - 8.8389145993047147e-01
         - -3.3443841219129520e+00
         - -1.9809891115206144e+00
         - 8.4832055843377452e-01
         - 7.0773067284643432e-01
         - 2.5607804541311943e+00
         - -1.7754303424068130e+00
         - 2.8450723966838538e+00
         - 9.3792021866530195e-01
         - 1.5814925636411896e+00
         - -1.2813861357402558e+00
         - -3.5863070942210279e-01
         - 3.6294639216499376e+00
         - 3.4769098730097485e+00
         - 3.3022053620681753e+00
         - 1.6411420059026882e+00
         - 4.8128938407268562e-01
         - 2.2448079263633150e-01
         - -4.9339532935592052e+00
         - 8.9457966026164315e-01
         - 3.3822478506198717e-01
         - 3.1439818870397029e-01
         - -1.2483043205349236e+00
         - 4.8373220453974602e-01
         - 3.7813489735722006e+00
         - 1.0383417346783927e+00
         - 8.3505978501660971e-01
         - 5.8089082962382710e-01
         - 3.0192452957240188e+00
         - 1.4182631039254101e+00
         - 1.2029720557984361e-01
         - -4.1446907612760558e-01
         - 1.0452915363162076e+00
         - -1.3844639975423336e+00
         - -1.6789795172837325e+00
         - 1.7047549700396598e+00
         - 2.6870195373258308e+00
         - -3.0142895971012294e-03
         - -1.3972536511580615e+00
         - 8.9278864273093200e-02
         - 2.4471954647548455e+00
         - 3.2453151704148420e+00
         - -2.1095510384711877e+00
         - -8.2560611331227007e-01
         - 6.2725604341947383e-01
         - -3.4632354368495530e+00
         - 2.1716645809436209e-02
         - -1.6932768139494447e-01
         - 1.9510006230041838e-01
         - 3.8681037175365063e+00
         - 1.1324203651094604e+00
         - -2.0224891973634948e-01
         - 4.0252696427892429e+00
         - 1.3849373771549054e+00
         - -4.8569245120230203e-01
         - 1.8342814677732572e-01
         - 2.6196641576757997e+00
         - -1.2790972398733011e-01
         - -6.6691601108510845e-01
         - -5.2845789443445057e-01
         - -1.4124622089771494e-01
         - -1.5432856327015776e+00
         - -2.6862852967666978e-01
         - -2.3797116251891453e+00
         - 3.5878104513884983e+00
         - -4.1632337959152004e+00
         - 5.3917063276819976e-01
         - 2.1787167240526579e+00
         - -4.7669944307411001e+00
         - 1.7413784670490631e+00
         - 3.0604262458978221e-01
         - 1.7737731905197021e+00
         - -2.7855210877913683e-01
         - 3.2832270915947159e+00
         - 1.8376558631540392e+00
         - -6.7400185804255242e-01
         - 2.9505795025374884e+00
         - -7.4164562413480128e+00
         - 3.7937102821081039e+00
         - -6.5768440584040144e-01
         - 1.4578273234874144e+00
         - -2.2252994486194049e+00
         - -8.5026526728633600e-01
         - 8.4626394695535467e-01
         - -8.3573756530147403e-01
         - -2.3729185516971216e+00
         - -1.1177149386567196e+00
         - 3.7457223669817985e+00
         - -1.6434543759139246e+00
         - 1.3435681630369922e+00
         - -8.7601047090635520e-01
         - -1.3799368350690313e+00
         - 1.2719882807463556e+00
         - -1.4915307515998182e+00
         - 8.0391617421753425e-01
         - 1.9288647822957168e+00
         - 3.0638258998507850e+00
         - 4.1133965866263875e-02
         - 3.2483717032284418e+00
         - -7.1880566432588333e-01
         - 1.0997260922952030e+00
         - 3.3345494095073911e+00
         - -1.8509835464138769e-01
         - -2.8437544265799830e-01
         - 4.5278376077172231e+00
         - -3.7373909295044392e+00
         - -3.5057336325991679e+00
         - -8.7592524633586710e-01
         - -7.2878088359643789e-01
         - 3.0214276242574978e-01
         - 3.2142327434853115e+00
         - 1.6276231919758537e+00
         - -3.5619452386251029e+00
         - -1.0500579843409625e+00
         - -3.3111400642931432e+00
         - -9.8012984734413178e-01
         - -3.0752933234248108e+00
         - -1.8461265009727297e+00
         - -1.7817086740149946e-01
         - -9.4297745050681858e-01
         - 1.0090218016416717e+00
         - -2.7269843560582474e-01
         - 2.6197523618030100e-01
         - -1.5500507451003485e+00
         - 2.9123948839691083e-01
         - -2.6119622336051522e+00
         - 2.2615914255034042e+00
         - -1.2787106340049936e+00
         - -2.4433910711662445e+00
         - 9.7469463649126331e-01
         - -1.3780749502700738e+00
         - -5.1628730464350969e+00
         - -3.1702984295707202e+00
         - -8.2922504086284976e-01
         - 2.9830831746845017e+00
         - 5.3165182703164926e-01
         - -3.2631470146526970e-01
         - 1.9458913747092408e+00
         - 8.2898381154432499e-01
         - 3.8026807351141771e+00
         - -1.0285673234016948e+00
         - -9.9585482740901343e-01
         - -9.7848847688305629e-01
         - 4.8554196608964227e-02
         - -1.6357526956114148e+00
         - 2.4302318907088698e+00
         - 1.8311619369703951e+00
         - -3.9803017712892595e-02
         - -2.0099879615589451e+00
         - -2.6178846595954464e-01
         - -3.2109731567282465e+00
         - -8.8074469905049302e-01
         - -2.5188209936535997e+00
         - 6.8442670493581026e-01
         - 1.1793368829580566e+00
         - 3.6117473147109136e-01
         - -1.5773782644726957e+00
         - 3.8091828718791541e+00
         - 9.2458496444403204e-01
         - 2.1813420256353244e+00
         - 4.3029237949450003e+00
         - -8.9255814295715996e-01
         - 1.9286315753119903e+00
         - 3.9598546134618267e+00
         - -1.9359638507531201e+00
         - 6.5196868522505402e-01
         - -1.8190411499590449e+00
         - -2.5369141566230602e+00
         - 1.7844860201732049e-01
         - -7.8507683104992998e-01
         - 2.9570178403384091e+00
         - 3.8601655312076284e+00
         - 3.4744215635129583e-01
         - -1.1635468881403688e+00
         - 6.7687621157746785e+00
         - 1.8309852592718165e+00
         - -2.8614597690888384e+00
         - 5.3597905299088988e-01
         - -4.3049135386143356e-02
         - -6.6219128388363080e-01
         - -3.0605129062959984e+00
         - -1.2510174328765053e-01
         - 2.8279790261894475e+00
         - 4.4317984740652321e+00
         - 3.1048889125069183e+00
         - -3.0097269673861438e+00
         - -6.7347161838704450e-01
         - 1.0567878781101330e+00
         - 1.6185392032403505e+00
         - -3.5112023153818948e+00
         - 2.6276225977221945e+00
         - 1.2318863772881343e+00
         - 1.1416030498418743e+00
         - -6.7850426855933088e-01
         - 3.7792469729537039e+00
         - 5.5894019223059770e+00
         - -4.6173563627359977e+00
         - 2.7514601481022143e+00
         - 1.3753707872086882e+00
         - 7.9541263931342054e-01
         - 2.0632653930183880e+00
         - 4.5543721563567452e+00
         - -3.5788172760628867e+00
         - -1.1118461801353801e+00
         - 3.3055689493266462e+00
         - -1.0705194884142066e+00
         - 1.0135402310051791e+00
         - 6.4184201011260527e+00
         - -6.1838927788849994e-02
         - 1.2871125022762548e+00
         - 1.8722901593022743e+00
         - 7.6839029517283164e-01
         - -1.1826892459424914e+00
         - 1.4144970203832952e+00
         - 9.5173896733780350e-01
         - -1.8266199656491615e+00
         - 8.2067995479052680e-01
         - 1.5279546202601280e+00
         - 2.5074149556697027e+00
         - -1.2150676790669657e+00
         - -1.5040224656120442e+00
         - 1.7950348110436978e+00
         - -2.7347036346289335e+00
         - -3.5207465205567674e+00
         - -2.9370051426663837e+00
         - -2.9995769423401614e-01
         - -3.0531758462515424e-01
         - 1.9446721302627976e-01
         - -9.8279932344853471e-01
         - -8.6032151166412307e-01
         - -1.8361407230020284e+00
         - -6.5717305145304925e-02
         - -2.0194010836203153e+00
         - 2.8738979362763870e+00
         - -5.8513918803424003e-01
         - -4.3724313313359087e-01
         - 1.8284392586066454e+00
         - 2.7689706320433221e+00
         - 1.1244810614464853e+00
         - 3.6680270931967590e-01
         - -2.4208343946963415e+00
         - -2.6179487267166603e+00
         - -4.1027437955410739e-01
         - -7.5054504553292167e+00
         - -1.6952481692105454e+00
         - 6.2628945601145747e-01
         - 2.7513120741172776e+00
         - 5.4180273992664878e+00
         - -4.7547590282011115e-01
         - 2.4967079700798838e+00
         - 1.0109534641614377e+00
         - -1.6522406081204388e+00
         - 4.9159393489070297e-01
